631 100
확진 0.189812 -0.159726 0.115968 0.030809 -0.581383 0.153045 0.122651 0.254629 0.047905 0.146175 -0.131484 0.295296 -0.449216 -0.200331 0.147293 -0.447327 0.724074 0.175537 0.256959 -0.180796 0.363045 -0.561610 0.001090 -0.456440 0.270964 0.312383 0.056835 -0.064617 -0.398103 -0.139141 0.351396 0.240435 -0.219567 0.104825 -0.206763 -0.592779 0.328895 -0.066581 -0.048373 0.033866 0.147883 0.129321 -0.184211 0.297621 -0.290079 0.247827 0.131196 -0.269740 -0.356025 0.036546 -0.054681 -0.071420 0.260998 -0.468628 -0.105301 0.266706 -0.476960 -0.083418 0.101874 0.092751 0.299581 -0.008656 -0.249624 0.184945 0.413385 -0.377272 0.250863 0.408775 -0.292313 0.001408 0.112479 -0.764943 -0.262737 -0.438888 0.005402 -0.116068 -0.054210 -0.019886 0.228352 0.429562 0.137030 -0.486970 -0.442223 0.198043 -0.497349 -0.512055 -0.025116 0.229434 -0.177338 0.041505 -0.020120 0.359227 0.097660 0.082782 0.563520 0.147655 0.115982 -0.427138 0.111390 -0.225395
발생 0.204645 -0.098093 0.259870 0.195779 -0.691541 -0.037424 0.640589 -0.222198 0.010129 0.055159 0.011518 0.366213 -0.287541 -0.140561 -0.159598 -0.320857 0.591579 0.241180 0.138102 -0.139044 0.492318 0.069823 0.491949 -0.016303 0.421570 0.358138 0.416881 -0.330189 -0.298487 -0.350713 0.456925 -0.160483 -0.529654 0.141579 -0.026892 -0.465046 0.199257 0.096282 -0.170978 -0.021043 0.587264 -0.169511 -0.595239 -0.132527 -0.416948 0.254578 0.118460 -0.391639 -0.538909 0.299561 -0.199082 -0.043081 0.560372 -0.245683 -0.169493 -0.093876 -0.765613 -0.044600 -0.275270 -0.116603 0.212803 0.204933 -0.068648 0.070537 0.320355 0.114149 0.246545 0.513466 0.061961 -0.241787 0.065597 -0.666794 -0.307575 -0.479097 0.481391 -0.371217 0.148436 -0.431187 0.170106 0.160178 -0.011848 -0.475593 -0.178766 -0.022071 -0.280066 -0.434799 0.137380 0.477786 0.145531 -0.064294 -0.200371 0.301143 0.047503 0.121048 0.219501 -0.015855 0.082930 -0.261563 0.213707 0.045163
코로나 -0.019518 0.232379 0.201067 -0.213277 -0.417506 -0.125368 0.002679 0.059159 -0.155318 -0.002111 0.399191 0.111920 -0.187298 -0.085617 -0.666715 -0.736353 0.037753 -0.269743 -0.261548 -0.050178 0.037008 -0.434545 -0.449979 0.114837 0.346559 0.319972 0.372237 0.178343 -0.252764 -0.157051 0.168487 0.022488 -0.514241 0.069061 0.357260 -0.085567 -0.220330 0.188353 -0.390894 0.147795 0.057844 -0.021121 -0.024686 -0.054253 0.110597 0.164020 0.086088 -0.370397 0.215544 -0.055919 0.279878 0.085188 0.461032 -0.311165 -0.501049 -0.104476 -0.670107 -0.001411 -0.047800 0.050862 0.730975 -0.034618 0.000435 -0.005505 0.268806 0.035734 0.200705 0.105728 -0.138337 -0.383734 0.166162 -0.324913 0.158587 -0.330989 -0.447524 -0.259526 0.286577 0.133100 0.458917 -0.052345 -0.083303 0.160802 -0.040101 0.209108 -0.406917 -0.355624 0.219738 0.172724 0.161208 -0.170719 -0.397612 0.378416 0.332448 0.615779 0.374204 0.369701 0.424618 -0.115359 -0.079840 0.399245
검사 -0.065289 0.161130 0.140475 -0.555401 -0.240423 -0.332157 0.024320 0.013044 0.043625 0.489831 0.495138 -0.149560 0.177012 -0.275682 0.194886 -0.518383 0.549073 -0.169605 -0.449451 -0.417050 -0.187145 -0.104352 0.345368 -0.566910 -0.063693 -0.123716 0.248294 0.226082 -0.654152 -0.009259 0.116763 -0.005490 -0.061727 0.357793 -0.413149 0.036101 0.072993 0.233880 -1.000614 0.043150 0.009759 -0.225092 0.098748 -0.528123 0.329289 0.176066 0.221132 0.000544 0.273040 0.039267 -0.227762 -0.082648 -0.216640 0.010276 0.038281 0.375281 -0.410001 0.118827 -0.138998 0.181973 -0.119836 -0.138964 -0.770599 -0.135103 0.142084 -0.128318 -0.104469 -0.046236 -0.048591 -0.429247 -0.020346 -0.316563 -0.181825 -0.398466 -0.331682 -0.305772 -0.590711 -0.275431 0.784086 0.304251 -0.332380 -0.226172 -0.211247 -0.316862 -0.055536 -0.753051 0.250194 0.375433 -0.344497 -0.111017 -0.324676 0.278574 -0.117686 0.027771 -0.110285 -0.013266 -0.238233 0.008485 -0.176131 0.061829
방역 0.763830 0.066964 0.598638 -0.126449 0.075094 -0.073747 -0.458322 -0.272506 -0.327922 0.409315 -0.255162 0.237462 0.253899 0.260711 -0.188562 -0.379789 0.414910 0.076043 -0.386478 -0.033590 0.051218 -0.093683 -0.128969 -0.051814 0.144255 0.043121 0.000488 -0.206189 -0.383684 0.367477 0.458344 0.081110 0.036962 -0.397106 -0.406779 -0.229051 0.268666 -0.215735 -0.614801 0.297866 0.287178 0.163662 -0.488701 -0.729214 -0.395168 0.576057 0.028529 -0.360072 0.039936 0.313707 -0.275840 -0.044309 0.703453 0.093696 -0.322014 -0.279397 -0.224638 0.000673 -0.273525 0.002936 0.101207 0.193499 -0.104642 0.221169 0.429048 -0.067738 0.503716 0.269638 -0.350706 -0.152081 0.099897 0.148111 0.164354 0.032312 -0.171316 -0.271548 -0.123673 -0.016026 0.407577 -0.048069 -0.206969 0.011279 -0.083550 0.111235 -0.131375 -0.063665 0.319294 0.155001 0.031300 -0.052748 0.074735 -0.071832 -0.041102 0.225723 0.899443 0.067798 0.063183 0.135608 -0.180188 0.222858
착용 0.296678 0.000566 -0.059943 -0.550793 0.129613 -0.061171 0.075061 -0.086849 -0.452522 0.473721 0.151282 0.046073 0.098774 -0.036820 0.086392 -0.498321 0.190329 -0.191141 -0.457960 0.244206 -0.381895 -0.408258 0.585938 -0.119916 0.482451 0.342997 0.091847 -0.104978 -0.424594 -0.287867 -0.106376 0.004015 -0.289870 0.054698 -0.106173 -0.436074 0.366716 -0.216254 -0.611544 0.069677 0.337038 0.021886 0.060404 -0.351454 -0.273994 0.407731 0.061281 -0.728431 0.316146 -0.208324 0.240826 -0.267457 0.366066 0.081489 -0.158415 -0.139712 -0.438875 -0.045223 -0.081827 -0.117896 0.130909 0.194629 0.190930 -0.002660 0.109437 -0.043638 0.182450 -0.022407 0.136455 -0.655452 0.485636 -0.388714 0.153383 0.335071 -0.218039 0.242173 0.051736 -0.064280 0.164506 -0.050968 0.309399 -0.584521 -0.230853 -0.279551 -0.019333 -0.181707 0.169389 -0.253905 -0.237871 -0.014863 0.254159 0.110352 0.344030 0.202830 0.477809 -0.314209 -0.216399 -0.272483 -0.636530 0.472125
보건소 -0.259906 0.479890 -0.059134 -0.215119 -0.564623 0.010092 -0.503999 -0.396668 -0.538142 0.314511 0.540268 0.675400 -0.226144 -0.296287 0.240116 -0.908491 0.692532 -0.310573 -0.543367 -0.161177 0.092449 -0.126668 -0.169476 -0.360818 -0.328674 -0.138278 -0.116721 0.205811 -0.579371 0.038904 0.559350 0.168538 -0.015232 -0.221670 0.294478 -0.502728 0.166051 0.071906 -0.274084 0.823192 0.192041 -0.020213 -0.200516 -0.283804 -0.143232 0.338008 -0.100312 -0.134459 -0.067774 0.308047 -0.200774 0.140379 0.090935 0.423209 -0.180914 0.785863 0.014402 0.068473 -0.210674 -0.028348 -0.384091 -0.102527 -0.516779 -0.077553 0.099253 -0.226918 0.228722 -0.188581 -0.195286 -0.390649 0.394493 -0.512883 -0.328910 -0.161936 0.347616 0.126339 0.155457 0.006647 0.799592 0.369184 -0.236375 -0.360731 -0.250177 0.091190 -0.127536 -0.703672 0.125859 0.284905 -0.447992 -0.566045 -0.251771 0.410337 -0.367043 -0.015154 0.052234 0.344591 -0.373008 0.347050 -0.224266 0.459737
방문 -0.781748 0.034290 0.358426 -0.316685 0.261888 -0.197239 0.298607 -0.161910 -0.337329 -0.318258 -0.057449 -0.135104 -0.233218 -0.038063 0.150151 -0.163120 0.105644 0.087905 -0.312512 -0.292103 -0.282174 -0.249728 -0.286764 -0.006865 0.447238 -0.249454 0.432674 0.296623 -0.476346 -0.057523 0.277052 0.331867 -0.368787 -0.021933 -0.026415 -0.261238 0.076163 -0.037633 -0.284050 0.393972 0.118483 0.300390 -0.072072 -0.620507 -0.164629 0.162736 -0.146385 0.087461 0.037960 0.298299 0.199032 -0.311734 0.280179 -0.131000 -0.268822 0.133769 -0.469193 0.125666 -0.109845 0.211638 -0.112413 -0.216452 -0.377192 0.482002 0.216022 -0.210488 0.263846 0.108939 -0.223174 0.013677 0.485480 -0.226092 0.095825 0.071262 -0.032856 0.296769 0.098619 -0.023582 0.363467 0.091369 0.107865 -0.359940 -0.348322 0.220971 0.117810 -0.303861 0.183118 0.263491 0.214709 -0.142768 -0.200762 0.238341 0.252668 -0.077789 0.129206 -0.019914 0.245313 0.092931 -0.138464 -0.090456
수칙 0.411045 0.040021 -0.250307 -0.763240 -0.135987 -0.087814 -0.139967 -0.090166 -0.042825 -0.170864 -0.129856 0.212927 0.447605 -0.025837 0.069602 -0.588465 0.161762 -0.002446 -0.460258 0.241375 0.118627 -0.613862 0.330304 0.194689 0.150213 -0.202956 0.215311 -0.035555 -0.667628 -0.489903 0.121403 -0.113007 -0.021323 -0.025245 -0.145602 -0.051417 0.259066 0.330846 -0.347802 0.494158 0.539162 -0.007436 -0.079030 -0.296928 -0.233615 0.974702 0.329053 -0.712578 0.286157 -0.070975 0.253207 0.161214 0.463654 0.128520 0.010898 -0.425600 -0.514700 0.043978 -0.186475 -0.010562 -0.353332 -0.114200 0.233600 -0.242016 -0.161222 -0.373096 0.146226 0.355578 0.056542 -0.321909 0.393682 -0.121389 -0.004840 0.300758 0.016930 -0.115799 -0.096317 -0.122469 0.334523 -0.276246 -0.053489 -0.344613 -0.240136 0.035957 -0.172960 -0.545665 0.228692 0.102563 0.364119 0.253402 0.050799 0.383201 -0.122805 -0.102492 0.421107 0.180037 -0.296460 0.163173 -0.650141 -0.010035
자제 -0.389337 -0.128217 0.361706 -0.491162 0.177647 -0.303636 0.246226 0.138572 -0.568597 0.315065 0.078042 -0.046551 -0.266167 0.352008 -0.166237 -0.698818 0.309677 -0.186004 -0.399572 -0.643859 -0.244121 -0.390154 0.350349 0.430749 0.058449 -0.105932 0.332397 -0.072069 -0.243193 -0.542318 -0.121409 -0.016408 -0.217569 0.306343 -0.204828 -0.485349 0.384572 0.126479 -0.501893 -0.153926 0.103392 0.090275 -0.283405 -0.258670 -0.420670 0.756808 0.392849 -0.465089 0.163364 -0.117364 0.512946 -0.198150 0.373361 0.237171 -0.248716 0.216378 -0.124451 0.444735 -0.017785 0.131355 -0.406898 -0.194486 0.049678 0.118480 0.406699 0.051868 0.516342 0.363965 0.160965 -0.059593 0.359279 -0.228615 0.421750 0.264905 -0.363635 -0.247202 0.200313 0.056064 0.487216 0.076207 0.055023 -0.325972 0.010606 -0.013400 -0.261744 -0.323666 -0.235688 -0.208882 0.108744 -0.269882 0.012422 0.223265 0.247461 -0.030666 0.280585 0.100504 0.307206 0.000614 -0.638242 0.294303
동선 0.043371 -0.313624 0.296528 -0.143905 0.007428 0.497635 0.628331 0.299070 -0.407429 0.483667 0.259048 0.610611 -0.083495 -0.381422 0.236526 -0.360473 0.475911 0.094271 0.149380 -0.413880 -0.349760 -0.305805 0.036579 -0.051338 0.669293 0.302471 0.133095 -0.093134 -0.393838 -0.155715 -0.258375 0.010643 -0.134915 -0.176884 -0.353528 0.019440 -0.104505 -0.241936 -0.089062 0.119072 0.398599 0.074029 -0.534539 -0.239145 -0.299547 0.010009 -0.067225 -0.492000 -0.074290 -0.013655 -0.624644 -0.072243 0.289513 0.073312 0.040670 0.325285 -0.505980 0.103902 -0.191544 0.275041 -0.163763 0.010720 -0.244680 0.103172 0.527073 -0.419120 0.228075 0.503302 -0.576244 -0.033658 0.297077 -0.070854 -0.121562 -0.199827 -0.095619 -0.105075 0.110589 0.194833 -0.038148 0.494226 0.241520 -0.323074 -0.250615 -0.057343 0.235680 -0.320441 -0.161283 0.602895 -0.255477 0.170718 -0.114640 0.471261 -0.633484 -0.213142 0.292846 -0.156934 -0.316648 -0.163314 -0.030797 0.121865
마스크 0.498662 -0.407761 0.306336 -0.606382 0.061322 0.041287 0.249086 0.205148 0.044786 0.410020 0.155195 0.007805 -0.221274 -0.190271 -0.313807 -0.351029 0.193845 0.150734 -0.172683 -0.056710 -0.019663 -0.679642 0.590515 0.514696 -0.026484 0.063837 0.260371 0.379474 -0.632280 -0.334254 -0.214604 -0.122289 0.193965 -0.209886 -0.093980 -0.229445 0.322659 -0.202362 -0.646441 0.333976 0.290971 0.101997 -0.292290 -0.278164 -0.142989 0.365911 0.325564 -0.704579 0.042416 -0.098324 0.137295 -0.438014 0.492763 0.209087 -0.182750 -0.092475 -0.157287 0.184290 -0.096484 0.149644 -0.082022 0.179473 0.107075 0.304395 0.027997 -0.019295 -0.157408 -0.059513 0.095137 -0.165201 0.469551 -0.372525 -0.002392 -0.189941 0.077127 0.144356 0.135593 0.167188 0.616385 -0.054042 -0.126545 -0.659364 0.024651 0.188961 -0.446806 -0.166172 0.030120 -0.449116 0.067479 -0.110861 0.130275 0.403150 0.149064 0.224296 0.320196 0.103200 -0.151532 0.187604 -0.480541 0.367861
지역 0.074807 0.013893 0.147445 -0.205464 0.013406 -0.130343 0.143426 0.118305 -0.506077 0.081988 -0.102277 0.404580 -0.268607 0.055413 -0.106520 -0.493419 0.340117 -0.284097 0.220742 -0.207071 0.166429 -0.444418 0.138484 0.223387 0.127825 -0.042391 0.323991 -0.024476 -0.248704 -0.247628 0.136425 -0.016913 -0.589784 -0.056806 0.032499 -0.364172 0.381582 -0.178754 -0.447070 0.139362 0.089494 0.151251 -0.483210 -0.029151 0.187442 0.395201 0.595394 -0.202353 -0.301214 0.139711 0.107819 -0.296136 0.442296 -0.063418 -0.002372 -0.072027 -0.166296 -0.426020 -0.017775 0.155564 0.037049 -0.040079 -0.178995 -0.148865 0.167953 -0.221813 0.481835 0.751126 0.159787 -0.641969 0.133006 -0.358716 0.151365 -0.089381 0.644780 -0.145456 0.365905 0.142545 0.436145 0.049547 0.119305 0.041002 -0.454222 -0.148872 -0.539429 -0.013261 0.159499 -0.041395 -0.345693 -0.112206 -0.403477 -0.070578 0.103869 -0.083227 0.406576 -0.118864 -0.009673 0.032723 -0.074221 -0.458645
방문자 -0.608761 0.227116 0.156868 0.068936 -0.010911 -0.004780 0.113050 -0.060275 -0.054929 0.031306 0.174916 0.067692 -0.335953 -0.389833 0.152897 -0.377335 0.392678 -0.038602 -0.469438 -0.226698 0.418133 0.217512 -0.239282 -0.248639 0.234522 -0.198354 -0.126154 0.035772 -0.563562 -0.046433 0.160725 0.296704 -0.010453 0.446383 0.118072 -0.625850 0.229602 -0.118898 -0.648100 0.430199 0.366591 0.150748 -0.108838 -0.068679 -0.557316 0.364802 -0.200771 0.249412 -0.280514 0.698703 -0.083003 -0.318284 -0.017922 0.409617 -0.359638 0.601065 -0.697946 -0.008910 -0.201970 0.371884 -0.420034 -0.598005 -0.573018 0.089088 0.088999 -0.441627 0.475165 0.608110 -0.213256 -0.308614 0.422834 -0.078291 0.004295 -0.434327 -0.302329 0.072408 0.233567 -0.212501 0.172281 0.403456 -0.239713 -0.320230 -0.366720 0.252343 0.166846 -0.411497 0.153303 -0.292015 -0.078942 -0.225795 0.370759 0.778131 -0.046429 0.041506 0.050585 0.032488 0.245973 0.405135 0.174429 0.383810
조사 0.400982 -0.219396 -0.072663 -0.463852 -0.264298 0.187535 -0.232668 0.263318 0.032915 0.069353 -0.123075 1.257362 -0.115416 -0.174775 0.001252 -0.423108 0.536951 0.316036 -0.414907 -0.077964 -0.103807 -0.119776 -0.052984 -0.118763 0.587133 -0.602834 0.306700 -0.249047 -0.688981 -0.592715 0.308460 -0.283707 -0.500993 0.504837 -0.507061 -0.124312 0.065177 -0.025829 -0.209032 0.124427 0.303869 0.052790 -0.121527 -0.050691 -0.586756 0.365305 -0.091060 -0.359174 -0.523219 0.202845 -0.159861 0.265702 0.476225 -0.249937 -0.049027 0.235558 -0.727482 0.133272 -0.279785 -0.014218 0.244981 0.134078 -0.417097 0.156921 0.447540 0.291293 0.796085 0.507237 -0.345315 -0.182344 -0.305022 -0.689009 -0.027844 -0.407759 -0.371985 -0.324530 -0.115408 0.026112 0.301833 0.580068 0.340804 -0.516126 -0.316650 -0.082998 0.046880 -0.420841 0.299099 -0.128139 -0.353851 0.119002 -0.297349 0.368494 -0.369882 0.129658 0.336309 0.037015 -0.119010 -0.193937 0.187766 0.148833
선별 -0.218587 0.181446 0.043846 -0.215231 -0.335601 0.357382 -0.599871 0.070051 -0.304566 0.205739 0.179842 0.107398 -0.374581 0.003532 0.194957 -0.804437 0.602872 -0.037186 -0.136693 -0.490448 -0.400543 0.259741 -0.023767 -0.372154 0.067365 0.092787 -0.212669 -0.074078 -0.581265 0.135998 0.589474 0.096338 0.219289 0.346693 0.266611 -0.329346 0.062900 -0.144633 -0.413012 0.264400 0.194430 0.310595 -0.460737 -0.181779 0.312913 0.094678 0.248817 -0.186855 -0.249311 -0.001272 -0.367328 -0.058373 -0.184588 0.192901 0.101064 0.569412 -0.249415 0.449742 -0.281970 0.645187 0.275177 -0.436230 -0.732340 -0.331407 -0.003540 0.191596 0.144303 0.092568 0.403530 -0.509168 0.446044 -0.299371 0.529743 0.168053 -0.200978 -0.135864 -0.137460 -0.141911 0.558163 0.036825 -0.065927 -0.773646 -0.451481 -0.085996 0.294079 -0.749652 0.423234 0.130983 -0.176902 -0.637291 -0.232828 0.416207 -0.074700 -0.151477 -0.001802 -0.154408 -0.010957 -0.162754 -0.168024 0.295040
진료소 -0.228002 0.406901 0.292900 -0.228010 -0.509000 0.337112 -0.026088 -0.262731 0.206107 0.281538 0.473618 0.540627 -0.483507 -0.030006 -0.151962 -0.682196 0.256798 -0.010809 -0.426141 -0.659153 0.037727 0.436828 0.242677 -0.164125 -0.053753 0.018219 0.071694 0.035062 -0.390269 0.015019 0.377824 0.049331 0.088265 -0.226154 -0.620375 -0.751262 -0.114502 -0.271800 -0.831421 0.213187 0.355256 0.366762 -0.325069 -0.031404 0.283328 0.116899 0.148382 -0.406835 -0.062100 -0.001506 -0.147001 -0.213763 -0.239326 0.578703 0.068466 0.149169 -0.443228 0.050703 -0.303065 0.157462 -0.213059 -0.067067 -0.693150 -0.455691 -0.049874 -0.081808 0.147525 -0.286631 -0.038861 -0.123612 0.065979 -0.513029 0.136961 0.008966 -0.324833 -0.153308 0.167524 -0.484860 0.685302 -0.349522 0.016348 -0.571714 0.012520 0.012783 0.226334 -0.730037 0.465542 0.535641 -0.130832 -0.750120 0.250261 0.306119 -0.326746 -0.096171 -0.101386 0.472801 -0.213902 0.414852 -0.164807 0.352126
모임 -0.150053 -0.406208 -0.017329 -0.122562 0.108123 -0.258929 -0.012068 0.494774 -0.376955 -0.053715 -0.000920 0.044908 0.091063 -0.116184 -0.342521 -0.715590 0.343715 0.248076 -0.213400 -0.006523 0.298181 -0.143256 0.614639 0.177870 0.533663 -0.155350 0.558146 -0.205647 -0.415715 -0.239484 0.107166 0.385079 0.053511 -0.541308 0.136448 -0.518223 -0.158231 0.338945 -0.662419 0.125524 0.098170 0.053525 -0.521424 -0.149093 -0.807511 0.207941 0.292057 -0.402033 0.009785 -0.151531 0.412627 -0.055513 0.460414 0.218019 -0.404435 -0.290556 0.275635 0.011422 0.086156 0.208608 0.026910 -0.331945 0.024009 -0.168383 0.646228 0.044904 0.281764 0.361396 0.433218 -0.405584 0.327431 -0.433808 0.163434 0.201692 0.022717 -0.153184 -0.134310 0.167370 0.222307 0.152607 -0.208301 -0.528157 -0.519208 -0.372570 -0.107131 -0.326689 0.360389 0.123839 -0.027996 0.035513 0.028193 0.251012 0.069701 0.790934 0.548312 -0.299326 -0.029578 0.250213 -0.761692 -0.070430
역학 0.184833 -0.243892 0.566115 -0.205851 -0.333782 0.085799 -0.085600 -0.198505 -0.110305 0.461811 0.071426 0.960153 0.343997 -0.276438 0.202714 -0.641776 0.587215 0.407850 0.237611 0.084977 0.288705 -0.425814 0.499340 0.062228 0.252962 -0.440056 0.405114 -0.781719 -0.433159 -0.670689 0.393416 0.399676 -0.480772 -0.020916 -0.545295 0.010040 0.537697 -0.264879 -0.285701 0.274562 0.454107 -0.019113 -0.081471 0.157962 -0.541014 -0.161645 -0.065762 -0.383423 -0.175547 0.160648 -0.377174 -0.021028 0.363431 -0.634090 -0.049830 0.314587 -0.701607 0.263061 -0.214019 -0.057823 0.270135 0.515204 -0.248975 -0.431916 0.283131 0.143373 0.422146 0.646036 -0.286282 -0.308107 -0.129500 -0.439478 0.001370 -0.149745 -0.708573 -0.053389 -0.316507 0.036163 0.003734 0.398654 0.150821 -0.255685 -0.305365 0.211436 -0.428667 -0.839267 0.301561 0.100364 -0.294112 -0.016417 -0.152750 0.251999 -0.518402 0.077226 0.080948 0.218857 -0.146315 -0.174226 0.537744 0.033434
홈페이지 0.547514 -0.383467 -0.074930 -0.315611 -0.401147 -0.037695 0.224832 0.159171 -0.701690 0.785466 -0.432541 0.684785 0.070542 -0.467278 -0.047329 -0.712446 0.237764 0.880846 -0.253422 -0.239987 0.275217 0.036065 0.194101 0.102063 0.284210 -0.427888 0.573637 -0.343402 -0.446283 -0.514297 0.529887 -0.103608 -0.254344 -0.226567 -0.231999 0.310520 0.174656 -0.478093 -0.329533 -0.213902 0.140028 0.383358 -0.361555 -0.463622 0.135856 1.082756 0.500708 -0.141929 -0.341536 0.175287 -0.586536 0.441982 0.622791 -0.741079 -0.261159 0.309108 -0.910471 0.976923 0.529031 0.509884 -0.414394 -0.196834 -0.531350 0.128547 0.323221 0.378075 0.102581 0.445377 0.076649 -0.025723 0.022501 -0.580926 0.015421 -0.035595 -0.317189 0.321835 0.490163 0.243845 -0.405625 0.585352 0.537885 -0.397880 -0.150571 0.132009 -0.291952 -0.589493 -0.255754 0.072088 -0.341714 -0.639406 0.461981 0.100564 -0.388224 0.357963 0.509200 -0.098258 -0.181907 -0.541466 -0.757368 -0.129388
거리 0.410173 0.143961 -0.053818 -0.895100 0.434091 0.170577 0.018503 0.108613 -0.340999 0.734810 -0.185799 0.306621 0.399299 -0.034766 -0.155187 -0.609964 0.273464 -0.275248 -0.022134 -0.084209 0.077246 -0.043613 0.379208 0.426940 0.475472 0.049537 0.650453 0.129974 -0.731242 -0.716463 -0.246056 0.142180 0.155163 0.316547 -0.037417 -0.003950 0.059711 0.267433 -0.423189 -0.066371 0.817399 0.139281 -0.029334 -0.611589 -0.239944 0.270893 0.386082 0.137345 0.221311 -0.708591 0.006696 -0.086341 0.323373 0.111048 -0.081936 0.348870 -0.184784 0.402145 -0.686674 0.017651 0.230547 0.177504 -0.390548 -0.079969 0.273194 -0.109576 0.134517 0.447805 0.073451 -0.282417 0.253460 -0.118817 0.084018 0.151723 0.298902 -0.061517 0.330924 0.288845 0.510553 -0.165399 -0.093665 -0.226537 -0.397711 0.410631 0.005800 -0.054763 0.490276 0.356191 0.348189 0.010970 0.402945 0.697795 0.594966 0.705186 0.621513 0.002375 -0.336687 0.183710 -0.447790 -0.177103
두기 0.381454 -0.013325 0.411986 -0.834231 0.303956 0.088163 -0.221853 0.063354 -0.416036 0.509339 -0.311403 0.315459 0.088810 -0.743047 0.167962 -0.736241 0.026068 -0.615532 0.002234 0.165863 0.323016 -0.536836 0.541953 0.391078 0.033656 -0.051757 0.246681 0.035587 -1.187106 -0.477301 -0.138217 0.275033 -0.004289 0.240473 -0.403525 -0.424384 -0.087315 -0.009528 -0.885920 0.326259 0.488051 0.258844 -0.407377 -0.313406 0.137560 0.480670 -0.219806 0.035260 -0.008202 -0.498024 0.000023 -0.096160 0.647329 0.176419 -0.217810 -0.048222 -0.363173 0.495107 -0.580747 -0.076980 0.353427 0.015700 0.164814 -0.357053 0.610623 -0.070061 0.483344 -0.230356 0.254725 -0.082547 -0.011248 -0.177600 0.306351 0.338361 0.583384 0.061050 0.370031 0.259362 -0.068413 -0.258790 -0.294067 -0.598206 -0.493614 -0.116558 0.166074 -0.167999 -0.094637 -0.001037 0.198162 -0.421010 0.401403 0.651669 0.216201 0.166916 0.491630 0.283867 0.215695 -0.079777 -0.499892 0.060090
시설 0.374888 -0.577553 -0.398526 -0.531935 0.159986 0.147022 0.111963 0.012155 -0.597579 0.149700 -0.347387 -0.882840 0.386184 -0.352826 0.113717 -0.715034 0.304538 -0.209064 -0.384158 0.199882 0.404891 -0.118997 0.663329 0.093689 0.067767 0.099275 0.054316 -0.499966 -0.492643 -0.242362 0.183988 0.184807 -0.040344 0.138054 -0.594271 -0.193599 0.071531 0.173956 -0.499525 0.146639 0.029050 0.021145 -0.506098 -0.412833 -0.517144 0.306617 -0.321644 -0.119007 -0.178200 0.566090 -0.260712 0.194426 0.395861 0.216738 -0.353896 0.357015 -0.393997 -0.126051 -0.358069 0.086086 0.003746 0.291661 -0.334795 0.340870 0.516753 -0.560570 -0.162555 0.264319 0.259163 -0.058854 0.697892 -0.311921 -0.624871 0.083765 -0.165753 0.678987 -0.026640 0.630698 0.580632 -0.344197 0.294364 -0.364582 0.363193 -0.221091 -0.055836 -0.146550 0.262664 0.089354 0.274745 -0.202191 0.145729 -0.093821 0.253086 -0.164342 0.226521 0.422698 0.197523 0.256656 -0.145266 0.213292
공개 0.270918 -0.439624 0.365232 -0.180765 -0.291382 0.397498 0.045023 0.059456 0.380384 0.800386 -0.083323 1.104146 -0.225553 -0.151922 0.095691 -0.437004 0.057818 -0.090296 -0.306392 0.233344 0.251966 0.228297 0.330885 0.369598 0.367929 -0.057397 0.720587 -0.065978 -0.451477 -0.849890 0.293301 -0.037980 0.014189 0.129060 -0.423789 0.269599 0.359173 -0.485796 -0.287574 0.635370 -0.085997 -0.211044 -0.749738 -0.436889 -0.176135 0.329588 -0.190634 -0.231819 0.154727 0.138846 -0.621918 0.138973 0.243588 -0.072804 -0.112263 0.294754 -1.221887 0.669377 -0.009211 -0.059368 -0.081528 -0.582498 -0.455175 -0.167811 0.290397 -0.018559 -0.001999 -0.056442 -0.258025 0.036903 -0.034052 -0.281183 0.035890 -0.174124 -0.470470 -0.060782 0.174560 0.208398 0.079596 0.354519 0.282074 -0.254927 -0.618918 0.013041 -0.306634 0.108414 0.049575 -0.093901 -0.688565 -0.034481 0.316077 0.882971 0.032063 -0.011108 0.452820 0.174814 -0.145652 -0.538311 -0.400745 0.164064
완료 0.249935 0.101271 1.047304 -0.474924 -0.610203 0.479801 -0.309176 0.181515 -0.086833 0.457898 0.190327 0.717583 -0.211504 -0.581649 0.380739 -0.210606 0.650526 0.066875 -0.278725 -0.188723 -0.153334 -0.424386 -0.070808 -0.197504 0.674889 0.203080 -0.422828 -0.680955 -0.732926 -0.154888 0.117194 -0.408800 -0.204680 -0.471406 -0.125025 0.222258 0.015633 -0.418183 -0.232070 -0.046839 0.034193 -0.342851 -0.105418 -0.267538 -0.649937 0.046233 0.408808 -0.125894 -0.181740 0.471145 -0.269235 0.047789 -0.295496 0.222627 0.213223 0.438939 -0.644565 -0.086392 -0.240337 -0.091404 -0.053364 0.260737 -0.767116 0.133827 0.231167 -0.462462 0.176966 -0.083369 -0.477449 -0.210642 0.054766 0.193882 0.292395 0.074353 -0.715661 0.634499 0.236120 -0.647710 0.365360 0.222628 -0.001768 -0.236164 0.001645 0.256132 -0.307159 -0.459257 -0.229514 0.128632 0.404578 0.198595 -0.461841 0.555259 -0.058889 -0.115567 0.998017 -0.019050 -0.125962 0.201203 -0.202769 0.117545
소독 0.362502 -0.096417 0.152477 -0.603279 0.059391 0.390412 -0.087982 -0.016710 -0.180352 0.269260 -0.269686 0.081956 0.084510 -0.289386 -0.432866 -0.461627 0.882580 -0.134811 -0.280277 -0.057356 -0.439159 -0.660115 0.137974 -0.429895 0.005250 -0.453725 -0.176772 -0.031988 -0.620973 0.112499 0.256329 -0.397531 -0.433089 -0.410994 0.274536 -0.111099 0.292499 -0.438671 -0.576720 0.058988 0.092414 0.089596 -0.387164 -0.265946 -0.721643 0.264392 0.382835 -0.118002 0.151145 0.561357 -0.978703 -0.504896 -0.314569 0.185141 -0.254276 -0.407537 -0.434399 0.305993 -0.172973 -0.333994 0.227768 0.461092 -0.548010 0.007102 -0.139384 -0.160099 0.390787 0.371472 0.020433 0.336449 -0.437241 -0.347306 0.269976 -0.445974 -0.878518 0.383345 -0.129647 -0.562979 0.192127 0.162907 0.232677 0.206891 -0.351339 -0.037151 0.197765 -0.047336 0.085475 -0.227252 0.475778 0.281163 0.054222 0.476410 -0.096876 -0.317030 0.604856 -0.254757 -0.296219 0.234751 -0.383522 0.472244
예정 0.114408 0.186053 0.282882 -0.797239 -0.257249 0.146696 -0.039433 -0.339762 -0.009269 0.431506 -0.001820 0.385955 -0.169456 -0.464254 0.373718 -0.932847 0.128624 0.501452 -0.233550 0.387214 0.393449 -0.431675 0.034193 -0.026280 0.418606 -0.372905 0.372681 -0.488276 -0.636764 -0.301747 0.132796 -0.619780 -0.454307 -0.250982 -0.102215 0.209584 0.136444 -0.491670 -0.260612 0.041596 -0.029170 -0.010596 -0.740938 -0.266386 -0.738289 0.321966 -0.078976 0.278726 -0.271301 0.311900 -0.531477 -0.115918 0.425192 -0.574213 0.321740 0.569287 -1.039266 0.328374 0.386697 0.129313 0.333816 -0.444748 -0.184545 0.214155 0.561973 1.006388 0.479911 -0.302565 0.065685 -0.661874 0.519094 0.385727 -0.079555 -0.126701 0.160436 -0.295582 0.514456 -0.174827 0.229137 0.168960 0.146115 -0.109847 -0.329989 0.134323 -0.675858 -0.580170 0.754449 -0.204194 0.202111 0.058084 0.096375 0.170599 -0.609590 0.140941 0.922437 -0.152246 0.329766 -0.604398 -0.893862 0.556467
준수 0.133980 0.225000 0.578754 -0.387467 -0.143073 -0.268044 -0.353914 0.411331 0.039128 0.563062 -0.018380 0.064288 0.098420 0.053299 0.053039 -0.347239 0.182849 -0.022925 -0.121957 0.125979 0.655212 -0.311621 0.656087 -0.203739 0.502068 -0.134252 0.360929 0.159633 -0.795021 -0.127781 -0.074178 0.223191 0.146913 -0.006049 -0.401368 -0.273382 0.507997 0.188025 -0.560158 0.212088 0.346792 0.041590 -0.298717 -0.227179 -0.075679 0.671692 -0.046264 -0.457816 0.383954 -0.310124 0.112922 0.190784 0.211058 -0.028633 -0.746112 0.090188 -0.548401 0.211451 -0.291796 0.073635 -0.385449 -0.283165 -0.340663 -0.284153 0.309462 0.269298 0.316989 0.228537 0.187678 -0.197743 0.164909 -0.021344 -0.030479 0.439361 0.010468 -0.086747 0.127438 -0.054067 0.159312 -0.511906 0.061575 -0.589745 0.046811 0.251344 -0.442174 -0.143985 0.556593 -0.353364 0.264769 0.189519 -0.271271 -0.084479 0.234754 -0.274841 0.577878 0.012737 -0.421901 0.093840 -0.753237 0.230995
접촉자 0.371213 -0.215032 0.681338 -0.279290 -0.051880 0.200803 -0.097042 -0.405154 0.244155 0.104307 -0.330272 0.652276 0.151236 -0.113883 -0.091467 -0.777445 0.338046 -0.088737 -0.319740 -0.175762 -0.248924 -0.311270 -0.210686 -0.481582 0.047802 0.216368 0.255074 -0.654348 -0.667475 -0.424885 -0.126917 0.055319 -0.255755 0.134098 -0.500643 -0.457950 0.198634 -0.103585 -0.470138 -0.269464 -0.309954 0.331080 -0.472106 0.312786 -0.565379 0.133249 -0.050340 -0.382175 -0.139742 0.391459 -0.124711 -0.432405 -0.062858 -0.183378 -0.072012 0.544373 -0.374255 -0.204181 -0.221559 0.231459 0.073080 -0.150377 -0.756874 -0.206513 0.538404 -0.016270 0.000408 0.399081 -0.149946 -0.260080 0.042851 -0.292279 -0.050146 -0.139995 -0.306889 -0.315600 0.407872 0.490324 0.216166 0.539274 -0.011354 -0.140260 0.030628 -0.028714 0.255970 -0.519222 -0.255796 0.262375 0.069137 0.219686 -0.468115 0.462306 -0.121097 0.100714 0.181981 -0.272279 -0.127027 -0.019893 -0.002908 -0.036671
금지 0.228283 0.458910 0.204883 -0.415148 -0.112596 -0.030717 0.046137 0.582706 0.034055 -0.279242 0.080154 -0.651984 0.048612 -0.395397 -0.100178 -0.965264 0.266676 0.134280 -0.717894 0.047738 0.147704 -0.000960 0.562164 0.018297 0.342959 -0.367435 0.352039 -0.203107 -0.322153 -0.077777 0.240686 0.156615 -0.585200 -0.196241 -0.405500 0.170878 0.012087 0.434146 -0.565106 0.297995 0.176094 -0.322046 -0.874167 -0.330997 -0.274420 0.566401 -0.225166 -0.228070 -0.306269 -0.403029 0.286186 -0.509771 0.179246 -0.056929 0.018346 -0.416768 0.152222 0.258741 -0.074897 0.475119 -0.196011 0.314036 -0.791395 0.177541 0.210779 -0.418969 0.279728 0.453220 -0.089330 -0.279091 0.140447 -0.084466 0.334257 0.510713 -0.053491 0.056845 0.144662 0.215375 0.444926 -0.008818 -0.329479 -0.563753 0.025161 -0.251567 0.076462 -0.617285 0.169147 -0.091126 0.145584 -0.501343 0.678996 0.565377 0.361920 -0.147191 0.866373 -0.074508 0.095316 0.259763 -0.263569 0.312065
관련 -0.114432 -0.364636 0.078395 -0.259562 -0.457173 0.393154 0.351926 0.097234 -0.118408 -0.295198 -0.140939 0.024904 0.018155 -0.311204 0.088165 -0.002823 0.294994 -0.490474 -0.200875 -0.239515 -0.410724 -0.202495 -0.299012 0.020376 0.248440 0.434600 0.414864 -0.246707 -0.177834 -0.436340 0.223099 0.444687 -0.381905 -0.107467 0.056432 -0.462907 0.161732 0.089334 -0.539342 -0.033167 0.117304 -0.262287 -0.339455 -0.184681 -0.315425 -0.180437 0.000694 -0.168387 0.098672 0.491292 0.127162 0.070957 0.172106 0.171640 0.252595 0.591878 -0.348355 0.176818 -0.530001 -0.103396 0.234386 -0.294746 -0.622685 -0.222158 0.235775 -0.289056 -0.143530 0.389606 -0.291136 -0.182929 -0.078272 -0.190318 0.149495 -0.428818 -0.154663 -0.076430 -0.213551 0.208109 -0.000699 0.301019 -0.064053 -0.578194 -0.041951 0.402308 -0.325039 -0.486529 -0.059964 0.160614 0.312269 -0.059001 -0.086935 0.135221 -0.406128 0.323423 0.418786 0.292768 0.114242 -0.651676 -0.249025 0.056477
운영 0.177936 0.322345 0.440571 -0.501974 0.128627 0.086464 0.123820 0.296174 0.003933 0.125991 -0.292935 -0.411155 -0.026271 -0.374084 -0.092886 -0.894533 -0.027755 0.191479 -0.543973 -1.158611 -0.133626 0.285219 -0.070292 0.073221 0.116195 0.214452 0.177118 -0.348426 -0.027348 -0.266482 0.388000 0.319313 0.033229 -0.740758 -0.031655 0.166789 0.129056 0.548369 -0.540897 0.900893 0.330894 0.147228 -0.202753 -0.498622 -0.461534 0.319128 0.106500 0.450971 -0.055826 -0.459657 -0.897960 -0.160790 0.501524 -0.013623 -0.112573 0.010371 -0.987472 -0.103196 0.240827 0.531438 0.039012 -0.062233 0.230995 0.043311 -0.010874 -0.189882 -0.283396 -0.045668 0.217636 -0.441874 0.322630 -0.455929 -0.049431 -0.358365 -0.510389 -0.184962 0.347576 0.422898 0.476484 -0.525806 0.357258 -1.079683 -0.456667 0.177064 0.640857 -0.972954 0.567100 0.337244 0.511154 -0.514246 -0.086809 -0.009835 0.053372 -0.337621 0.363425 -0.250023 0.142937 0.543334 -0.135760 -0.163187
이용 -0.103570 -0.271357 -0.310672 -0.736653 0.262554 -0.023893 -0.558139 0.202350 -0.186290 0.259113 -0.402346 0.040990 -0.148200 -0.099984 -0.206199 -0.358993 0.458048 -0.054922 -0.208610 -0.201387 0.515009 -0.340595 0.215090 -0.015242 0.330720 -0.191126 0.103198 -0.071152 -0.241208 -0.223982 0.097033 0.211776 -0.141702 0.148620 -0.070204 -0.095682 0.410155 -0.312307 -0.276627 0.303726 0.490161 0.113900 -0.057586 -0.847222 -0.327974 -0.102905 -0.045866 0.134382 0.185827 0.134235 0.121197 -0.778397 0.250805 -0.079719 -0.544109 0.534726 -0.206872 -0.270477 -0.191155 -0.069752 0.014616 -0.495881 0.030876 0.353400 -0.289531 -0.626466 -0.113973 -0.027704 -0.134007 -0.471904 0.203684 -0.961835 -0.177800 -0.164184 -0.490081 -0.082067 0.174522 0.024980 0.638276 -0.546203 0.067293 -0.152691 -0.134589 0.003193 0.720998 0.174897 -0.320653 0.023469 0.459245 -0.793161 -0.064579 0.290732 -0.766341 -0.194569 0.663139 0.061178 0.199905 0.230184 -0.359989 0.413868
가족 0.265684 -0.314273 0.265003 -0.410429 -0.077870 -0.184679 0.422379 -0.441423 -0.073997 -0.251387 -0.041794 0.394930 0.025246 -0.006317 -0.249418 -0.205640 0.091452 0.209471 -0.299249 -0.572682 0.009425 -0.117507 0.334805 -0.543526 0.288886 -0.149242 0.358792 0.152842 -0.408148 -0.557348 -0.054241 -0.016592 -0.245323 -0.068901 0.170543 -0.265990 0.287005 -0.121639 -0.231626 -0.124895 0.929822 -0.332574 -0.202284 0.102001 0.114454 0.153493 0.515599 -0.678757 -0.183149 0.171357 -0.233749 -0.434027 0.243363 0.000263 -0.483284 0.029810 -0.337512 -0.169606 -0.336304 0.052368 0.163226 -0.274370 -0.244036 0.254778 1.110629 -0.597713 0.031981 0.374492 0.197667 -0.221865 -0.106194 0.110288 0.466215 0.010700 -0.038183 -0.598434 0.178796 0.459597 0.200314 0.368964 -0.059381 -0.689623 -0.271269 -0.384442 -0.537719 -0.193699 -0.351436 -0.206874 -0.040227 -0.238788 -0.178072 -0.327063 0.190174 0.185386 0.589276 -0.236182 0.248712 0.352098 0.057917 0.068452
블로그 0.692294 -0.608970 0.084302 -0.969006 -0.542541 -0.047318 -0.598351 0.132429 -0.549453 0.039437 0.364673 0.536993 0.041724 -0.143680 -0.239256 -0.856219 0.234980 -0.149750 -0.445987 -0.210689 0.045757 0.707042 0.346423 -0.564443 0.602386 -0.766230 0.489343 0.142317 -0.620707 -0.613834 0.102064 0.717345 -0.631442 -0.733893 -0.173199 0.032360 0.773910 -0.289934 0.161638 -0.401594 -0.035088 -0.006372 -0.641391 -0.667855 -0.541590 0.548351 0.450051 0.064343 -0.822904 -0.218066 -0.196903 0.197540 0.701519 -0.168917 -0.363748 0.046883 -1.270344 0.332527 0.043194 0.558659 0.206398 0.515680 -0.399566 -0.402962 0.777371 0.323502 0.822074 0.482010 0.355499 -0.032400 0.578830 -0.394364 -0.350980 0.252107 -0.189528 -0.698394 0.044198 -0.456502 -0.404954 0.382229 0.768029 -0.140754 -0.322734 0.376081 0.101819 -0.999720 0.202168 -0.060998 0.022317 -0.277271 0.263440 0.215647 -0.006828 0.140237 0.137195 -0.247897 -0.740306 -0.401559 -0.467466 0.116571
상담 -0.540796 -0.217051 0.306613 -0.552715 -0.078572 -0.106735 -0.248661 -0.422843 -0.863818 -0.033673 0.413897 0.238449 -0.192385 0.083735 0.349275 -0.501997 0.495182 -0.290718 -0.821418 -0.420873 0.107650 0.071071 -0.170436 0.144404 0.037454 -0.290566 -0.065251 -0.480603 -0.743846 0.433139 -0.652174 0.244059 0.118136 -0.216261 0.483611 -0.204781 0.231076 -0.278706 -0.371924 0.085953 0.264725 -0.336556 -0.283017 -0.372089 0.039269 -0.015144 0.316601 -0.326162 0.109807 0.223577 -0.498178 -0.544391 0.494589 0.217077 -0.228201 0.594192 -0.801189 -0.189630 -0.204605 0.331412 -0.688092 -0.149182 0.084155 -0.443888 0.138548 -0.517181 0.857363 -0.410995 0.117300 -0.588304 0.016275 -0.720022 0.258664 -0.234574 0.147263 0.203184 -0.026644 0.084509 0.718005 0.398629 -0.339105 -0.341331 -0.397564 0.371307 -0.129597 -0.461581 0.690599 0.893949 -0.357146 -0.595688 0.051142 0.798521 -0.227442 -0.002102 0.306250 0.182327 0.104678 -0.130193 -0.218284 0.455714
사회 0.393932 -0.188615 0.466534 -1.110114 0.010213 0.108074 -0.001776 -0.582978 0.127759 0.321267 -0.387468 0.415612 0.041887 -0.265459 0.237072 -0.297119 -0.157028 -0.854319 -0.033562 0.323017 0.323136 -0.244304 0.147308 0.040758 0.150132 -0.626205 0.752566 0.298380 -0.781553 -0.269484 0.228316 -0.000031 -0.378980 0.311816 -0.257961 -0.750522 -0.132053 0.127171 -1.018370 0.201720 0.518226 0.858273 -0.184602 -0.536176 -0.664555 0.205273 0.148894 -0.665421 0.632194 -0.593180 0.306059 0.842808 0.233946 -0.555981 -0.071609 -0.009821 0.044943 0.250346 -0.051238 0.199001 0.642218 0.053750 0.013118 0.479199 0.438807 -0.166655 0.071013 0.703822 0.654874 0.270762 0.142606 -0.192379 -0.138570 -0.089457 0.372883 -0.496988 -0.183696 0.410625 0.286575 -0.124206 -0.496847 -0.660744 -0.265122 0.059587 -0.223334 -0.089468 0.699361 0.312584 -0.114925 -0.489882 0.206363 0.758203 0.156027 -0.079402 0.578522 -0.061988 -0.262962 -0.049851 -0.314688 0.408526
확산 -0.018733 0.263124 0.375616 -0.502696 -0.179391 -0.097534 -0.074580 0.087340 -0.357943 0.702074 -0.459628 -0.238447 -0.163760 -0.174653 -0.072648 -0.272335 0.023480 0.255464 0.371395 0.100417 -0.282302 -0.029215 -0.037855 0.359898 0.508924 0.016441 0.183807 -0.278024 -0.179329 -0.806558 0.004077 0.022438 -0.031017 0.027102 0.017723 -0.407369 0.213656 0.076514 -0.630994 0.118446 0.293992 -0.086637 -0.063059 -0.102735 -0.258916 0.250234 0.073564 -0.311058 -0.122418 -0.045177 0.195905 0.044240 0.374818 0.167978 0.071731 -0.251961 -0.495463 0.704756 0.432926 0.534448 0.952803 -0.288014 -0.128915 0.076492 0.454953 -0.454696 0.461349 0.502990 0.493229 -0.334793 0.216872 -0.784442 0.270556 -0.130935 0.409010 -0.303131 0.307030 0.606260 0.780981 -0.176472 0.086496 -0.070074 -0.345209 0.101549 -0.555574 -0.596048 0.263757 -0.184697 -0.067259 -0.300973 -0.405125 0.744507 0.102376 -0.568599 0.340709 -0.005163 0.384353 0.410733 -0.500413 0.178814
이동 -0.012380 -0.183769 0.114555 -0.288296 -0.063475 0.101617 0.209613 -0.169491 -0.142451 0.241305 0.002585 0.478379 -0.165240 -0.139255 0.291864 -0.401487 0.200325 -0.252390 -0.407451 0.010947 -0.409733 -0.220823 -0.086281 -0.247854 0.308543 0.220260 0.109428 0.055155 -0.888612 -0.535740 0.073904 -0.105199 -0.285432 -0.368094 -0.086379 -0.367000 0.166193 -0.384539 -0.432399 0.073627 0.396752 -0.099149 -0.559721 -0.455260 0.164043 0.138062 -0.436654 -0.419149 -0.214490 -0.198546 0.151590 -0.392818 0.293929 -0.675436 -0.474768 -0.152190 -0.409114 0.457502 -0.271812 0.123607 -0.153723 -0.443060 -0.593083 0.538913 0.624647 -0.005120 -0.102050 -0.036180 0.371001 -0.316908 0.298096 0.179287 -0.142462 -0.205717 -0.311801 0.013300 -0.258932 0.454741 0.087427 -0.053211 0.521017 -0.016504 0.300423 -0.142651 -0.015014 -0.051072 0.411661 -0.018771 0.048213 0.163048 -0.339957 0.170558 -0.652036 0.026707 0.623803 -0.024393 -0.302973 -0.025746 0.291881 -0.340810
접촉 0.054963 -0.073695 0.712335 -0.102212 0.296224 -0.057264 0.158178 -0.471339 -0.109154 -0.171989 -0.094883 0.485111 0.377227 0.271752 0.201628 -0.718660 0.158630 0.241483 -0.099435 -0.098064 0.200667 -0.291142 0.487711 -0.283285 0.165553 0.604365 0.314262 0.206432 -0.255652 -0.917561 -0.155467 -0.345571 -0.186769 0.114348 0.148318 -0.298517 -0.295184 -0.069850 -0.392574 0.017875 0.113295 0.240527 -0.453434 -0.982511 0.555869 0.335790 0.121916 -0.498141 -0.589651 0.166683 0.034980 -0.284751 0.053644 -0.291690 -0.639030 0.166723 -0.229013 -0.057775 -0.158564 0.144525 0.125659 -0.321103 -0.233938 0.137894 0.421412 -0.197381 0.366106 0.452687 0.066899 -0.064661 0.319169 -0.780544 -0.043193 -0.064745 -0.331228 -0.066305 -0.305763 0.192312 0.234500 0.517087 0.140725 0.031331 -0.526866 -0.400332 -0.118188 -0.356028 -0.116056 -0.330126 0.459258 0.050629 -0.641384 0.104258 0.018979 0.258094 -0.022313 -0.101753 0.014089 0.037276 -0.177941 0.155946
증상 -0.185975 -0.154673 0.155586 -0.150695 -0.909087 -0.620995 -0.288009 -0.036686 -0.476370 0.243716 0.540394 0.314325 0.168964 0.724838 -0.107965 -0.207879 0.710320 -0.331998 -0.269674 0.190535 -0.598331 0.013307 0.265695 0.227545 -0.340218 0.083407 0.065455 -0.042769 -0.646582 -0.438115 0.319107 -0.049201 -0.090909 0.044829 0.103046 -0.333801 -0.134971 0.450112 -0.606705 -0.036575 0.698045 0.327430 -0.209442 -0.369511 0.075175 -0.275864 0.133992 0.272694 0.054048 0.335103 -0.115398 -0.274054 0.114743 0.364841 -0.189188 0.468950 -0.676264 0.202749 0.066039 0.219720 -0.223551 -0.107661 -0.450430 -0.540126 0.013714 -0.540251 0.506428 0.518400 0.050902 0.435542 0.270206 -0.053380 -0.475577 0.200421 -0.325459 -0.263055 -0.021192 0.223153 0.504454 -0.105540 0.147307 -0.776840 -0.035528 -0.030197 0.370764 -0.524387 0.115443 0.379274 -0.013037 -0.475896 -0.149138 0.459683 0.149065 0.389843 0.412365 -0.389612 0.096941 0.231608 0.108404 0.115927
감염 -0.205273 0.184710 0.034698 -0.545524 -0.393929 -0.330878 -0.082371 -0.235902 0.042210 0.171924 -0.038674 -0.237608 0.349942 -0.507824 -0.241631 -0.441648 0.300417 0.225551 0.363589 -0.098801 0.391197 -0.694021 0.198850 0.137310 -0.033582 0.561554 0.469670 0.166633 -0.225006 -0.371676 -0.044491 -0.012445 -0.424884 0.175421 -0.411282 -0.106666 0.485112 -0.107726 -0.324253 0.158586 0.159351 -0.441763 -0.688790 -0.204996 -0.634496 0.315915 0.052203 -0.493493 -0.457794 -0.340970 0.371531 -0.206007 0.651357 0.053686 -0.551590 -0.096648 -0.372599 0.734415 0.161491 -0.044501 0.321264 -0.787472 -0.472689 -0.110488 0.128432 -0.738356 0.371541 0.307093 -0.077969 -0.368775 -0.173639 -0.261973 -0.348467 0.135739 -0.123738 -0.355167 -0.102536 -0.001020 0.243781 0.288928 0.223109 -0.218170 -0.086419 -0.485905 -0.018958 -0.443719 0.699177 -0.417550 0.237145 -0.489359 -0.260603 0.565703 0.574192 0.456543 0.301890 -0.702595 0.438950 0.174993 0.018352 -0.194862
내용 0.951956 -0.112775 -0.560389 -0.249534 -0.195660 -0.017748 -0.370879 0.095515 -0.383557 0.357933 -0.543391 0.651048 0.340177 -1.112071 -0.192108 -1.364744 0.183738 0.246361 -0.196815 -0.014819 0.110451 0.593494 -0.123238 0.016038 0.791924 -0.842402 0.629490 -0.033071 -0.287093 -0.915235 0.243533 0.004092 -0.037383 -0.558495 0.087626 0.096963 -0.073113 -0.687559 -0.310199 -0.022909 0.468028 0.404173 -0.516370 -0.287941 -0.338945 0.618184 0.069796 0.081790 -0.035319 -0.114548 -0.095392 -0.499956 0.808146 -0.154122 -0.654167 0.378929 -1.222443 -0.238683 0.339877 0.536078 0.074707 0.156648 -0.348525 -0.055034 0.737627 -0.006851 -0.042645 0.663260 -0.069642 -0.461178 -0.107113 0.164437 -0.543254 -0.174502 -0.469816 0.120499 -0.101390 -0.661843 -0.026947 0.874196 -0.515001 -0.114137 -0.333861 -0.090050 -0.087754 -0.970472 0.235788 0.394455 -0.448081 -0.018196 0.168139 -0.123684 0.145734 -0.267695 0.658284 0.444087 -0.648779 0.096513 -0.605226 -0.756916
추가 0.400255 -0.071562 0.244797 -0.287987 -0.018474 0.668114 0.523427 0.275728 0.280419 0.170315 -0.212610 0.618335 0.490673 0.374462 -0.329077 -0.358841 0.077349 0.595705 0.520275 0.042691 -0.094586 0.163210 -0.050099 -0.501705 0.236817 -0.124265 0.557691 -0.061060 -0.863538 0.296858 0.338033 0.529986 -0.305761 0.078767 -0.190779 -0.064214 -0.200590 0.199050 -0.461618 -0.069065 0.354431 -0.424162 -0.192631 0.381831 -0.043652 0.104402 0.140158 -0.317117 -0.389316 0.031835 -0.262950 -0.003108 0.031077 -0.302988 0.029025 0.570198 -0.640701 0.302138 -0.475807 0.244541 -0.308086 -0.421163 -0.726643 -0.399867 0.633509 -0.362805 0.348269 0.338144 0.366578 -0.029795 0.121850 -0.696848 -0.712758 -0.253850 -0.175127 0.425801 0.123680 -0.023495 -0.137880 0.316419 0.087553 -0.010868 -0.549174 -0.131671 -0.066007 -0.134966 0.308503 -0.103303 -0.014943 -0.186015 0.054096 0.196156 -0.306625 0.185649 -0.032433 0.524725 0.312707 -0.299677 -0.613143 0.313223
단계 0.757009 0.422716 0.062281 -1.149615 0.114893 0.269882 0.246973 0.262443 -0.386644 0.408547 -0.015136 0.371898 -0.250936 -0.313074 0.217130 -0.469491 0.328224 -0.658847 0.108535 0.168489 0.278500 0.301963 0.057844 0.212285 0.369362 0.092003 0.586804 -0.174674 -1.600486 -0.623069 -0.215922 0.631272 -0.171550 0.318766 -0.087009 -0.446802 0.109029 0.172893 -0.500731 -0.049726 0.996373 -0.197804 -0.507248 -0.066745 -0.753550 0.595293 -0.128785 0.048447 -0.016219 -0.187241 0.399837 0.475675 0.257935 -0.298014 -0.036993 0.079856 -0.283492 0.076261 0.198105 0.075143 0.719689 0.320316 0.169559 0.194225 0.725418 0.047971 0.272306 0.487181 0.234862 0.434417 0.244224 -0.323580 0.046517 0.074166 -0.350781 0.154279 -0.101211 0.269461 0.547181 -0.615466 -0.393017 0.121665 -0.765776 0.082121 -0.351060 -0.653705 0.278306 -0.219253 0.021380 -0.910650 0.569600 0.494478 -0.367001 0.105052 0.870240 -0.553414 -0.012750 0.102363 -0.252534 -0.101705
격리 -0.032562 -0.080212 0.337000 -0.519682 0.199708 -0.431428 -0.379676 -0.171652 0.029212 0.137990 -0.073958 0.912022 -0.181290 -0.184968 0.266187 -0.770907 0.251850 -0.059674 -0.328888 0.041618 -0.003541 -0.426116 0.357200 -0.823817 0.242794 0.232771 0.679170 -0.336270 -0.316969 -0.281803 0.208176 0.346945 0.597710 0.464297 -0.330552 -0.233029 0.027673 -0.023054 -0.212897 -0.277718 0.124473 -0.014517 -1.000640 -0.141491 -0.615684 0.308167 0.205104 -0.109098 -0.814957 0.300057 -0.472085 -0.304179 0.187895 -0.491520 -0.200091 0.162490 -0.473592 0.056058 -0.284607 0.271050 0.042170 -0.008702 -0.226642 -0.088520 0.157914 -0.474680 0.257439 0.395154 0.258517 0.009118 -0.292355 -0.112066 0.036303 -0.407751 -0.139653 -0.270960 0.387576 -0.215307 0.777775 0.515705 0.588438 -0.591732 -0.236896 0.073557 -0.255949 -0.272474 0.161482 0.129160 0.318575 -0.010501 -0.193457 -0.142923 -0.375398 0.401777 0.041966 0.758627 -0.034182 -0.806188 0.439148 0.168964
외출 -0.166302 -0.312174 0.373512 -0.186903 -0.010445 -0.194726 -0.071569 -0.214656 -0.319886 0.314622 0.036120 0.017920 -0.280201 0.681701 -0.040279 -0.281880 0.331336 0.079804 -0.567244 -0.159135 -0.146981 -0.245230 0.181631 0.354358 -0.105034 -0.006150 0.100845 -0.148238 -0.330493 -0.734401 -0.338493 0.113566 -0.024725 0.220847 -0.040453 -0.690685 -0.070030 0.251965 -0.079716 -0.061255 0.139173 0.365246 -0.201057 -0.290307 -0.070541 0.442309 -0.112131 0.018374 0.303876 -0.183078 0.441720 -0.150286 0.570507 0.617928 -0.457763 0.156888 -0.562100 -0.040713 -0.077247 0.188547 0.051226 -0.242244 -0.319821 0.292013 0.353983 -0.153714 0.394008 -0.132323 0.076448 -0.226539 0.559582 -0.063294 -0.090297 -0.076584 -0.440404 -0.284842 0.481705 -0.183235 0.285178 -0.244091 0.176838 -0.281670 -0.673083 -0.339942 -0.640193 -0.559342 0.121897 -0.051249 -0.158720 -0.274449 -0.208209 0.141096 0.084529 -0.193343 0.760734 0.223524 -0.150910 0.246696 -0.452041 0.073504
실내 -0.028041 -0.085032 -0.070651 -0.419074 0.252900 0.345227 0.398945 0.248956 -0.013700 0.427817 -0.768229 0.048393 -0.260805 -0.017989 0.250351 -0.459495 0.625018 -0.423264 -0.669489 -0.348895 0.122167 -0.346769 0.009736 0.198396 0.099307 -0.249231 0.677895 0.494622 -0.123762 -0.509110 -0.450382 0.747783 0.129109 0.074749 0.139786 -0.215130 -0.522299 0.365502 -0.577606 0.397812 -0.520461 0.052072 -0.449552 -0.060390 -0.621337 0.327585 0.023546 -0.397362 0.074433 -0.114621 -0.082758 -0.111038 0.850437 0.561941 -0.077771 0.048097 -0.043987 0.338463 -0.143799 0.142199 0.183774 0.024306 -0.572410 0.141157 0.045377 -0.459528 0.397183 0.387982 0.219605 -0.363265 -0.050751 -0.091262 0.029358 0.383267 -0.189902 0.341175 -0.055949 0.482033 0.260552 -0.131241 0.249520 -1.088135 -0.514033 -0.165685 -0.022804 0.276795 0.493654 0.107932 0.248931 -0.354520 0.175903 0.429207 0.311740 -0.715871 0.586014 -0.243408 0.067797 0.580520 0.010733 0.272191
이상 0.209041 -0.002018 0.061738 -0.627811 -0.228480 -0.091342 0.302820 0.433467 0.063590 0.016206 0.358963 0.159073 0.014325 -0.069443 -0.178881 -0.863673 0.145780 0.272360 -0.128518 0.003136 -0.052947 -0.006594 0.404583 -0.262677 0.162010 -0.384943 0.145313 -0.745377 -0.430460 -0.278112 0.622431 0.073379 -0.142189 0.076819 -0.222197 -0.164551 -0.306184 0.511837 -0.095974 -0.142648 -0.168852 -0.220081 -0.441965 -0.280986 -0.247779 0.980811 -0.031418 -0.269455 0.271527 -0.457546 -0.063994 -0.630394 0.516622 0.057723 -0.645496 0.053331 -0.121243 -0.044326 0.179146 0.200804 0.510434 0.051428 -0.156553 0.305253 0.354683 -0.407675 0.045215 0.155682 -0.154163 -0.610324 0.177777 -0.059653 0.092294 0.042495 0.399395 0.256153 -0.350448 0.183773 0.007370 -0.258374 -0.350393 -0.763028 -0.359271 -0.435238 0.232262 -0.252590 0.137323 -0.322926 0.558397 -0.355770 0.098230 0.050295 0.353664 0.447989 0.457985 -0.016629 -0.662681 0.527343 -0.184463 0.264552
연락 -0.087425 -0.536555 0.189505 -0.290743 -1.000808 0.415505 -0.608510 0.022500 -0.226417 -0.042697 0.213285 0.572521 0.109352 0.132525 0.636329 -0.817842 0.752891 0.274597 -1.076831 -0.257125 0.504672 0.149857 0.419046 -0.287051 0.744111 -0.489277 0.604115 -0.128756 -0.558873 0.046071 -0.314674 0.225732 0.119907 0.032585 0.688128 -0.365530 0.257757 0.340623 -0.415205 -0.030513 0.131991 -0.051406 -0.649737 -0.019570 -0.223641 0.096277 0.330516 -0.084167 0.085576 0.180723 -0.247367 -0.280047 -0.249316 -0.155219 -0.518189 0.465410 -0.075103 -0.598706 -0.485834 0.668919 -0.612477 -0.264349 -0.717912 -0.040904 -0.522600 -0.149098 0.279155 -0.315128 -0.332444 -0.911364 0.237667 -0.740201 -0.151379 -0.137115 -0.062124 0.083502 0.011481 -0.005687 0.834458 0.528133 -0.657439 -0.192757 0.068421 0.819129 -0.525189 -0.685385 0.118070 0.317357 0.302873 -0.957260 0.118232 0.199472 -0.231824 -0.331124 -0.057041 -0.396844 -0.361555 -0.410138 -0.352463 0.042027
광주 -0.492148 -0.287438 0.208515 -0.050371 -0.096252 0.094369 0.200042 -0.348098 -0.220059 0.283233 0.244176 0.262855 -0.368082 -0.632755 0.064364 -0.062567 0.366045 -0.993806 0.144205 0.025744 -0.595192 0.826453 -0.292266 0.246634 0.668774 -0.405676 -0.207683 0.049443 -0.576714 -0.260870 -0.394315 0.263229 -0.920875 0.225663 -0.193074 -0.465056 0.115267 -0.155579 0.066207 -0.017115 -0.312769 -0.198662 -0.127011 -0.367212 -0.522684 -0.112141 0.464236 0.130417 0.068182 -0.018528 -0.466657 -0.285994 0.255997 0.014171 -0.453134 0.306467 -0.364977 0.019750 -0.445713 0.144164 0.217163 -0.911634 -0.387773 0.313912 0.560796 -0.631577 0.039708 0.469416 -0.217408 0.287791 0.381609 -0.375673 -0.041867 -0.060659 0.179048 0.850884 -0.042568 0.039917 0.680827 -0.553560 0.212103 -0.789214 -0.162669 -0.182675 -0.882354 -0.911058 0.335176 0.162675 -0.055547 -0.558314 0.170326 0.265278 0.005096 0.198505 -0.114435 -0.163980 0.184771 -0.244124 0.090031 -0.344892
인근 -0.813926 -0.150726 0.115535 0.245663 -0.101963 0.456541 0.053320 -0.405851 -0.944568 -0.124996 -0.008486 -0.148827 0.095671 -0.389706 -0.016321 -0.523519 0.912052 0.214475 -0.101003 -0.361347 0.251823 0.023487 -0.261645 0.382160 0.289137 -0.049007 0.041499 -0.051993 -0.107000 -0.177189 -0.472331 0.223890 -0.240613 -0.083983 0.440539 0.062450 -0.283239 -0.591132 -0.130291 0.184696 -0.089537 0.241307 -0.239356 -0.063392 -0.131545 -0.019342 -0.082243 0.022316 0.385898 -0.157065 0.093450 0.213996 0.131203 -0.370687 -0.755134 0.887545 -0.827172 0.557209 -0.380984 -0.178852 0.393542 -0.050469 -0.564737 -0.573936 -0.633178 -0.745251 0.050844 0.272569 0.422489 0.324851 0.111464 -0.925489 0.016278 0.086608 0.232076 -0.295657 0.192033 -0.312447 0.915872 0.201061 -0.682095 -0.269314 -0.267913 -0.521286 -0.669290 -0.131650 0.324149 -0.301139 -0.077795 -0.074767 0.156030 0.505809 -0.092587 -0.047683 1.238066 0.231800 -0.479604 0.010889 0.115954 0.316093
안내 0.422167 -0.793103 0.019965 0.143890 -0.305557 0.366421 0.029076 0.202901 -0.256710 0.477900 -0.175043 0.506056 0.291460 -0.542079 -0.764168 -0.503962 0.157498 -0.666393 -0.249108 -0.579251 0.271074 0.117922 -0.239005 -0.446820 0.533125 0.334725 0.789663 -0.289148 0.373897 -0.427180 -0.296555 0.397818 -0.567436 -0.188204 0.173391 -0.771391 0.230087 -0.149842 -0.068824 -0.212798 0.106872 0.330336 -0.233699 -0.158664 -0.174162 -0.152835 0.765837 0.049032 -0.072465 0.136020 -0.460925 -0.058436 0.197785 -0.148019 0.333149 0.147365 -0.411800 0.535443 -0.109529 0.615355 -0.187886 0.370800 -0.829571 0.727867 0.195820 -0.170682 -0.105062 -0.284845 -0.318253 -0.249140 0.421304 0.489128 0.096026 -0.026716 -0.083304 0.695819 -0.548390 -0.224466 0.400608 -0.370038 -0.117587 -0.469790 -0.095829 0.011800 0.282866 -0.223541 0.213117 -0.299492 -0.225209 -0.490809 -0.060552 0.729930 -0.532110 0.003592 -0.136867 0.387212 0.328164 -0.148685 -0.132308 0.081854
결과 0.713565 -0.153666 -0.422375 -0.539311 -0.437869 -0.036238 -0.062283 -0.054489 0.146669 0.443792 0.004924 0.560498 -0.532180 -0.352387 -0.316168 -0.485900 -0.005860 -0.080279 0.082788 -0.168199 -0.313291 -0.366717 -0.228788 -0.058807 0.592936 0.326355 0.489664 -0.131321 -0.548933 0.144393 -0.201164 0.516409 -0.134184 0.008974 -0.436054 0.193070 0.361372 -0.237344 -0.709347 0.153979 0.001896 0.163540 -0.583949 0.243864 -0.169836 -0.060893 0.109111 -0.592728 -0.555418 0.220781 -0.351744 0.031407 0.047423 0.069645 -0.372669 0.180653 -0.199772 -0.182069 -0.330870 0.169703 0.264847 -0.330827 -0.483392 -0.589904 0.042891 -0.091291 -0.269164 0.070092 -0.608156 -0.124839 0.277378 -0.405660 0.213635 0.029495 -0.407599 0.160324 0.056436 -0.034248 0.276478 0.407230 0.161537 -0.560234 -0.089371 -0.568666 -0.082981 -1.045112 0.075229 0.215350 0.592299 0.169079 -0.000998 0.536363 -0.255075 0.388821 0.201416 0.006587 -0.592549 -0.082617 -0.897047 -0.238542
참조 -0.022644 -0.207580 -0.255267 0.116449 -0.441582 0.279772 0.485043 0.073784 -0.143769 0.081847 -0.175922 0.696083 0.259014 -0.400553 -0.730644 -1.020634 0.194076 -0.836899 -0.860693 0.075202 -0.022343 0.193429 0.668188 -0.453482 0.846492 -0.796386 0.627109 0.086333 -0.473635 0.391977 0.348853 0.110079 -0.044330 -0.552713 -0.035846 -0.324594 0.155321 0.309953 -0.121270 -0.007598 0.026379 -0.020943 -0.317138 -0.487768 0.139187 0.048748 0.644729 -0.587213 -0.855244 0.082901 -0.557038 -0.187511 1.282942 -0.252452 -0.528194 0.366038 -0.826091 0.923726 0.088736 0.551402 0.673537 -0.154653 0.801612 -0.260907 0.176970 0.589548 0.072111 0.261847 0.814024 -0.060538 0.036364 -0.780013 -0.293933 0.191924 -0.703940 0.263459 0.297680 0.797364 0.015370 0.420917 -0.138465 -0.378575 -0.244007 0.295952 0.238279 -0.579712 0.217595 -0.070723 -0.107092 0.325778 0.436352 -0.211614 0.278656 -0.559514 1.160917 0.446458 -0.144753 -0.312907 0.223042 0.512305
음성 0.474046 -0.311465 0.212738 -0.623540 0.338481 -0.197736 -0.293155 -0.158609 -0.010963 0.531505 -0.072552 0.093782 -0.425341 0.036504 -0.465133 -0.514448 0.730689 -0.080963 0.252230 -0.265171 -0.675597 0.034350 0.177303 -0.091553 0.603963 -0.441399 0.469214 -0.122831 -0.468548 -0.075823 -0.111413 0.216809 -0.198689 0.521559 -0.543172 -0.606899 0.081986 -0.124928 -0.142025 0.323440 0.363585 0.203768 -0.316946 -0.092795 -0.071562 -0.194563 -0.127130 -0.345384 -0.050463 0.111462 0.276592 -0.235002 0.286569 0.153971 0.157879 -0.017704 -0.762872 0.109142 -0.216315 -0.341132 0.318246 -0.474548 -0.780813 -0.478400 0.389144 -0.067729 -0.599995 -0.292642 0.436379 -0.511103 -0.072055 -0.218666 -0.383970 -0.199401 -0.404804 0.277543 0.832951 0.159878 0.531965 0.560384 -0.236548 -0.573065 0.276929 -0.325764 -0.145181 -0.629935 0.101149 0.113931 0.706054 0.295173 -0.192835 0.240445 -0.491947 0.091861 0.019052 0.292677 -0.387491 -0.262486 -0.066275 0.080686
예방 -0.087276 -0.131519 -0.117980 -0.698588 -0.002738 -0.373757 -0.044067 -0.034255 -0.317075 0.392365 -0.049625 -0.292937 -0.164909 -0.273871 -0.752176 -0.661367 0.441190 0.178758 -0.042836 -0.542364 -0.393664 -0.081942 -0.246698 0.155226 0.692545 -0.273518 0.748701 -0.091743 -0.305129 -0.610619 0.152321 -0.026977 0.580624 0.179614 0.224622 -0.497149 0.889296 -0.215614 -0.910160 0.046596 0.121066 -0.138390 -0.054835 -0.479761 -0.352613 0.461593 -0.741448 -0.552218 -0.299893 -0.104023 0.071009 -0.104673 0.218624 0.175806 0.250798 -0.409690 -0.393183 0.230441 -0.723844 0.066164 0.315715 -0.137647 -0.154117 0.229259 0.192293 -0.274308 0.379860 -0.123792 -0.237483 -0.057397 0.175067 -0.610000 -0.210597 0.223865 0.295754 -0.371441 -0.050728 0.499919 0.238658 -0.361430 -0.170455 -0.518073 0.038823 0.139664 -0.597097 -0.032508 0.670650 -0.008371 -0.030162 -0.258105 0.491523 -0.227366 -0.061259 -0.058909 0.418127 0.383428 0.160938 0.277602 -0.565790 0.022845
참고 0.005171 -0.145943 0.164969 -0.680711 -0.262508 0.612298 0.034745 -0.219421 -0.267491 0.385435 -0.253942 1.008488 0.055203 -0.383251 0.021967 -1.087132 0.087676 -0.343715 -0.482418 -0.030275 -0.081566 0.338820 0.329395 -0.242162 0.136617 -0.220591 0.437971 0.488355 -0.361823 -0.513072 -0.335021 -0.009567 -0.019125 0.074363 -0.717684 0.503689 0.217018 -0.334445 -0.333916 0.063339 -0.051670 0.704127 -0.551774 0.041321 0.104824 0.800572 -0.054976 -0.656987 -0.782876 0.183627 -0.737074 0.229821 0.843780 -0.123917 -0.170849 0.088414 -0.719031 0.370279 0.266431 0.793932 0.611610 0.307740 -0.505862 0.244417 -0.096437 0.665751 0.278262 -0.212774 0.354329 -0.545626 -0.166689 -0.335469 -0.247351 0.953028 -0.946718 0.474866 0.377458 0.062485 0.368218 0.151399 0.099879 0.440097 -0.234666 0.184204 0.020166 -0.743389 -0.022204 0.315993 -0.120513 -0.253555 0.109555 -0.044454 -0.124970 -0.108147 0.999222 -0.168688 -0.332266 -0.603374 -0.227927 0.007451
종교 0.365834 -0.013127 -0.003084 -0.012032 0.367733 0.332673 0.334183 0.176492 -0.634093 0.032534 -0.470951 -0.557117 0.173616 -0.193665 -0.529584 -0.382106 0.117322 0.311567 -0.230987 0.080608 0.029647 0.256828 0.574625 -0.291385 0.342829 0.245448 0.076952 0.180203 -1.035544 -0.667620 0.286791 0.454795 -0.049134 -0.237947 -0.441830 -0.048226 -0.597142 -0.592753 -0.510543 -0.207154 -0.064944 0.189719 -0.942476 -0.440840 -0.705837 0.248539 0.067854 -0.234252 0.129829 0.026125 0.565350 -0.253833 0.592715 0.399872 0.158781 0.225816 -0.326720 0.074377 0.026020 0.275757 -0.141710 -0.575983 -0.292103 -0.163656 -0.033606 -0.888545 0.334100 0.791391 0.390126 -0.151785 -0.441681 0.151076 -0.099563 0.415502 -0.233658 -0.189567 0.265554 0.441149 0.749354 -0.792303 -0.158664 -0.683411 -0.282951 0.206702 -0.615876 -0.434415 0.213995 -0.092509 -0.119614 -0.062813 -0.295796 -0.064881 0.196241 0.428538 0.446896 0.322430 0.085118 0.193817 -0.711998 -0.099933
개인 0.424969 0.151321 0.475017 -0.456348 0.275151 -0.625384 -0.116938 0.117548 -0.226831 -0.118533 0.126918 0.309812 0.514713 -0.322276 -0.455292 0.059324 0.805372 -0.223701 -0.324671 -0.129334 0.112246 -0.243749 0.557327 0.515574 0.182826 -0.280037 0.296002 0.387197 -0.606807 -0.208042 0.030979 -0.259495 -0.199930 0.142688 0.021707 -0.000855 0.255231 -0.220712 -0.375502 -0.080285 -0.233050 -0.050090 -0.314227 -0.269931 -0.469551 0.681776 0.167070 -0.417935 -0.093164 0.133457 0.217583 -0.229869 -0.152944 0.076277 -0.100900 0.419224 -0.371604 -0.020236 -0.441559 -0.209365 -0.324719 0.213036 0.165666 0.066918 0.362876 -0.396550 0.369818 0.191267 0.169895 -0.197924 0.566561 -0.473239 -0.147910 0.187387 -0.557125 -0.105070 0.085190 0.226174 -0.084975 -0.426431 0.256721 -0.656164 -0.359617 -0.201341 -0.403593 -0.063827 -0.157519 0.473081 0.001539 -0.107769 -0.320658 0.227358 0.004313 0.167457 0.531065 -0.045689 -0.696028 -0.236879 -0.150878 0.352517
집회 0.818437 -0.422697 0.668676 -0.648070 -0.552051 -0.746415 -0.224141 -0.537905 0.035486 0.005100 -0.523116 0.043164 0.274841 -0.512105 -0.643482 0.076590 0.294738 -0.412509 -0.211503 -0.028572 -0.074586 -0.311437 0.686511 -0.041894 0.379125 -0.112152 0.551750 0.464630 -0.453830 -0.025459 -0.083536 -0.028551 -0.393401 0.150354 -0.023819 -0.792775 0.256044 0.289975 0.342063 -0.071380 0.274592 -0.366061 -0.740198 -0.673275 -0.126060 0.191046 -0.081789 0.109743 -0.147896 0.378140 0.227840 0.388080 -0.043713 0.411597 -0.799321 0.273077 -1.026634 -0.107303 0.655529 0.454956 0.108326 -0.342112 -0.429776 -0.284922 -0.001856 0.055927 0.394213 0.464606 -0.049074 -1.129476 0.082404 -0.836185 0.718247 -0.475537 -0.249070 0.244043 -0.132237 0.394276 0.823816 -0.172676 -0.098410 -0.397233 -0.717146 -0.769214 -0.413788 -0.439895 -0.092870 0.590573 -0.249818 -0.238278 0.534740 0.184554 -0.323670 -0.246039 0.348085 0.698165 0.201780 0.006783 -0.590673 -0.120655
이용자 0.058218 0.152710 0.099051 0.389889 0.397513 0.077255 0.096571 -0.345593 -0.097934 -0.276200 -0.119466 0.040943 -0.226077 -0.282137 0.091684 -0.451896 0.402127 -0.228151 0.039415 -0.197449 0.444227 0.218038 -0.589567 -0.146542 -0.020733 -0.095618 0.181184 -0.196886 -0.655988 -0.588253 0.122801 -0.118478 -0.245771 0.192301 0.193519 -0.474230 0.795708 -0.378231 -0.631393 0.051651 -0.040687 0.248005 -0.050016 -0.042537 -0.562447 -0.404766 0.409097 0.216543 0.051526 0.332562 -0.276505 -0.681968 -0.360744 0.203389 -0.593599 0.317057 -0.394448 -0.161052 -0.720608 0.175900 -0.116221 -0.279593 -0.087530 0.248081 -0.188045 -0.034059 -0.010521 0.226596 0.210227 -1.017070 0.232153 -0.402850 -0.801679 0.235042 -0.328366 0.001603 -0.002596 -0.070831 0.754978 0.225209 -0.239381 -0.591860 -0.094711 0.500402 0.505395 -0.537055 -0.011827 0.327042 -0.379587 -0.681865 0.519132 1.055228 -0.471910 0.063151 0.292520 0.193606 -0.276588 0.081450 -0.399902 0.686538
교회 0.597834 0.193252 0.031575 -0.483711 -0.405583 0.280976 0.745517 0.055296 -0.583606 -0.017839 0.256259 0.061751 0.325748 -0.223853 0.172330 -0.475978 -0.143049 0.061316 0.064330 0.526537 0.346186 -0.082381 -0.218635 -0.676624 0.191149 -0.124570 0.119031 0.195502 -0.458017 0.120146 0.097607 0.443860 -0.422168 0.325007 0.061773 -0.631114 0.132808 -0.438569 -0.101434 0.077869 -0.025684 0.233112 -0.656017 -0.394362 -0.367238 -0.054675 -0.012722 -0.009824 0.214408 0.086110 0.488354 0.148199 -0.058912 0.884398 -0.878824 0.613851 -1.046337 0.126870 0.265304 0.390650 0.362921 -0.706448 -0.313220 -0.213169 -0.426044 0.015728 0.595051 0.758583 0.570097 0.133886 0.387424 -0.678273 0.232722 -0.417028 -0.159965 -0.271958 -0.239171 0.365292 0.693770 -0.350268 0.261475 -0.830886 -0.030357 -0.180457 -0.592544 -0.634289 -0.483887 0.150504 -0.408838 0.358178 -0.150709 0.448571 0.042734 0.302466 -0.258372 0.476267 0.343473 0.073574 -0.205275 0.247891
유증 0.670869 0.376209 -0.262109 -0.335017 -0.398302 0.080521 -0.151176 -0.061497 -0.599131 -0.186931 0.331664 0.398457 0.552116 0.600560 0.473500 -0.514601 0.659330 0.112447 0.230092 -0.479831 0.049857 0.382731 0.227603 -0.419474 0.122410 -0.196552 0.009910 0.449128 -0.647160 -0.318565 0.021629 -0.103427 0.118829 -0.200075 0.037396 -0.175263 -0.073708 -0.694073 -0.624229 0.304482 0.019134 -0.190634 -0.659931 -0.105168 -0.109290 0.641872 0.314836 -0.474747 0.415722 0.319119 -0.202199 -0.568868 -0.480869 0.053490 -0.044093 0.523979 -0.263308 0.379695 -0.393662 0.115225 0.377483 -0.109873 -0.614254 -0.033510 -0.258010 -0.494897 0.785245 -0.163321 -0.240179 0.129747 0.703792 -0.163551 -0.666536 -0.330306 -0.038332 0.065280 0.149862 -0.321580 0.595520 0.160353 0.096270 -0.279716 0.240565 0.442701 -0.085346 -0.476625 0.349422 0.391772 0.094000 0.056096 0.301041 0.137607 0.107183 0.090320 0.026765 -0.367839 -0.016592 0.427163 0.047215 0.021186
생활 0.415685 -0.085484 0.430694 -0.303608 0.191697 -0.077229 0.221412 -0.432056 0.383881 0.225126 -0.328818 0.360775 0.250661 -0.154431 -0.108025 -0.563591 0.792049 -0.190975 -0.432945 0.171490 0.234368 -0.665694 -0.385161 -0.354689 -0.052605 -0.442144 0.196172 0.004469 -0.659288 -0.366542 0.004222 -0.146682 -0.045618 0.068575 -0.075858 -0.244786 0.770815 0.507066 -0.369384 -0.022587 -0.099504 -0.088104 -0.491416 0.041534 0.065194 -0.142279 0.155515 -0.627831 0.576833 -0.017385 0.000027 -0.379910 0.213112 0.421517 0.426194 0.036014 -0.590230 0.004586 0.063341 0.711083 -0.243750 0.067850 -0.182703 -0.093100 0.369890 -0.098544 0.173118 0.244931 0.178314 0.066356 0.429582 -0.107440 -0.146000 0.210199 -0.051291 -0.029791 0.003409 0.209884 0.272381 -0.443315 0.640510 -0.200278 0.104008 -0.557664 -0.569097 -0.010855 0.443321 0.004876 0.277985 -0.142736 -0.043819 0.255127 0.052724 0.335103 0.707046 -0.230525 0.083776 -0.157607 -0.252421 0.368063
식당 0.369566 0.059562 -0.278394 -0.068363 0.106154 0.276856 -0.290144 -0.186784 -0.386285 -0.581199 0.193895 -0.024647 -0.148284 -0.257258 0.469361 -0.135103 0.158602 -0.075056 -0.332688 -0.771889 0.282777 -0.657766 0.265397 0.227978 0.540001 -0.210499 0.364223 -0.253091 -0.395847 0.111137 -0.016527 0.686909 -0.715010 -0.084114 0.449597 -0.591114 0.065320 0.092050 -0.753008 -0.108336 0.116415 0.804085 -0.548096 -0.448690 -0.099734 0.208840 0.086839 -0.221308 0.344019 0.137442 -0.117691 0.187152 0.585637 0.602809 -0.225109 0.624088 -0.093348 0.242689 -0.213026 0.214555 -0.013866 0.170745 -0.828834 0.315417 0.465678 -0.365850 -0.255481 0.183549 0.487412 -0.322000 -0.671467 -0.033582 -0.362166 0.119302 -0.376126 0.330594 -0.149525 -0.210648 0.155040 -0.556370 0.495043 -0.002054 -0.482369 0.514799 0.295835 -0.748696 -0.090711 -0.234303 0.137089 0.013100 0.305055 -0.003942 -0.488119 0.428042 0.082732 0.273014 -0.169510 0.274789 0.330112 -0.066183
병원 0.184596 -0.280776 0.255311 -0.443598 -0.171988 0.104613 -0.065849 -0.246506 -0.462074 0.324238 0.414594 -0.000554 -0.535138 -0.583322 0.041992 -0.810074 0.381514 -0.021942 -0.462100 -0.262137 0.256059 -0.227767 -0.492761 0.289690 0.369348 0.560167 -0.133135 0.086753 -0.580666 -0.127421 -0.065968 0.303925 0.116597 -0.384122 -0.528467 -0.262867 0.537424 0.477994 0.176967 0.103136 -0.071002 0.133382 -0.779651 -0.147392 -0.079510 0.112289 -0.251196 -0.239163 0.048377 0.587181 -0.241575 -0.177910 -0.758917 -0.351184 0.070199 0.080400 -0.863602 -0.318846 -0.486464 0.251671 0.701074 -0.600746 -0.167013 -0.480148 0.377371 0.087234 0.394910 0.599630 0.488677 0.248030 -0.219624 0.371484 -0.359227 -0.438622 0.052891 0.007695 -0.495580 -0.125693 0.799391 0.658556 0.472523 -0.612177 -0.241180 -0.174811 0.115932 -0.184390 0.157727 -0.144527 0.018825 -0.171339 -0.041117 -0.047198 -0.219763 -0.143470 0.176273 0.462427 -0.104555 -0.011083 0.076104 0.273384
활동 0.359244 -0.080787 0.120427 -0.003348 0.115909 -0.057550 0.462592 -0.160451 -0.417448 0.066456 -0.834598 -0.641398 0.179578 0.062843 -0.487039 -1.020536 -0.187952 0.280081 -0.273793 -0.319079 0.156374 -0.252417 0.720637 -0.494307 0.447471 0.023981 0.237960 -0.266190 -1.184047 -0.479700 -0.205955 0.197556 -0.353936 -0.324696 -0.610095 -0.333068 -0.162434 0.287035 -0.952171 0.123332 0.149639 0.235097 -0.623248 -0.358277 -0.215497 0.260675 -0.427963 -0.390545 -0.335413 0.292863 -0.049809 0.358445 0.482695 -0.018214 -0.022578 0.276737 0.355808 -0.134385 -0.553980 0.221389 0.365076 -0.499945 -0.237089 -0.455150 0.146322 -0.415171 1.221563 0.312156 0.034337 -0.423713 0.646264 0.339706 -0.111915 -0.099741 -0.165523 0.134167 0.278051 0.658085 0.643577 -0.710252 -0.027902 -0.583445 -0.172307 -0.216794 -0.306455 -0.151380 0.408157 -0.292623 -0.030231 -0.162640 -0.220432 0.429943 0.341040 -0.362464 0.383241 0.446451 -0.518491 0.228939 -1.044488 -0.397520
행사 0.022916 -0.456983 -0.072599 -0.620479 0.239021 -0.171207 0.388808 0.139167 -0.590493 0.421739 0.259104 -0.479891 0.058709 -0.106115 -0.258735 -0.601882 0.298330 0.065926 0.332978 -0.266745 0.204905 0.017741 0.211370 0.411824 0.582105 -0.234340 0.260773 -0.265221 -0.138119 -0.383174 -0.139087 0.464777 -0.325978 -0.466297 -0.300146 -0.408174 0.074369 -0.051819 -0.658449 0.440360 0.441972 0.159758 -0.660765 -0.274546 -0.404900 0.451718 -0.142703 -0.658895 0.255165 -0.042749 0.585927 -0.500218 0.370511 -0.046368 -0.612979 0.411500 0.232804 0.236160 0.557737 0.266015 0.058372 0.021066 0.143765 -0.081576 -0.238323 0.129505 0.698084 0.062696 0.513908 -0.286061 0.157203 -0.321363 -0.031411 0.603046 -0.453414 -0.169086 0.176939 0.139483 0.624640 0.024358 0.515164 -0.434338 -0.703133 -0.566840 -0.636861 0.086903 0.067873 0.337172 0.129943 0.126111 -0.043599 0.767726 0.406735 -0.216179 0.662517 0.451415 -0.439606 0.496285 -0.544445 -0.306236
수도 -0.504111 0.321141 0.879726 -0.786706 -0.221781 0.066733 -0.155441 0.037747 -0.454677 0.439725 -0.845211 0.076622 -0.052297 -0.261973 -0.476667 -0.241765 0.370204 -0.151540 0.068548 -0.200277 0.180463 0.015596 0.134340 0.398829 0.188467 -0.200564 0.568625 0.126789 -0.157540 -0.264358 0.051500 -0.019022 -0.551198 0.544042 0.055768 -0.818773 0.078490 0.068207 -0.109756 -0.130372 0.405118 0.443896 -0.742602 -0.052843 0.432055 -0.035992 0.233106 -0.315701 -0.067279 0.041642 0.522518 0.196980 0.428738 -0.010963 -0.222081 -0.225849 0.051806 0.170883 0.141216 -0.015002 0.416844 -0.478423 -0.154925 -0.318058 0.051914 -0.865821 0.482450 1.128553 0.666365 0.167217 0.451793 -0.619615 0.272865 -0.218745 0.190249 0.485040 0.439680 -0.148037 0.361694 0.240903 0.097547 0.048559 -0.544756 -0.288794 -0.145413 -0.621359 0.312176 0.022277 0.209871 -0.180189 0.265201 -0.230695 -0.007041 0.174884 0.448429 0.162563 -0.373699 0.397427 -0.119556 -0.119259
사항 0.612718 -0.563519 -0.087335 -0.359758 -0.304871 0.041451 0.082548 0.338554 0.224086 0.040540 -0.461527 0.486857 0.269264 -0.979711 0.106876 -1.453155 -0.146755 -0.143078 -0.539459 0.156006 -0.230715 0.137734 -0.103437 -0.265184 0.027177 -0.210317 0.240658 0.265917 0.100974 -0.687651 0.257821 0.045226 -0.136638 -0.324112 -0.566605 0.205738 0.810909 0.013358 -0.452104 0.019573 0.087812 0.489155 0.197754 -0.038204 -0.337688 0.135529 0.500119 -0.343400 -0.910442 -0.006694 -0.312133 0.168789 0.546411 0.286686 -0.994075 -0.342269 -0.727842 0.454801 0.061090 0.214480 0.259855 0.563212 -0.484281 -0.115716 0.254657 -0.044724 0.369752 0.577096 0.270702 0.013822 0.672333 0.270272 -0.078355 -0.289956 -0.057581 -0.310031 -0.140789 0.115263 0.534795 0.316900 0.252403 0.268163 -0.509183 -0.163199 -0.363499 -0.916474 0.077644 0.672689 -0.019074 -0.081973 0.227805 -0.385064 -0.449586 0.352365 0.778634 -0.008547 -1.000663 0.097153 -0.421948 0.501188
파악 0.014458 -0.957083 0.126463 -0.692975 -0.061701 0.558242 -0.038810 -0.054796 0.361630 0.293719 -0.020188 0.864745 0.143905 -0.224266 0.193782 -0.559472 0.227273 0.280378 -0.495632 -0.320739 -0.068818 0.070538 -0.029024 -0.169942 0.500303 -0.062177 0.360887 -0.168088 -0.502110 -0.313996 -0.027557 -0.460694 -0.728918 0.083918 -0.577713 0.071568 0.341591 -0.596116 -0.360927 0.203618 0.016670 0.378480 -0.751196 -0.065029 -0.328285 -0.355302 0.140315 -0.336762 -0.108994 0.148396 -0.332802 -0.033202 -0.024935 -0.020198 0.190629 0.158307 0.072696 0.457191 -0.129016 -0.357953 -0.048354 0.091335 -0.846499 -0.391259 0.226652 0.050469 0.476183 0.390606 -0.139164 -0.453306 0.044732 -0.914836 -0.185265 0.476997 -0.600474 0.269414 0.108361 0.478279 0.833824 0.228510 0.488578 -0.549804 -0.715783 -0.257367 -0.208709 -0.293161 -0.344124 0.109320 0.416662 0.442236 -0.347854 0.268701 -0.159054 0.266095 0.822905 0.532332 -0.134313 -0.880424 0.535752 0.250798
서울 0.315749 0.053134 -0.141566 -0.163202 -0.329072 -0.173694 -0.038749 -0.159692 -0.570375 0.420623 0.011744 0.677648 0.660565 -0.601696 -0.109233 0.125604 0.531944 -0.567254 -0.690509 -0.877309 0.561518 0.479416 -0.187961 -0.160506 0.360220 -0.401572 -0.454750 0.228824 -0.246671 -0.403499 -0.715825 0.513788 -0.494321 0.147805 -0.360896 -0.713972 -0.456705 -0.514323 -0.494531 -0.220860 0.422412 -0.126267 -0.250921 -0.416117 -0.444810 -0.038350 0.057122 0.324924 -0.597590 -0.055656 0.313789 -0.518650 -0.008094 0.040305 -0.519447 0.034042 -0.079386 0.251217 0.342702 0.156470 0.469356 -0.422023 -0.568723 -0.788376 0.001894 -0.645499 -0.141104 0.711510 0.014933 -0.225194 0.488119 -0.491012 0.020113 -0.585037 -0.218329 0.314513 0.491297 0.367705 0.604752 0.352704 0.102277 -0.153497 -0.681391 0.031295 -0.602385 -0.344185 -0.218040 0.295981 -0.375110 0.043643 0.208835 0.514036 -0.057426 0.320572 0.184145 0.145070 -0.167437 -0.724057 -0.130686 0.194348
세부 0.937394 0.046396 0.426279 -0.912241 -0.110570 0.293347 0.671915 0.050054 -0.423212 -0.135675 0.077307 0.808314 0.191903 -0.672299 -0.040338 -1.366404 0.248920 -0.320501 -0.952406 0.410986 0.211172 -0.171372 -0.070846 0.362020 -0.232995 -0.803737 0.440442 0.063549 -0.575355 -0.570436 0.788779 0.456262 -0.042901 -0.312443 -0.132356 -0.282083 -0.159334 -0.327966 -0.671769 -0.182963 -0.399928 -0.146630 0.058515 -0.672019 -0.917056 0.128694 0.592392 -0.029887 -0.465572 -0.179566 -0.396916 0.289531 0.448790 -0.271092 -0.173781 0.989807 -0.838283 0.050000 -0.001420 -0.614958 0.597804 -0.122106 -0.433216 -0.141263 0.071191 -0.158116 0.426645 0.260168 0.091476 0.146145 -0.313792 -0.486994 -0.044784 0.587191 0.117274 -0.114393 0.360828 -0.525800 -0.296873 0.828437 -0.001263 -0.535821 -0.079955 -0.292180 -0.426544 -0.884898 0.244035 -0.093916 -0.411616 0.047979 0.436275 0.185168 -0.673613 -0.222118 0.389465 -0.245124 -0.198041 -0.601156 -0.274879 -0.295090
확인 -0.046764 -0.130560 -0.228434 -0.728042 -0.608470 -0.025409 0.578696 0.331400 -0.430160 0.417880 -0.012304 0.982795 0.406865 0.173858 -0.342168 -0.723969 -0.399293 -0.051692 0.382609 0.043918 -0.114056 0.018018 -0.105272 0.094800 0.409550 -0.642611 0.715822 0.233365 -0.434824 0.316542 0.250962 0.198837 -0.319201 0.037345 -0.199882 0.227236 0.069872 -0.756112 -0.214651 -0.371714 -0.020820 -0.204867 -0.807671 -0.611830 -0.069731 0.531791 -0.129997 0.171316 -0.012210 0.588935 -0.366793 -0.102209 0.481902 0.378065 0.103796 -0.044050 -0.180454 -0.092200 -0.043614 0.113023 -0.125672 -0.084604 0.093257 0.250585 0.330514 -0.009150 -0.153306 -0.046245 -0.031187 -0.580249 0.233088 -0.700236 -0.643098 -0.083579 -1.131335 0.406831 -0.010196 -0.251834 0.662125 -0.167575 0.017437 -0.429410 -0.229874 0.196102 0.055611 -0.474656 0.036191 -0.586178 0.006166 0.409238 0.177125 0.682762 0.072889 -0.488731 1.060733 -0.253125 -0.432686 -0.476289 0.364631 -0.277700
관내 0.287490 0.029067 0.062463 -0.183631 -0.302671 -0.104584 0.089198 -0.075278 0.431862 0.537835 -0.283194 -0.066616 -0.145171 -0.445044 0.423712 -0.281042 0.247153 -0.276056 0.049988 -0.228873 0.094664 -0.368263 -0.415318 -0.549441 0.271905 -0.487831 0.494849 -0.198445 0.492788 0.326847 0.337910 0.079226 0.136293 -0.101346 -0.091213 0.026681 -0.380484 0.229610 -0.511988 -0.213251 0.337866 -0.144797 -0.278856 -0.497082 -0.576169 0.086472 0.414226 -0.498460 -0.286570 0.252261 0.302849 0.060859 0.770676 -0.619000 0.451587 0.168077 -0.154164 0.269848 -0.513091 0.351412 0.062854 -0.441909 -0.604223 -0.384156 0.809303 -0.391912 -0.027097 0.930050 -0.273446 0.143373 0.838331 -0.296414 -0.230051 0.070843 -0.529082 -0.460652 -0.283919 -0.368129 0.198616 -0.170446 0.260218 -0.145926 0.048972 -0.049380 -0.222992 -0.254276 -0.129375 -0.032711 0.076980 -0.046814 0.263000 0.482616 -0.338815 -0.618363 0.400076 0.133280 -0.781243 -0.345025 -0.095407 -0.032756
시간 -0.245220 0.520622 0.586080 -0.606785 -0.136528 0.658129 0.466640 0.333142 -0.266113 0.211416 -0.431088 0.059215 -0.207623 0.186820 0.125059 -0.240039 -0.000680 -0.250162 0.004386 -0.344647 0.565569 0.240995 -0.096482 -0.169598 -0.085619 -0.330224 -0.154537 -0.041011 -0.536183 -0.875817 -0.214071 0.067147 0.308540 -0.463334 0.381561 0.181908 0.380403 0.128933 -0.319988 0.537026 0.154821 0.364849 -0.886747 -0.991483 -0.074233 0.206111 -0.447463 -0.401325 -0.094019 -0.273446 -0.006214 0.072216 0.262090 0.500224 -0.403823 -0.145182 -0.244886 -0.080148 -0.058619 0.062145 -0.022657 0.440998 -0.655917 0.506712 -0.093648 -0.245954 0.452051 -0.391856 0.574722 0.050356 0.061823 -0.054449 0.006318 0.025470 -0.571070 0.784924 -0.271642 -0.197309 0.770937 -0.313737 0.251878 -0.619948 0.232941 -0.139068 0.832871 -1.246553 -0.001929 0.306357 -0.120780 -0.399866 0.163764 0.249582 -0.564462 0.528299 0.075092 -0.295314 -0.502295 -0.638125 -0.154575 0.093593
다중 0.036800 -0.479797 0.093918 -0.806833 0.050424 0.235398 -0.419278 0.287969 -0.328817 0.432899 -0.329107 -0.723991 0.431977 -0.269967 -0.198673 -0.717777 0.575250 0.142116 -0.067105 -0.269356 -0.406013 -0.256292 0.837372 0.278728 -0.029148 -0.333631 0.149082 0.207964 -0.341059 -0.978591 0.121874 0.408154 -0.174803 0.669691 0.274573 -0.315549 -0.161322 -0.012129 -0.750140 0.058516 0.593113 -0.091598 -0.886682 0.125226 -0.497455 0.152425 0.105703 -0.828849 0.041297 0.107385 0.247734 -0.721662 1.001699 -0.164031 -0.345502 0.520886 -0.245439 -0.329557 0.337782 0.359397 0.364628 -0.466133 -0.055112 -0.160110 0.333194 -0.843661 -0.116052 0.151022 0.207294 0.049005 0.281271 -0.055672 0.538462 0.431442 -0.139199 0.508287 -0.151386 0.153808 0.244796 -0.344425 0.119439 0.043582 -0.124987 0.497472 0.028062 -0.152471 0.590590 0.154484 -0.167560 -0.261705 0.062875 0.129753 0.313303 -0.171414 0.376650 0.082712 0.033665 0.093210 -0.453562 0.538605
주말 0.003190 -0.315248 0.116456 -0.928927 -0.548615 -0.461245 0.093454 0.607062 -0.572178 0.380060 0.153069 0.167545 0.112350 0.259167 -0.373106 -0.316183 0.607975 -0.223986 -0.511713 -0.337717 -0.155887 -0.239621 0.110767 -0.323258 0.039277 -0.014543 0.047360 -0.313829 0.231852 -0.719964 -0.136017 0.052955 -0.761138 -0.553845 -0.207010 -0.322247 0.235133 0.250735 -0.238382 0.379698 -0.027804 0.351018 -0.360340 -0.051632 -0.292085 -0.212113 -0.327700 -0.744878 0.147465 -0.647703 0.309145 0.112289 0.608877 0.005404 0.389006 0.296505 -0.451132 0.144161 -0.460483 0.876908 0.677103 -0.536128 0.261992 0.267399 -0.210168 -0.057643 0.240540 0.357301 0.544133 0.232751 0.379466 -0.083603 -0.475623 -0.074019 -0.112101 0.056307 0.723244 -0.054819 0.210508 0.133054 -0.260246 -0.308358 -0.360146 -0.159434 -0.465296 -0.043120 0.440961 -0.165270 0.267905 -0.554437 -0.145672 0.269090 -0.351999 0.289815 -0.076154 0.138482 0.389811 0.561544 -0.925607 -0.234952
상자 -0.058843 0.361926 0.386671 -0.190154 -0.432071 0.166718 -0.162582 0.781699 -0.523635 0.009340 -0.260671 0.461622 0.410384 0.269967 0.002527 -1.252951 -0.195015 0.386311 0.156087 -0.429218 0.012436 0.338407 0.402594 -0.520316 -0.117003 0.035083 -0.373860 0.367779 -0.547591 -0.386389 -0.089098 -0.132861 -0.522738 -0.193877 0.445342 -0.386554 0.148093 -0.090649 -1.325221 -0.184911 0.027159 -0.254789 -0.497677 -0.202266 0.206704 -0.024216 0.214629 -0.436739 0.376237 0.455234 -0.938743 0.386153 -0.454277 0.124342 -0.636923 0.489774 -0.723032 -0.273186 0.237710 -0.116907 0.594209 -0.037035 -0.682871 -0.358460 0.102831 -0.394220 -0.076365 -0.206354 -0.427872 -0.298881 0.353094 -0.143824 -0.864179 0.248220 0.178975 -0.170219 0.316808 -0.602632 0.854065 0.011617 0.623757 -0.231148 -0.156548 0.191802 0.062059 -0.007467 0.087213 0.330027 0.056031 0.096128 0.054102 0.659189 -0.122396 -0.051161 0.478782 0.050842 -0.103735 -0.078252 -0.408218 -0.224823
상세 0.219983 -0.078650 0.012618 -0.649053 -1.203176 -0.594880 -0.106323 0.121846 -0.534288 -0.105589 -0.670135 0.255460 0.656124 -0.345053 0.229571 -1.012467 0.594127 -1.080661 -0.210263 0.017026 0.284945 0.420950 -0.194805 0.236891 0.472979 -0.424250 0.336430 -0.208668 -0.549117 -0.617994 0.259180 0.021683 0.323176 -0.497507 -0.647688 -0.045936 -0.073138 -0.448421 -0.515116 -0.174106 -0.031198 0.243448 -0.360779 -0.068932 -0.245540 0.500260 0.107638 -0.095496 -1.081378 -0.029071 -0.853983 -0.070903 0.354902 -0.211527 -0.297886 0.533328 -0.814494 0.069663 -0.610887 0.536971 0.033286 -0.131564 -0.101204 -0.015758 0.365785 -0.171710 0.680631 0.572127 0.508526 -0.550911 0.001065 -0.070143 -0.906135 -0.228210 -0.676363 0.351587 -0.350076 -0.755922 -0.751777 0.434764 0.098680 -0.627658 -0.070183 0.053826 -0.599525 -0.499022 -0.500572 0.025459 0.049836 -0.187301 -0.068566 0.420159 -0.723382 0.293861 0.698007 0.097841 -0.233121 0.122932 -1.162841 -1.017643
이후 0.269462 0.007253 0.379707 0.106116 -1.023427 -0.316709 0.095418 0.649298 -0.290156 -0.343058 -0.163043 0.079575 0.054523 -0.490490 0.128329 -0.322615 -0.717592 -0.651904 0.093514 -0.811716 0.057726 -0.284898 -0.716436 -0.121667 -0.000964 -0.494772 0.125617 -0.177670 -0.069051 -0.693562 0.583744 0.129670 0.259159 0.247669 -0.313137 -0.634702 -0.383636 0.132570 0.019213 0.159874 0.557597 -0.177547 -0.735608 -0.556208 -0.409169 0.066834 -0.428145 0.074573 0.581784 0.297779 -0.394621 -0.546502 0.037468 -0.315213 -0.044609 0.320840 -0.199230 -0.234948 -0.027709 -0.163221 -0.381652 0.174380 -0.836173 -0.441313 0.379758 -0.391740 -0.134039 0.325802 0.432428 0.006535 -0.068929 -0.763243 0.386250 0.555585 -0.739121 -0.093855 -0.121375 0.663205 0.470989 -0.210854 0.251805 -0.616923 -0.464566 -0.079297 -0.148910 -0.814514 0.136639 -0.072294 -0.454228 -0.438161 0.285066 0.739070 -0.068415 0.175525 -0.012936 -0.527123 -0.318024 0.739601 -0.718733 0.546433
진행 0.428774 -0.346608 0.099255 -0.561906 0.503527 -0.354093 -0.272711 -0.339469 0.750798 0.177496 -0.070472 0.627374 -0.500916 -0.240576 -0.073849 -0.512663 0.233500 -0.574646 0.067349 -0.374972 0.276794 0.416594 0.282225 0.072728 0.547048 -0.204347 0.652552 -0.707309 -0.431529 0.080520 0.162055 0.210085 -0.802858 -0.255145 -0.125649 0.336975 0.368203 -0.277986 0.042293 -0.215614 -0.342978 0.275600 -0.600774 -0.218033 -0.320209 0.211174 0.107138 -0.650640 -0.761073 0.204680 0.174102 0.289456 -0.305196 0.008526 -1.115269 -0.003737 -0.719791 0.343400 -0.314490 0.190582 0.144235 -0.140650 -0.114486 0.359107 0.083102 -0.523737 0.194412 0.254516 -0.456740 -0.226689 0.181597 -0.329554 0.045537 -0.376914 -1.043522 -0.362985 -0.421597 0.351023 -0.108788 0.307310 -0.028315 -0.910171 -0.067121 -0.363617 -0.939076 -0.607964 0.725130 -0.044492 0.043253 0.276387 -0.235440 0.147924 -0.804211 0.211545 0.526689 -0.001521 -0.063099 0.465502 -0.308848 0.358330
거주지 0.146840 0.006302 0.641534 -0.157985 0.093348 0.459785 0.164929 0.581481 -0.058598 0.485310 -0.154516 0.047308 0.270399 -0.387593 0.505363 -1.120753 0.569312 0.332636 -0.837141 -0.076889 -0.453059 0.159792 -0.440233 0.577987 1.038591 -0.338724 0.061008 -0.087069 -0.549789 -0.428353 0.303593 -0.556906 -0.272790 -0.946330 0.334532 -0.428355 0.544000 -0.404950 0.268082 -0.454848 0.347039 -0.369674 -0.186871 -0.021197 -0.335319 0.310203 0.358413 0.554339 0.355467 0.324514 -0.443387 0.170301 0.173708 -0.011743 -0.633517 1.071756 -0.276179 0.374613 -0.576742 0.331490 0.191565 -0.726462 -0.083749 -0.765233 0.146158 -0.369365 0.607913 0.208016 -0.633377 0.013235 -0.259303 -0.865999 -0.191883 0.427501 -0.664401 0.165760 -0.820792 -0.136999 0.507954 -0.174867 -0.197066 -0.395671 0.727159 -0.216480 0.085622 -0.597252 0.911951 -0.039920 -0.037834 0.347156 0.218731 -0.323078 -0.068372 -0.281600 -0.165061 0.521882 -0.114390 -0.178884 0.151558 0.606045
지속 -0.392372 -0.471610 0.538453 -0.925393 -0.266781 -0.022639 0.363334 -0.293811 -0.096223 0.537082 0.070970 -0.133065 -0.195290 0.222774 -0.155192 -0.567341 -0.005936 -0.608029 0.490404 -0.125498 0.167139 0.054359 -0.004125 0.214654 0.310066 0.147357 0.793601 0.166338 -0.242970 -0.236957 -0.529318 -0.132991 -0.192248 0.095069 -0.201300 -0.555304 0.377658 0.263114 -0.109101 -0.319688 0.356097 0.191733 -0.878725 0.033807 -0.799056 0.149958 -0.111352 -0.690967 -0.530618 0.113816 0.306215 0.071895 0.266217 0.110823 0.288807 0.489998 -0.199777 0.049520 -0.047507 0.214242 -0.044696 0.177699 0.336799 -0.549467 0.317334 -1.392285 0.288640 -0.095804 -0.077535 -0.536935 -0.208378 -0.408563 -0.113384 0.356109 0.335764 -0.197502 0.184268 -0.081590 0.597987 0.003921 0.332680 0.078977 -0.282266 -0.206202 0.179609 -0.078930 0.363649 -0.195221 -0.060753 -0.324097 -0.570295 0.050412 0.077522 0.554986 0.851425 0.389585 0.258424 0.653956 -0.436957 -0.084440
방지 0.031016 0.160382 0.174302 -0.339975 -0.306289 0.471031 -0.244710 -0.410273 -0.512337 0.487655 -0.025268 -0.536224 -0.060076 -0.583837 -0.631037 -1.065905 -0.190881 -0.511589 0.158695 -0.016032 -0.299617 -0.468930 0.180077 0.523407 0.553966 -0.038831 0.097641 0.084167 -0.659356 -0.699450 -0.322183 0.406743 0.293632 0.294416 0.356213 -0.342753 0.894990 -0.048635 -0.673052 0.332080 -0.017109 -0.341509 -0.200103 -0.555707 -0.732840 -0.014479 0.123073 -0.475425 -0.112696 -0.045639 0.054535 -0.321530 0.289355 -0.280578 0.100144 -0.075925 -0.035554 0.366281 0.456813 0.499050 -0.196058 -0.379739 -0.131083 0.177677 0.416671 0.112732 0.449231 0.005050 0.271948 0.496424 0.418874 -0.517457 -0.030873 0.055625 -0.233203 -0.518697 0.650883 0.632817 0.151661 -0.714187 -0.447683 -0.503313 -0.393608 -0.061370 0.084077 -0.658701 1.144914 0.084289 0.006760 -0.595696 -0.245072 -0.020423 -0.061109 -0.690511 0.280805 0.729977 -0.173895 0.328036 -0.665339 -0.427951
북구 -0.232346 -0.216729 0.315910 -0.284661 -0.413487 0.135851 0.028355 0.540274 -0.319189 0.168482 0.720028 0.092940 0.313157 -0.261081 -0.268982 -1.024026 1.051178 0.232933 -0.415989 0.427235 -0.095742 0.063569 -1.215730 0.288260 -0.111477 -0.458684 -0.255098 -0.466321 0.271183 0.056303 -0.617035 0.480424 -0.332121 0.499371 -0.152169 0.284155 0.228213 0.103135 0.213181 -0.510679 0.515971 0.366894 -0.566841 -0.755634 0.134686 -0.227791 0.621660 -0.078183 0.192523 0.235582 -0.323737 -0.413713 -0.019533 -0.168778 -0.387488 0.447314 -0.035928 0.492828 -0.062993 -0.191231 -0.012658 -0.394138 -0.621258 -0.090829 0.714878 -0.627275 0.026273 0.143380 -0.227233 -0.348515 0.036658 -0.576239 -0.661086 -0.407041 0.048246 -0.380761 -0.058121 -0.047146 0.895369 -0.436803 1.199683 -1.011076 -0.079591 0.188552 -0.037463 -0.559934 0.316950 0.429251 -0.483735 0.424132 0.431475 0.666886 0.112815 -0.144637 0.281358 0.295939 0.676955 0.102981 -0.940464 0.127074
상시 0.356185 0.430492 0.410614 -0.287658 0.026812 -0.387346 0.048412 0.260617 -0.515923 -0.142474 -0.036597 0.111988 0.099757 0.467634 0.241399 -0.440042 0.320092 0.121588 -0.272971 -0.510535 0.309825 -0.097437 0.638251 0.075678 -0.338790 -0.350091 0.102078 0.113477 -0.668176 -0.200976 -0.417631 -0.461440 -0.399973 -0.068027 0.156375 -0.257302 -0.146347 0.273059 -0.362136 0.067122 0.509672 -0.109608 0.077863 -0.121684 -0.180084 0.334702 -0.227981 -1.323827 -0.154787 0.715345 -0.558167 0.051883 0.020615 -0.172280 -0.331993 -0.087338 -0.858483 0.136646 0.187715 -0.352808 0.056285 -0.022612 -0.734758 0.065105 0.246761 0.094049 0.371435 0.384518 -0.188883 -0.481516 0.462688 0.383626 -0.258894 0.647501 -0.372524 -0.038039 -0.353361 -0.486677 0.003685 -0.258184 0.284298 -0.677735 -0.604097 -0.046110 -0.104726 0.088732 -0.249586 -0.122251 0.237874 -0.457246 0.081932 0.683138 -0.160891 0.187193 0.366360 0.431191 0.079061 0.339315 -0.875961 -0.200048
기간 -0.030201 -0.503752 0.256093 -0.157184 0.094547 0.049931 0.290565 0.876841 -0.076210 0.131398 0.278466 0.104660 0.326872 0.406301 0.149443 -1.225673 0.654286 -0.475177 -0.339459 -0.448984 0.272661 -0.094887 -0.272882 0.044719 0.859942 0.008690 0.281310 0.621400 0.081718 0.235707 -0.095084 0.021836 0.228718 0.642539 -0.234062 -0.780095 -0.087494 0.082820 -0.187197 -0.174601 1.084440 0.399447 -0.316952 -0.138509 -0.543758 0.083505 -0.240297 -0.435681 -0.457042 0.017834 0.017999 0.245035 0.270717 0.291263 0.050115 -0.163544 -0.791444 -0.240475 0.487702 0.504553 0.114505 -0.102953 -0.392635 0.751414 -0.423645 -0.583170 0.291422 0.240509 0.325037 0.272086 0.166632 0.186523 -0.012796 -0.001373 -0.033932 0.087230 0.716578 0.753697 0.157246 -0.505758 0.001878 0.024843 0.005487 -0.585629 -0.050783 -0.681071 0.346269 -0.639926 0.046205 -0.639908 0.271252 0.305037 -0.036275 -0.173020 -0.113962 -0.113657 0.118313 -0.268092 -0.418727 -0.288462
조치 1.028286 -0.310915 0.075504 -0.909988 -0.091476 0.391815 -0.288426 -0.167706 0.170426 0.243510 0.138109 0.067538 0.113580 0.025934 -0.120816 -0.788042 -0.037678 -0.183307 -0.347724 -0.142402 0.211224 -0.453053 0.060064 -0.202000 0.035756 0.023019 0.176443 -0.202734 -0.143305 0.110822 0.388772 0.441051 0.131544 -0.032340 -0.960505 0.069432 0.365215 0.293594 -0.394214 -0.081954 0.642437 0.391874 -0.343116 -0.416809 -0.547917 0.221373 0.655900 0.056962 -0.536682 0.026506 0.235942 0.301048 0.379307 -0.328045 0.106270 0.152305 -1.031741 -0.170608 0.112112 -0.158815 0.133180 -0.086399 -0.741428 -0.054797 0.176614 0.151225 0.837627 -0.164040 0.158272 -0.089848 0.145426 -0.215161 -0.049523 0.549978 -0.321736 0.215498 0.319413 0.140480 -0.067775 -0.155505 -0.742783 -0.800276 -0.477911 -0.182387 -0.533047 -0.225240 0.403207 0.029730 0.140355 0.569458 -0.008495 0.528317 0.113196 0.017285 -0.138356 -0.220133 -0.359152 0.199170 0.593847 0.129117
장소 -0.145363 0.089934 -0.524014 -0.559692 0.158874 0.644380 0.039506 -0.107342 -0.727796 0.935815 0.440877 0.276948 0.686708 -0.660224 0.231868 -0.415100 0.197791 -0.390841 -0.318723 0.495470 0.081068 0.040614 0.554345 0.073698 0.077920 0.425686 0.678527 -0.123992 -0.054058 -0.069193 0.082786 -0.204560 0.364813 -0.077064 0.327995 0.363058 0.197556 -0.131742 -0.504463 0.323264 -0.117694 0.377022 -0.613143 0.101686 0.080583 -0.489678 0.089302 -0.650385 0.053184 -0.251251 0.059919 -0.110880 0.207887 0.522054 -0.245703 -0.159194 -1.188738 -0.221221 -0.102392 -0.204181 -0.268203 0.093074 -0.604325 0.497713 0.713183 0.227841 0.869296 0.118122 -0.190113 -0.035192 0.230632 -0.351324 -0.137428 0.137720 -0.490532 0.423588 0.170127 0.177836 0.554741 0.190261 0.405932 -0.342746 -0.269466 -0.203589 -0.276832 -0.073841 -0.095799 -0.268153 0.522075 -0.196524 0.450782 0.453420 -0.423475 -0.485025 -0.286118 -0.090675 0.319143 0.165765 -0.272992 -0.145136
연휴 -0.068533 -0.223788 0.074003 -0.185954 -0.176430 -0.484541 0.474122 0.392508 0.119896 0.237928 -0.216317 0.389765 0.096856 -0.191354 -0.737482 -0.140448 -0.132599 -0.229665 -0.563348 -0.153303 -0.095872 -0.536767 0.503174 0.264346 0.215936 -0.556730 0.472357 -0.515487 0.365666 -0.032239 0.210043 0.638343 0.415684 -0.237850 0.379025 -0.759385 0.157372 0.385000 -0.245613 0.529646 0.049642 -0.641874 -0.769950 -0.835478 0.185813 0.345721 0.264831 -0.940841 -0.222194 -0.386869 -0.103320 0.066445 -0.465157 -0.107056 -0.487257 0.667506 -0.917169 0.524212 -0.251818 -0.066007 0.807787 -0.345060 -0.047479 0.259774 -0.008337 -0.391010 0.425170 1.030726 0.788584 0.309696 0.483390 0.170179 0.381670 0.357606 -0.192021 -0.176813 0.923438 0.150980 0.683272 0.072594 -0.307040 -0.084700 -0.260493 -0.410115 0.023157 -0.503052 0.578732 0.105208 0.115134 -0.348731 0.474641 -0.001225 0.033685 -0.459577 0.861208 -0.037918 0.300722 -0.131936 -0.500639 -0.701915
카페 0.259891 -0.070050 0.297198 -0.428622 0.232911 0.313133 -0.131967 0.400568 -0.177919 -0.520500 0.492272 -0.520321 0.297139 -0.698103 0.576341 -0.677401 -0.173578 0.068058 -0.417858 -0.901042 0.496935 -0.061500 -0.141403 0.046719 0.680453 -0.058075 0.032670 0.176880 -0.768556 -0.694974 -0.094654 0.669738 -0.194168 -0.055188 -0.139138 -0.775367 0.153449 -0.009194 -0.260405 0.616890 -0.034793 0.400974 -0.627426 -0.300877 0.182674 0.642221 -0.020583 -0.603032 -0.249156 0.117010 -0.459774 0.242905 0.240609 0.573943 -0.105894 0.038014 -0.376747 -0.090773 0.114614 -0.074019 0.003575 0.318012 -0.560093 -0.018727 0.572639 -0.662821 0.288651 0.464282 0.311335 -0.664995 0.146963 -0.630011 -0.559414 0.431819 -0.571166 0.759923 -0.139779 0.019041 0.329811 -0.481737 -0.060373 0.294228 -0.196364 0.135467 -0.121398 -0.033085 -0.499532 0.429967 -0.098880 -0.530833 0.509554 0.657948 0.109358 0.976096 0.185578 -0.146827 -0.251155 0.383590 0.331012 0.569800
보건 -0.175609 0.184919 0.272746 -0.142340 -0.175584 0.114935 0.183504 0.252198 -0.784084 0.494797 0.287243 0.113071 -0.561867 -0.663850 -0.283309 -0.800452 -0.202483 0.094316 -0.375655 -0.640500 0.063819 0.139778 0.241968 -0.138003 -0.399192 -0.407710 0.177531 0.102209 -0.233471 0.341181 0.800126 0.040670 0.018707 -0.197914 0.176469 -0.281000 0.245159 0.227784 -0.355441 0.337677 0.243658 0.680273 -0.310825 -0.037455 -0.143617 0.237190 0.560025 -0.205108 0.180532 0.973341 0.055390 -0.471313 0.434041 0.186446 0.211202 0.993548 -0.477728 0.726190 -0.653463 0.149523 0.086147 -0.131561 -0.527896 -0.679454 -0.154892 -0.353188 -0.304014 0.072261 -0.117664 -0.220131 0.371095 -0.106841 0.170470 -0.612466 0.144295 0.575290 -0.305956 0.194800 0.314709 -0.164742 0.284623 -0.843469 -0.230711 -0.293529 -0.458074 -0.642354 0.298533 0.661309 0.093129 -0.771060 -0.449231 0.586014 0.152726 -0.126479 0.371923 0.012313 -0.566010 0.031651 0.272733 0.049055
환자 0.379628 0.011039 0.421557 -0.019216 -0.905195 0.177376 0.220851 -0.021132 -0.238087 -0.057041 -0.722470 0.097799 -0.224914 -0.483500 0.471465 -1.616348 -0.406620 -0.201820 0.168789 0.158258 0.083913 -0.501730 0.090203 0.422323 0.619553 0.113980 0.339284 0.644556 -0.189558 -0.275632 0.268139 -0.000263 -0.624129 -0.327359 0.075701 -0.440797 0.395834 -0.071293 -0.623099 -0.598307 -0.154163 -0.003320 -0.034340 -0.487551 -0.036014 -0.069438 0.152539 -0.255066 -0.076627 0.381468 -0.456695 -0.622276 0.154323 -0.392307 -0.213270 0.402367 -1.422248 0.279289 -0.266373 -0.235821 0.026908 -0.492096 -0.221250 0.386072 0.284989 -0.247987 0.366188 0.324012 0.164674 0.363969 -0.703000 -0.539375 0.027006 0.127017 0.633899 0.441778 0.182000 -0.170100 0.391862 0.374399 0.380946 -0.644375 -0.182906 0.221408 -0.411967 -0.876068 0.181807 -0.366903 0.342844 0.311761 -0.358463 -0.393051 -0.172915 0.109039 0.483170 0.201035 -0.456357 0.320236 0.184749 0.420888
연장 -0.093985 0.358456 0.049780 -0.058798 -0.308506 -0.609576 0.637133 0.387085 -0.014464 -0.038080 -0.356576 0.478532 -0.293504 -0.391253 -0.536061 -1.001686 0.613704 -0.171654 -0.386441 -0.418881 0.118816 0.408586 -0.234053 0.581598 0.235670 -0.249007 0.300174 0.510483 -0.228776 -0.786738 0.772040 0.674508 -0.183061 0.343524 -0.372813 -0.059745 0.315520 0.381940 -0.633686 -0.138510 0.500607 0.392280 -0.960095 -0.217253 -0.292029 -0.122625 -0.313606 0.012489 0.648774 -0.388798 0.245834 0.301496 0.024493 0.011837 0.007603 0.075334 -0.794404 0.140539 0.079431 0.539188 0.019525 0.285423 0.183514 -0.365154 0.501199 0.271362 0.327016 0.094347 0.418765 -0.326469 0.422180 0.164448 -0.030655 -0.291009 -0.616058 0.189017 0.018389 0.821465 0.632731 -0.327989 -0.743627 -0.115862 -0.868998 -0.245523 0.745223 -0.567111 0.061433 -0.198482 0.606099 -0.429340 0.437765 0.252560 0.107964 -0.514837 0.624723 0.146270 0.162558 0.187419 -0.310509 -0.155185
식사 -0.211033 0.042694 0.094469 -0.370495 0.231913 -0.272803 0.243092 -0.080715 -0.603883 -0.294715 0.230905 -0.382547 0.212543 0.105345 -0.307659 -0.174392 0.124849 0.131536 0.172862 0.314623 0.450769 -0.371811 0.055189 -0.160405 0.939949 -0.650190 0.242506 -0.257134 -0.870981 -1.198291 0.215867 0.262345 -0.097899 -0.344497 0.185094 -0.152098 0.034056 0.152279 -0.332669 0.055816 -0.040503 -0.035340 -0.047826 -0.143610 -0.095045 0.268248 0.065676 -0.836512 0.106360 -0.217454 -0.146062 -0.138669 0.865778 -0.164070 -0.270358 0.358447 0.044627 -0.023149 -0.332444 0.155498 -0.037561 -0.317199 -0.586705 -0.183468 -0.109058 0.033835 0.640216 -0.108344 -0.033880 -0.513474 0.365485 0.198507 0.154108 -0.327932 -0.748799 -0.278952 0.196683 0.294352 1.010059 -0.375336 -0.211524 -0.267000 -0.635082 0.483799 0.171622 0.089579 -0.416173 -0.145530 -0.099409 -0.263962 0.587054 -0.193305 -0.242448 0.278181 0.529755 0.556660 -0.240153 0.069362 -0.545082 0.267242
의료 -0.452089 -0.008764 0.340809 -0.369075 0.620802 0.097413 -0.767482 0.179468 -0.460875 0.355389 0.801825 0.428910 -0.118473 -0.197371 -0.392725 -0.402270 -0.455029 -0.073285 -0.715889 -0.466199 -0.281117 0.186016 0.379025 0.010032 0.116285 0.603840 -0.294554 0.558102 -0.210313 -0.337543 0.124148 -0.009056 -0.267630 -0.605117 -0.241748 -0.305179 0.254535 0.363103 -0.003395 -0.174546 0.541560 -0.158429 -0.684592 -0.114656 -0.450971 0.313576 0.289702 -0.474204 0.046207 0.884880 0.361676 0.304844 0.080114 -0.190147 0.311290 0.490879 -0.449771 0.620693 -0.636448 -0.440947 0.359101 0.003812 -0.739818 -0.283779 0.378266 0.006362 0.111616 0.452883 0.086967 -0.380253 0.397718 -0.391821 -0.582434 -0.647200 -0.189343 0.607702 -0.041249 -0.188367 0.409470 0.799195 0.322908 -1.043588 -0.076716 -0.212860 0.180212 -0.906676 0.386584 0.294549 0.177366 -0.280262 0.245742 -0.168406 -0.261638 -0.640670 -0.110015 0.208853 -0.193135 0.523455 -0.083913 0.392344
진단 -0.065573 0.034170 0.390410 -0.455618 -0.404568 -0.111826 -0.105178 0.651903 -0.409028 0.574462 0.300104 -0.005102 0.221075 -0.718012 0.062457 -0.611139 0.705099 -0.154905 -0.351295 0.385062 -0.447886 0.163886 -0.011155 -0.560221 -0.462191 -0.343459 0.523654 0.049318 -1.256136 -0.045527 -0.649712 -0.110617 0.632569 -0.261737 0.091480 -0.481080 -0.134811 -0.046060 -0.850531 0.246681 0.353767 0.430640 -0.003484 -0.181319 -0.160288 -0.047712 -0.087534 -0.045045 -0.346161 0.881621 0.337950 -0.135275 -0.001411 -0.406724 -0.146089 0.478956 -0.550022 -0.249855 0.211910 0.286385 -0.338808 -0.116295 -0.648685 -0.210962 -0.005863 -0.092634 -0.109865 -0.073740 -0.032556 -0.648894 -0.336679 -0.678267 -0.077869 -0.268016 -0.116705 -0.276530 -0.140132 -0.160922 0.471918 -0.542277 -0.655400 -0.760896 -0.195583 -0.529686 -0.285057 -0.718347 0.434963 0.128623 -0.090176 -0.163586 -0.110678 0.080620 0.184300 -0.152456 -0.056350 0.050309 -0.001769 0.162899 0.111440 0.012344
전원 0.179070 -0.158216 0.176296 -0.729177 -0.008226 -0.267110 -0.529932 -0.400548 -0.148817 0.421661 -0.179455 0.022835 -0.118159 -0.139300 0.052798 0.067098 0.512514 0.370163 0.255607 -0.570612 -0.638910 0.238103 -0.266617 0.399832 0.425155 -0.286268 1.048608 -0.549823 -0.434080 0.218325 0.160865 0.389180 -0.236284 -0.095941 -0.294302 -0.522206 0.512040 0.107339 -1.048010 0.057910 0.149299 0.109500 -0.396106 0.257360 0.104207 -0.155880 0.080008 -0.063403 -0.205169 0.796392 0.421547 -0.225015 0.547901 -0.148510 0.034088 -0.572559 -0.786964 -0.399374 -0.230012 0.386739 0.338233 0.283419 -0.971354 -0.462791 -0.053547 -0.654330 -0.197201 -0.213912 0.327102 -0.185180 -0.035181 -0.132425 0.038350 -0.138712 -0.625074 0.287162 0.380211 0.455563 0.598816 0.568150 0.221279 -0.758008 -0.200729 -0.095221 -0.393932 -0.976374 -0.014878 0.069895 0.182413 0.474512 -0.024467 0.519638 -0.257068 -0.026586 -0.202430 0.364883 0.034611 -0.258561 -0.532137 0.131790
안전 -0.639587 0.089926 -0.177875 0.273114 0.187076 -0.111648 -0.473315 -0.187007 0.541283 1.027985 -0.153792 0.356702 0.395734 -0.007325 0.255380 -0.195151 1.116379 -0.083179 -0.159116 -0.677590 0.006048 -0.572477 0.013890 -0.457981 0.479997 -0.679699 0.308441 0.632785 -0.395413 -0.648719 0.308980 0.510452 0.081474 -0.176002 -0.254660 -0.434504 0.784847 -0.515557 -0.458066 -0.671605 0.575029 -0.656796 -0.926743 -0.425942 -0.199627 0.223121 0.484899 -0.414525 -0.460735 0.060291 0.206116 -0.026900 -0.032702 -0.019568 0.297577 0.148045 -0.548996 0.795181 -0.227120 0.155418 0.299622 -0.332723 0.701945 -0.002445 -0.096496 0.130147 0.211060 -0.207928 -0.019809 -0.419928 0.239415 -0.326499 0.015050 0.220302 0.056467 -0.197422 0.043961 0.755717 0.347096 -0.361577 -0.372216 -0.354238 -0.481067 -0.210413 -0.057747 -0.625225 -0.104318 0.483468 0.365244 -0.107408 0.135071 0.159696 0.063781 0.615109 0.700828 0.044693 0.217714 0.152013 -1.065993 0.388567
거주 -0.242916 -0.277808 0.236140 -0.563187 -0.245118 -0.066704 0.011970 -0.614012 -0.085178 -0.213314 0.308870 0.816382 0.173834 -0.035004 -0.346085 -0.320759 0.138150 -0.393751 0.166460 0.365314 -0.226904 -0.790386 -0.084722 0.026756 0.751865 0.028499 -0.173755 0.263587 -0.599732 -0.269380 0.311031 0.254144 -0.093041 -0.493286 0.113218 -1.005234 -0.262461 -0.233932 -0.131100 -0.270497 0.105402 0.060411 -0.277302 0.111720 -0.563287 0.096445 0.156394 -0.112719 -0.625752 -0.421483 -0.753634 -0.009743 0.479031 -0.506553 -0.218995 0.399199 -0.658891 0.282862 0.243930 0.308276 -0.051990 0.083536 -0.713362 0.049670 0.508433 -0.004898 0.089007 0.758033 0.076850 -0.377200 0.311358 -0.903718 0.235240 -0.290487 0.181215 -0.839558 0.040939 0.577101 0.541456 0.270130 0.206002 -0.146612 0.028498 -0.263630 -0.227094 -0.694665 -0.413476 -0.048198 0.292996 0.239355 0.210896 -0.198668 0.075797 -0.238260 0.478154 0.061117 -0.057179 -0.033345 -0.044716 -0.097389
군민 -0.511109 -0.199611 0.164636 -0.389518 0.206177 0.529690 -0.224490 0.160570 -0.204667 0.333361 0.269181 -0.100365 -0.046509 0.005068 -0.269563 -0.585061 0.035862 0.212107 -0.791837 0.134003 -0.193110 -0.192006 -0.256184 0.158155 0.077828 -0.197962 0.417538 0.188407 -0.512513 -0.158083 -0.326809 -0.513775 0.106898 0.275264 -0.259500 -0.708277 0.868964 -0.077285 -0.220302 0.087344 -0.334564 0.098113 -0.053795 -0.132947 -0.154461 0.084982 -0.143042 -0.256031 0.172400 -0.092661 -0.187009 0.005592 0.515046 -0.037388 0.021871 0.693336 -0.547783 0.140076 0.034281 0.274018 0.519058 -0.031157 -0.313714 0.003311 0.420482 -0.851646 -0.024412 0.476185 -0.179721 -0.094286 0.295101 0.147347 0.410454 0.309197 0.072820 0.450275 0.156268 -0.098278 0.025075 -0.738567 -0.443910 0.115327 -0.214375 -0.658424 -0.790208 -0.304179 0.003790 0.401927 0.265861 -0.023314 0.385853 0.223472 -0.221091 0.597385 -0.068073 0.150737 0.271450 0.170386 -0.618827 -0.166180
집합 0.436040 -0.115742 0.279220 -0.767158 0.085498 -0.217016 0.675303 0.687022 -0.265281 0.098585 -0.430059 -0.272065 -0.054235 0.259145 -0.223976 -0.701083 0.576708 -0.655255 -0.618555 -0.056658 0.829399 -0.017767 0.164796 0.064715 0.264985 0.015525 -0.151772 -0.139134 -0.356404 -1.111964 0.379693 0.634519 0.043954 0.149910 -0.610982 0.493673 0.285181 -0.070435 -0.528371 0.637199 -0.331979 -0.468065 -0.398332 -0.479376 -1.061880 0.099401 -0.159688 -0.182934 -0.069870 0.033333 0.200307 -0.010860 0.060228 -0.024655 -0.494437 -0.204460 0.396565 0.478108 0.585244 0.115961 -0.210250 -0.038515 -0.879840 0.134808 0.092291 -0.445681 -0.061891 0.219194 0.219557 -0.395495 0.187179 -0.236383 0.104759 0.219640 0.141540 0.432896 -0.144565 0.325075 0.277411 -0.278849 0.064178 -0.234727 -1.114883 0.158558 -0.337570 -1.460315 0.484377 -0.019612 0.271916 -0.482589 0.714432 0.544836 0.078118 -0.097760 0.831611 -0.013080 0.215336 0.042212 0.018964 0.312224
