1928 100
확진 0.652263 0.539258 -1.525428 0.020119 -2.445337 0.293964 2.017047 0.329741 0.690302 0.051116 1.709696 -0.717767 -0.631933 -1.338969 -1.131947 0.072423 0.062352 -0.282085 0.132733 0.137431 0.172007 0.360770 -1.262679 1.150317 0.797040 -0.958330 -1.191588 -0.580340 -0.877951 0.008025 -0.544575 0.409285 -1.235086 -1.137808 0.302965 0.988674 1.431988 0.051720 -1.337123 0.110426 -0.516636 -0.873533 -0.464800 1.963141 -0.027023 -0.357385 0.682683 0.459823 -0.804834 -1.024089 -0.591048 0.006434 0.808322 0.536320 0.733524 -0.086858 -1.083173 0.486563 -1.133809 -0.507422 -1.231006 0.457393 0.165476 0.456597 -1.645086 1.372193 -0.251554 0.172325 -1.886059 -1.468986 -0.545350 -1.426089 -0.855126 0.111592 2.666841 0.068337 -0.400258 -0.736576 1.582976 1.438985 -0.245287 -0.117323 0.328829 0.495026 -0.463410 -0.898943 -2.013506 1.340193 0.141184 0.723561 0.818719 0.755327 0.237030 0.063236 -0.932012 0.928693 0.949546 -1.213048 0.395242 0.034149
발생 0.154613 0.943403 -0.877866 -1.095480 0.335640 0.703911 0.898585 0.027998 1.513891 1.484460 0.758738 -0.863984 -2.090306 -0.377816 -0.329198 1.264293 -0.098601 -1.013281 0.960223 0.320211 0.050770 0.710750 -0.022713 -0.108146 0.342946 1.230223 -0.962704 1.054794 1.802031 1.562750 -2.521042 0.479597 0.239999 0.470075 -0.793954 -0.246012 0.456535 -0.764031 1.904037 -2.067897 -0.068825 0.207859 -0.772585 -0.008379 -2.312554 -0.141779 -0.172900 -1.480984 -1.831218 -0.382100 0.319830 0.876223 1.056101 0.031769 -1.341826 -1.454674 -0.006111 -1.085886 -1.385027 1.516096 -0.867062 -0.711197 -0.448065 1.548151 -0.996235 0.734739 -0.820551 -1.979622 -1.332295 0.140626 -0.680707 -0.547065 0.175572 -0.687203 1.251585 -0.394558 -0.902435 -0.906606 0.784757 2.159329 -0.444233 1.211582 0.907720 -1.754479 1.149273 -1.932964 -1.420784 1.271728 0.416269 0.304783 -1.075051 -0.753894 0.796596 -1.097952 0.200715 -1.926441 1.547114 0.302060 -0.711085 0.124731
코로나 -1.305511 0.234437 -1.098049 -0.316937 -2.046410 0.138577 0.127426 -1.004277 0.950734 0.461154 -0.421332 -1.929569 0.312720 -0.241943 1.013714 1.082606 -0.975214 -0.291053 0.094551 0.877869 -0.509306 0.197812 -0.482443 1.119302 0.538146 1.276265 0.750237 1.249637 2.267922 -0.401955 0.461253 -1.097078 0.026020 -0.051835 0.002222 0.374282 1.377694 0.960771 -1.010017 0.075778 2.612527 0.775612 0.733487 0.025192 0.370636 -0.835453 0.865119 -1.751626 1.027809 0.039312 -0.273064 -1.003805 1.893331 0.042970 -0.330608 0.742598 -0.911609 -0.175783 0.339998 -0.338594 -1.717881 -1.542575 -0.058157 0.145343 0.350972 -0.138254 -0.620869 0.892503 -1.643347 -0.966027 -1.566312 -1.084204 -1.817508 -2.215535 0.946965 -0.060072 1.383381 0.064462 2.157593 0.380492 -0.229543 0.624799 -0.270038 0.290426 0.455195 0.762747 -0.600556 1.106019 -0.516224 -1.360873 0.947352 0.578581 -0.144344 -1.447467 0.197091 -0.732418 -1.473292 -1.070084 0.369793 0.437406
검사 -0.284121 -1.661868 1.293753 -0.717521 -0.517888 0.893468 -0.798650 0.278771 0.410040 0.264561 0.315863 0.498301 0.710114 -1.648017 0.919876 0.522526 0.336640 -0.798125 -1.412808 0.312185 -1.523433 -1.327654 -0.020571 1.823395 -0.512485 -0.888867 0.370136 2.134423 -1.352283 1.180225 -1.164576 -1.683193 -1.194026 1.277803 0.775732 -0.839092 3.394326 -0.888222 1.795816 -0.611147 0.104949 -0.097665 0.979871 1.564105 1.242160 -0.179415 0.589846 -1.003000 1.356781 -0.115102 -1.902090 -0.580909 -0.470680 -1.107092 0.331358 -1.510505 0.570058 1.089764 -0.081258 -1.568905 -0.684073 1.631296 1.536713 -0.979611 0.085724 0.103624 -0.855255 0.759308 -0.273763 -3.108426 -1.177872 -0.407121 -1.682603 1.835450 -0.551751 -0.735961 -0.567092 -0.982396 -0.140459 -1.418790 1.278133 -0.882737 -0.874480 -1.351148 1.417933 0.644209 1.059912 0.443678 -0.533670 -1.979226 1.538535 0.645418 -0.500597 0.194050 0.571692 -0.221106 -0.487859 2.478788 -0.535432 1.258155
방역 1.132499 -1.406600 0.401023 -3.080977 0.411770 0.466876 1.499976 0.303666 3.403395 -0.104802 0.493251 -1.630417 -0.275671 0.275486 1.111062 0.865700 -1.384030 -0.396460 0.409705 1.456370 -0.222592 0.520822 -0.930319 0.335882 -0.408179 -1.310652 -2.951467 -0.849451 0.275878 1.457116 -1.812281 -0.518132 0.188717 0.414130 -1.362483 -0.430061 0.149059 -1.213041 1.564937 0.403174 1.144439 0.778021 0.791680 -0.078567 -0.349305 -0.619279 -0.414039 2.428226 -0.012932 -0.457091 -0.586272 0.350758 1.422666 0.857686 -1.278410 0.354599 1.292442 -1.661128 -1.302922 0.283937 0.006543 -1.653197 -1.647695 0.396729 -0.022633 -0.533462 -0.211367 0.374582 -1.139498 1.961415 1.258487 0.983476 -2.644944 0.003204 0.672050 -1.693179 1.109987 0.272835 -0.667620 -0.657964 -0.563358 2.180796 -0.393581 -1.131816 0.032130 1.248186 -0.839819 0.311744 0.184096 -0.502510 0.348372 -3.314939 -0.833146 -0.081348 -0.290806 1.964298 -0.256027 -1.235120 1.502450 -0.894958
착용 -0.466727 -0.885866 -0.489877 0.029101 -2.419594 -1.476386 0.547051 -0.248561 1.221635 -0.388223 -1.063146 -1.434461 0.447275 0.386278 -1.345995 -0.959481 -0.377173 -0.045868 0.226052 2.477053 0.363047 0.259325 1.995679 0.693823 1.919801 1.522789 -2.969558 -1.268894 -0.017701 1.023193 0.052193 0.096369 1.115690 2.406028 -0.443595 0.143983 0.230435 -1.614728 -0.102631 -1.235106 0.009063 1.085419 1.722213 -1.574482 0.851697 -2.186701 0.632651 0.182428 2.043834 -0.433332 -1.538334 -0.253532 0.881919 0.814629 -1.839549 0.710007 0.930452 -0.687271 -0.947984 -0.180855 -0.175955 1.325010 -1.040641 0.478412 -0.386951 -0.144425 -0.911043 -0.859234 -0.294566 0.633324 2.236629 2.405532 0.533336 0.568151 -1.623548 -2.414799 1.055688 -0.830854 -0.026871 0.054326 0.960527 1.026052 1.423768 -0.927734 0.304242 2.010664 -2.444002 -0.554443 0.234037 -0.089894 0.422019 -1.253611 0.081112 -1.609733 1.498040 -0.312238 0.469049 0.496305 0.770106 1.053062
보건소 -0.171677 -0.720254 1.861869 -1.502320 1.949819 0.578545 0.157035 0.970648 -2.117710 -1.960647 0.772994 -0.319901 2.606793 -1.693915 0.847689 -0.527901 0.071909 0.305583 -1.614768 -1.556983 -1.110872 0.286294 1.002014 -0.215235 0.567287 0.590727 0.211439 -0.020731 -1.374563 -0.749452 -0.762925 -1.154403 1.912765 -1.720494 -0.831867 -0.525643 1.121344 -0.510152 0.618358 0.362473 -0.969304 -1.042773 0.499427 0.885462 -0.748374 1.497246 0.979584 -1.635064 -0.175633 0.191587 -1.896101 -0.661528 0.349518 0.654866 0.152332 -1.658276 0.450571 1.016102 1.054788 0.251789 -0.797899 0.610809 0.266886 -0.844932 0.272187 -0.352676 -0.754149 -0.623593 1.403176 -1.062536 0.077241 -0.315564 0.408805 2.093943 0.183599 0.449616 0.689750 -1.172418 -1.245445 -1.587248 0.578623 -0.837396 -0.246511 -0.600614 0.722961 1.597110 -0.438956 1.269487 -1.531312 -0.511221 1.100399 0.043150 0.259657 1.313671 -0.067871 -1.202253 -1.724503 0.853083 0.139925 2.061013
방문 0.494643 -1.132627 0.886581 -0.710358 -1.910653 1.034876 -1.146497 0.505801 1.456931 -1.951481 1.209032 0.219390 1.191582 0.717390 0.247936 0.425078 1.122873 -1.090639 0.665878 -0.872035 -0.212654 1.107352 0.904895 1.040528 -1.597367 -0.052812 0.064821 0.671186 1.071097 0.447516 1.181022 -0.928154 0.619081 0.039135 -0.074799 -0.748988 -0.254215 -0.095532 1.845416 -0.162657 1.550725 1.142021 -1.033318 -2.802194 -0.535882 -0.753290 0.698469 0.021413 0.509204 0.484626 0.220096 -1.598190 -0.138251 -1.638100 0.266697 1.604393 -0.126992 -0.033913 0.608159 0.412868 -0.205381 -0.488285 0.589972 1.298934 -0.175111 -1.355470 -0.771759 -0.449584 -2.063606 0.010258 -0.295656 -0.974049 1.105911 0.070266 -0.080414 -1.051234 0.275546 0.426800 0.400577 0.139090 0.287473 -1.305254 -0.174402 -0.796962 0.666274 0.950230 -0.556487 -0.444130 -0.562983 -1.236714 1.270556 0.239490 0.126664 -0.513024 -0.978989 1.327571 0.403685 -0.408746 0.804943 0.643889
수칙 -1.513021 0.047783 -0.576800 -1.105762 -3.408438 0.044745 1.957904 0.739963 0.968783 0.096928 0.143161 -0.621828 1.140578 0.124088 -1.329900 1.135612 -0.826506 -1.858242 1.659319 -0.520271 -1.131161 -1.438938 0.221511 -0.047203 1.647915 -1.616350 -1.870489 -2.469604 1.582581 1.804768 -0.348113 -0.631053 -1.148346 1.022269 -2.399372 -1.128987 -0.670276 -0.617213 -0.390324 -0.586149 1.001013 0.544771 1.020235 -2.192268 0.620094 0.326645 -0.553818 0.442876 2.633178 0.935717 -0.411581 -2.846331 -2.235153 1.858028 -0.028015 -0.044633 0.031669 -1.886464 -0.611765 0.349052 0.682587 -0.245202 0.906667 1.495339 0.268707 -1.171906 0.135543 -0.311539 0.188565 0.037245 2.273128 3.610519 0.016977 0.564904 1.251635 -1.823469 1.821776 -0.069212 -0.980691 -0.172389 -1.595906 -0.074881 1.978980 -2.733546 1.181292 -0.462693 -0.614523 -1.280926 0.336052 -0.976776 -1.841571 -1.437215 1.410949 -1.855657 -0.300354 0.049807 1.576506 -0.110924 0.246635 0.230828
자제 -0.669773 -0.820543 2.480593 0.250327 -1.716843 2.244539 0.712621 -0.757008 1.273761 -0.163918 -1.548810 -1.562750 0.473102 1.817667 0.454716 1.306127 -1.488188 -0.616034 1.737496 0.086263 -0.610036 -0.194945 2.645244 -0.297004 1.482130 0.125195 1.119535 -1.628054 3.009824 0.155306 0.575018 -1.960961 0.121679 1.358764 -0.821700 0.097415 2.958946 0.070656 -0.975921 -0.501654 2.639453 1.926414 0.474625 -0.570358 0.894369 0.027193 1.122468 0.813963 0.990222 0.104317 0.393624 -0.875752 0.541082 0.856542 -1.963481 2.682092 1.403481 -1.560007 1.008297 -0.676558 2.738344 1.621500 0.056826 -0.756789 -1.348870 -0.029240 1.247208 -1.814797 -1.045672 1.987242 1.303896 1.607335 -1.097536 1.577876 -0.625115 -1.337428 2.242936 1.020025 0.762571 0.822968 0.034865 -1.544410 1.322302 -0.272527 0.525388 0.721851 -2.466611 -0.109117 0.191359 1.167656 -1.546239 -1.653029 -0.008732 -0.373156 -0.048347 0.293841 0.067979 0.020672 2.119303 0.728673
동선 3.463633 -1.270157 -0.531929 -1.000801 -0.100564 0.425309 -0.326636 -0.433117 0.338441 -1.163483 1.026183 0.885513 -1.316512 -0.724862 -1.102258 -0.284090 -0.236822 -0.027397 1.124806 -0.640508 0.956950 0.923147 -3.101732 0.047946 -1.207334 -0.244097 0.114110 -1.944603 -1.288584 1.287728 0.416274 0.409777 -2.675955 0.035174 0.151559 0.059675 1.268248 -1.066732 -0.280758 0.081900 -0.351838 0.727248 -1.374484 0.280612 -0.456608 -0.865671 -0.135360 1.138297 -2.439844 -2.564299 -0.606803 -1.867186 1.157228 -0.462684 0.842120 -1.538202 1.159730 1.002866 -1.347561 -0.230046 -0.891891 0.412442 -1.058222 -0.129707 -1.047729 -0.830073 0.417119 -0.860679 -1.351398 -0.582285 1.053675 0.205931 -0.648259 0.360639 -0.063988 -0.912940 -1.129558 -1.510772 -0.015838 1.972902 -0.196408 2.062689 1.616941 -1.325316 -1.035858 0.221846 -0.249800 0.185557 0.114676 0.137746 -0.661089 0.940335 -0.008891 -2.019871 0.027614 -0.351395 -1.264270 -1.256863 -0.671764 2.321364
마스크 0.149993 -1.380125 0.206691 -0.185755 -1.342639 1.349333 0.008992 -1.521696 2.259756 0.610554 -1.174687 -0.682091 -0.974852 1.267496 1.026450 1.294085 -0.238611 0.644966 0.589799 0.061760 -1.306299 -0.503813 0.512842 -0.946901 0.644839 -0.727016 -1.140932 -1.023690 0.978844 -0.014671 -0.246756 0.103902 0.077932 1.003750 -2.888234 -0.426792 1.324285 0.701999 1.272348 1.603223 -0.055440 -0.605609 0.609712 -1.419316 0.125391 -1.387411 -1.124367 -1.250358 1.272998 0.432095 0.436351 -1.552600 -0.375252 -0.127781 0.186738 1.638782 -0.572875 -2.656693 0.389571 -1.131155 -0.200672 -1.388658 0.891905 0.795040 -0.591733 -0.032087 0.097186 -2.276472 1.319110 1.287666 -0.056920 -0.229016 -1.193517 1.530778 0.588647 -0.909823 2.569682 -1.406482 -1.156376 0.051508 0.167654 -1.453262 1.064369 -2.158942 0.154584 -0.831219 -1.416298 -2.451823 0.143724 0.928769 -1.066222 -1.274080 -0.147339 -2.485031 -1.338520 0.500329 -1.163859 -0.129880 2.251718 -0.350199
지역 -0.554916 -0.211678 -1.623510 -0.567135 -1.071917 0.140194 2.053373 -0.674439 1.873190 -0.162502 -0.027126 -2.023730 -0.554720 0.022714 -0.729339 0.517668 -0.636909 -0.318414 0.285486 0.636128 0.067653 1.301687 0.654757 -0.111355 1.843716 1.205801 -1.018050 -2.541204 2.318548 1.356922 -0.808387 -1.473408 -0.104921 0.496817 0.185305 0.069589 2.075690 -0.699560 -0.161451 -0.393677 2.004298 2.403234 -0.150378 1.151986 1.503359 1.403408 -0.032469 -0.128533 -0.601645 0.409331 -1.841758 -0.679931 -0.441148 0.259679 -0.217511 0.784266 -1.282583 -0.394218 -1.179058 0.153777 -0.490241 -0.889250 1.018892 -0.651334 -0.782651 0.946600 -0.306731 -0.959217 1.059352 1.308034 -1.090788 -0.535063 -0.077514 -0.050195 1.398098 -1.950738 1.884195 -0.838654 2.515615 0.752768 -0.031942 0.015426 0.379806 -0.449122 -0.186186 0.612154 -1.527212 -0.008801 0.138333 -0.432964 -0.707676 -1.181779 -1.517880 -1.261215 -0.793277 0.087679 0.993057 0.619804 1.249218 1.636244
방문자 -0.293203 -0.377541 -0.464818 1.610457 0.948432 0.533705 -0.421575 0.666481 1.194687 -1.875002 0.583701 0.540970 0.170084 -0.351061 -0.326455 -1.254059 0.868837 -0.583032 0.382450 -1.356307 -0.145372 -0.586676 0.745625 0.462886 -2.054097 -1.620027 1.095523 3.140565 0.359880 -1.210503 0.812705 1.264092 2.230353 -1.936121 0.956675 -0.809073 0.352216 1.455278 0.585281 -1.796582 1.664667 -0.223575 -1.930311 -1.995602 -0.632443 0.055361 -0.774085 -0.158321 -1.077749 0.451007 -0.683614 0.106542 -0.512615 -0.152857 0.083376 0.462666 1.164395 0.598842 1.087451 -0.973953 0.092918 1.171950 -0.199465 0.783572 -1.625751 -0.196854 -0.232226 1.588177 -0.219723 -1.021004 0.004456 -1.651887 1.654425 0.281856 -0.414121 0.375823 -1.665762 1.983484 -0.470089 0.305740 -0.226927 -0.425477 -0.413274 0.209712 -0.221838 1.136376 1.607458 1.172042 1.089745 -1.009197 -0.617677 0.683303 0.572708 0.974812 -1.252980 -0.654941 -0.161808 -0.545318 1.831762 -0.114099
조사 -0.464365 0.394348 -3.260155 0.272408 0.180388 -0.556078 3.874592 0.256009 1.511478 1.527742 1.884613 0.061827 -2.933436 -2.375592 -0.817958 -0.034155 -0.339467 -1.098691 0.364329 -0.081071 -3.609246 0.703948 -1.749745 1.848815 0.304725 -1.196269 -1.878792 -1.091166 -0.317419 -0.873264 -0.306625 0.107643 -2.191421 -1.034485 0.832525 -0.035741 0.622816 -2.487411 0.926218 0.590417 -0.728857 -0.436485 0.355850 2.601117 1.498441 -1.463498 -0.874940 1.282514 -0.510042 -2.412102 -0.576440 -0.711708 0.183067 -0.995757 -1.315765 0.121197 0.499395 0.113493 -0.247251 0.669533 -0.444899 -2.307517 -1.255049 0.733228 0.431575 0.890109 0.656486 -1.515444 -3.550535 -1.574763 0.877555 0.547176 -1.332866 -0.707430 1.136746 -0.430050 -1.256783 -0.227519 1.483740 1.958566 -1.229154 2.059075 -0.711234 -2.017936 1.604693 -1.364561 -0.909592 0.616237 -0.728622 0.836858 0.058135 1.180615 -0.132451 0.405016 0.902341 -0.833180 2.758787 0.686827 -1.476462 -0.607037
선별 -2.091697 -2.188475 1.333103 0.861957 1.516935 1.153383 0.303801 0.454111 -0.682504 -1.986342 -2.290534 1.045007 1.272335 0.147010 2.978234 1.101407 -1.626295 0.676578 -1.631484 0.710698 -0.643924 -0.634977 -1.113003 1.072912 -0.542442 -0.919325 1.950213 1.041935 -0.748222 0.247757 -1.196767 -0.407740 -0.516537 0.540890 2.368917 1.170268 0.402251 0.488763 0.345105 0.134537 -0.889910 2.114837 -0.187859 2.815068 -0.781489 1.579417 0.418068 -0.763590 1.175291 0.627641 -1.183582 -0.445526 -0.506845 -0.244346 2.244241 -1.177439 0.969143 0.806784 0.621007 -0.082893 -1.030748 1.451106 1.170521 2.044037 0.001752 1.921257 -0.761667 -0.428291 0.570820 -3.164814 -2.047679 0.159322 0.184204 1.922313 -1.389173 -1.002524 0.478559 -0.101846 -1.112558 0.192994 -0.516854 -0.421222 0.783172 -0.191110 0.318016 2.455160 0.410071 -0.164142 0.320616 -0.356924 0.952276 -0.643170 1.383593 1.136394 -0.844720 -0.059341 -0.771714 2.278134 0.646760 1.062789
진료소 -1.325837 -0.999140 1.290075 -1.086553 -1.811100 2.897777 -3.031123 1.413890 -0.639828 -0.315459 1.207379 -0.899971 0.051171 -1.291448 0.815085 0.265296 -0.457641 -1.381017 -0.642148 -2.432708 -0.836622 0.916031 1.238578 -0.351210 -1.320642 -0.897492 -0.370398 2.911254 -2.851510 0.852147 -1.161855 0.350103 -0.256097 1.996858 -0.586999 -0.651800 1.166962 -0.486186 -0.610458 1.142909 -0.647045 -3.191474 1.683559 1.923513 0.798076 -0.125827 1.481148 -1.372725 -0.825772 1.389085 -3.193614 -0.502915 -0.499535 0.279501 0.905345 -0.724812 1.056065 0.753383 0.437661 -0.941665 0.732941 0.611351 -0.043218 -1.831838 -0.331600 -0.548110 0.389164 0.102337 0.299439 -0.502158 -1.467994 -0.023946 -0.431613 1.513288 -2.046499 -0.313214 0.824579 -0.451479 0.414537 -0.969802 0.796649 0.105225 -1.981166 0.201464 -0.322026 0.916049 3.740967 0.736301 0.252652 -0.015171 0.662573 1.862222 -0.788943 -0.175142 1.115529 -0.416669 -1.620417 1.806168 -1.486059 1.075816
모임 -0.246308 -0.774091 -0.763367 -1.237439 0.992560 -0.990653 -1.416472 0.248633 1.358933 0.133581 0.257442 -2.675349 1.208272 1.252514 -1.204302 2.007193 -1.031810 -0.813218 -0.504440 2.286267 -0.502698 -0.926819 2.247552 -1.516304 0.336332 -0.757835 -0.969411 -2.956891 -0.727067 1.427801 -0.566229 0.343988 1.579751 2.854735 -0.968107 -2.162658 -0.299374 -1.456007 -0.655040 0.223992 2.995026 0.476407 -0.018663 -1.139153 -0.130205 1.021178 0.873931 -1.367947 1.558945 0.633883 -0.181241 0.390413 1.255275 0.882890 1.505293 2.016743 -0.108200 -2.179070 -0.332478 -0.386474 -1.469658 -0.284098 3.116059 0.291428 2.290108 0.911246 -0.828228 -0.272771 -1.335175 1.002886 2.594815 2.845168 1.117286 -0.183760 1.472870 -0.094760 0.934730 1.514177 0.475572 2.090560 -0.294849 -0.138082 -0.337335 -0.612114 1.738236 -0.032475 -2.226783 -0.380332 -1.496434 0.738130 -0.770440 -0.865267 -1.752253 -2.336303 -1.826507 0.532574 0.260282 -0.885629 2.331737 0.518315
역학 -0.054111 2.887777 -0.788690 -0.157272 -0.232489 -1.101223 2.204746 0.408051 -0.809923 0.352042 1.836012 -0.072708 0.399922 -1.418863 -4.197052 -0.997429 0.149434 -0.290472 1.025843 -0.081235 2.736160 -0.248317 -2.637181 0.612261 -0.177863 -0.764263 -1.574416 0.157804 -0.529956 1.558977 -1.484696 -1.340984 -1.371729 -0.487886 -1.118701 -1.434100 2.794910 -2.209756 0.204781 1.029160 1.018241 -0.683475 0.981073 1.703381 0.295491 -1.893428 -0.213681 0.913630 -1.269503 -2.652057 3.816000 1.549810 0.017513 2.383170 -1.054177 -1.045621 -0.498829 0.360634 -2.740220 0.495193 -2.109136 0.739461 -0.110870 0.309050 -1.637228 -0.776146 -0.064550 -0.473961 -0.683200 -1.387170 -1.312556 -1.321294 -0.377914 1.452451 2.143564 1.245211 0.965808 -0.629812 -2.187419 1.318557 -1.563197 2.976065 1.878388 -0.646022 1.450273 0.314066 1.835902 0.790090 1.054253 1.611851 -0.174425 -1.204969 0.532302 -1.135376 0.187562 -0.291230 -0.792417 -0.687335 1.110408 0.619916
홈페이지 0.793360 1.377138 -1.774704 1.466182 -0.527994 1.088905 2.502030 -0.689053 -0.415555 2.599712 0.538953 -1.757148 -1.315552 -2.536803 1.222178 0.052716 0.263014 -0.927361 0.857970 1.187131 0.484475 0.178517 -2.498106 0.930164 -0.385778 -1.578870 -1.539046 -0.469249 2.025043 -1.523265 -2.813652 0.500803 -0.965808 -0.645783 1.210717 -0.937259 1.104851 -1.782287 -1.257038 2.723091 -0.591384 -1.675884 1.599142 0.620163 -0.184455 -1.773390 -0.522848 1.726845 0.036301 -2.380626 1.503559 -0.332170 1.469636 -0.847240 1.187851 -0.254856 0.339395 0.563322 -2.363147 0.030644 -1.091128 -0.334179 0.804673 -0.634749 1.442389 1.530730 0.152089 -1.298974 -2.453413 0.216874 0.449525 -0.282174 -0.075960 1.656452 1.212555 -0.847663 -1.202696 -0.024753 1.226569 0.342818 -1.945210 4.029826 1.551478 -0.692338 -0.722833 -0.278603 0.079582 -1.992553 2.775879 0.489686 -0.367451 -0.511360 -0.736307 0.910368 -0.573296 -1.045757 -0.277605 -0.274368 -0.025329 -1.931203
거리 -0.722411 -0.132835 -0.894854 -0.893570 -0.383249 -0.751338 -1.273301 0.725551 1.673737 -1.226530 -0.841614 -1.401202 -0.623598 -0.126429 -0.104762 -2.010724 0.602997 -1.864144 -0.264156 -0.153643 -0.097446 -3.422852 -0.233276 -1.253085 -0.838533 2.359132 0.887796 -2.182782 2.503438 0.553884 -0.744595 0.083639 -1.151941 2.211435 -2.665664 -1.175240 -0.694544 -1.207223 -0.636664 1.369248 0.032985 0.439368 3.075044 -0.250877 0.457624 1.997447 -0.156436 1.633272 0.123465 0.345312 0.256654 -0.848017 2.577343 -1.397287 -3.295886 2.805207 -0.119249 -1.189215 -1.073367 -0.050233 -1.806565 0.020402 0.013283 0.318149 2.197233 -0.658984 0.172409 -0.625625 1.819677 1.772735 1.266881 2.452587 0.712491 0.979371 -0.970094 -4.080519 2.496616 1.322632 0.532286 -0.994680 -0.104736 -2.039988 0.743322 1.793624 0.106553 -1.162205 0.350029 -2.921607 -1.937437 1.426841 -1.038822 -3.557758 0.715303 -1.109776 -0.298229 1.859387 1.171390 0.252448 0.687411 -1.348489
두기 -0.376573 -0.123595 -1.041527 -1.949078 1.312448 -2.835385 1.757251 -0.405842 -1.586813 1.694914 -0.349766 -1.666431 -0.219578 3.444661 0.649178 0.278264 -2.067270 0.532765 0.509640 -1.188422 -0.158238 1.151983 2.462191 -0.253335 1.359601 -0.847755 -0.698240 -1.942520 1.649589 2.174277 0.204601 -1.473157 2.203813 0.750187 -1.925893 -0.120865 -2.809728 1.580254 -2.687529 2.369186 0.917550 1.485418 1.866489 -2.696360 1.110882 -0.076558 -2.208934 2.342366 0.850499 -0.295283 -2.187423 -0.470752 -0.710444 -0.611290 1.420702 0.000381 2.830163 -0.374179 -1.100036 -2.013533 1.578522 1.099068 -0.554367 1.085127 -0.957900 0.074517 -1.574082 -0.275684 1.000290 3.602533 0.682080 -0.503893 -2.312785 -0.459811 -1.727041 -1.091624 0.680029 1.187379 -0.799151 -0.216386 -0.065817 0.942393 1.103584 -1.839252 2.675705 -0.826523 -2.029173 -0.558623 0.194020 -0.831213 -0.117548 -1.717185 -2.081658 -1.645603 -1.649269 -0.965452 1.852254 -1.171582 0.170541 1.452229
시설 -0.489798 -1.362086 -1.945563 -1.689617 -2.034200 1.507860 0.421104 -1.419766 0.388716 0.918978 -0.096783 -1.556061 -1.129337 2.406260 -0.461769 -0.229705 -0.140932 0.872136 -0.434943 0.065425 0.015896 -2.972858 0.878163 0.257080 2.036930 -3.290477 -0.050479 -2.084773 -1.702662 2.731284 0.418279 2.296585 0.503233 0.455732 -1.530388 -0.310680 0.850589 1.079479 3.962915 -0.324919 0.352440 2.609692 3.165526 -0.831347 -1.835426 0.831034 2.696292 0.568822 2.501031 0.962446 0.301018 -0.924260 -0.106661 -1.302118 -0.405783 1.055199 -1.090454 -1.291268 1.083570 -0.295434 0.505848 -0.938634 0.584409 -0.424289 -0.879956 0.476145 -0.597785 -0.914443 1.704464 1.953480 1.170300 2.635559 -0.144108 -1.081922 -1.870801 -1.671433 0.638807 -0.943959 -0.440555 -0.561449 0.093177 1.656866 0.353194 0.531771 0.380223 -0.460647 -1.086490 0.544806 -0.533908 -0.582538 0.645187 -3.203248 -0.961462 0.754070 -0.323167 0.206811 2.386247 0.049324 0.960973 3.418994
공개 -1.070082 -0.066972 -1.354780 -1.302100 0.950831 -0.397982 3.195132 0.716887 0.907331 0.578749 3.080346 1.422455 -1.396491 -0.181909 -2.400687 0.059208 -1.079092 -0.933720 0.207282 0.093244 0.850018 2.185466 -2.818088 -0.191372 1.826595 -0.807992 -0.405686 0.988177 0.084131 0.425038 -0.798925 1.037094 -1.345139 1.912389 0.454381 -0.552891 1.434391 -1.446126 0.577789 0.983205 -1.208351 -1.461137 -0.288832 1.412854 0.410087 -3.056246 -0.235427 2.675598 1.297804 -0.380379 2.838555 -1.579083 0.570096 -1.655174 -0.547214 -1.352675 1.439538 -0.712782 -0.130335 -0.741848 -2.066302 -1.835641 -1.136762 -1.300915 1.140879 -0.150423 -1.629269 -1.569539 -0.782373 -1.580099 2.713000 -0.147749 -0.542061 -0.985201 1.157588 1.085933 0.851813 -0.258822 -0.222027 1.554141 -0.167246 2.855679 -0.093170 0.094404 1.312002 -1.177772 -1.110196 1.141969 1.916236 2.197473 1.567424 -2.977086 0.239745 -0.430190 0.192155 -0.531610 1.390219 -0.916528 -1.281543 -2.396443
완료 1.746929 1.176824 -0.464245 -1.436676 1.454755 0.301145 -0.672448 -1.640262 -0.132624 -0.643458 1.551126 -0.195489 0.684555 -1.448655 -2.520598 0.367337 0.088821 1.278717 0.562846 -3.646193 -0.414803 -0.274886 -2.594676 0.633649 -0.380441 -0.031508 -2.385361 0.671820 -0.627830 -0.296158 -0.525270 -0.534417 -2.142378 -0.199289 -1.474442 2.104112 -0.301141 -2.108036 0.398838 0.318833 0.355105 -0.755237 -0.176252 2.417894 -0.754898 -4.148217 -2.043422 3.139601 2.921110 -2.101689 -0.154807 -1.813947 -1.010295 -1.082114 -0.252315 -1.524248 1.036611 0.803452 -2.811469 0.304437 1.005884 1.370809 -0.713304 2.781729 -2.130821 0.995691 -0.575272 0.231652 -2.655848 -3.337252 -0.425551 2.505033 -0.042626 -0.464789 1.442312 -0.831577 0.666767 -4.065863 -0.423076 0.006746 -1.604760 0.325130 -0.396763 -1.471590 -0.884410 -0.583949 0.595524 -0.150027 1.217851 -0.355940 -0.797137 1.054995 -0.028625 -0.120457 -0.723817 -1.079982 -0.003454 1.848184 2.306565 2.479292
소독 1.273786 1.784343 -0.428208 -1.323682 -1.635457 1.427539 1.773825 -0.372239 0.556307 -0.146623 -0.398870 -0.706620 -0.624767 -1.262066 1.500552 0.361918 -0.310485 -1.876469 3.969504 1.119155 0.033234 1.223147 -1.285750 0.696077 0.148631 -0.546618 -4.838012 1.228126 -0.524360 0.869014 -1.324296 0.105756 -2.691858 0.240891 -2.173989 2.016943 1.032023 -2.514667 2.684463 -0.055905 -0.304951 -0.111231 -0.743749 2.772709 1.358155 -2.520114 0.341332 -0.208979 2.725086 -1.643532 0.643809 0.396497 -0.771455 -2.425823 1.802192 -1.404913 0.829544 -0.122651 1.378401 1.841072 -0.097289 1.130597 0.015039 0.581666 0.952254 -1.119839 -1.386938 0.882561 1.137618 -1.804521 1.730957 1.068761 -1.293310 -0.337693 0.888935 -1.824656 2.398185 1.428114 -0.753340 -1.733975 -0.929009 1.326004 1.784257 0.569423 0.260946 2.245356 -0.670703 -0.241863 0.589521 0.598964 -0.696922 1.960214 0.802125 -0.095199 -0.153775 -0.726405 0.490095 -1.459013 1.628269 -0.221729
예정 0.950672 0.949000 -1.514626 -0.940169 0.869506 -1.532312 1.999995 0.775982 1.440285 -0.091330 -0.753681 -2.240111 -0.203441 0.325953 -3.487995 0.927886 -0.885207 -0.277269 1.821059 -1.719416 -0.349167 0.400358 -2.065529 2.901621 0.206513 -1.327349 -3.156710 0.945266 2.477206 0.558184 -0.693998 1.228052 -0.988506 0.910354 1.380029 1.234120 0.015800 -2.719335 0.027990 -0.545993 -1.245053 -1.489281 0.367482 1.810578 -1.121713 -4.835890 -0.909751 2.291138 -0.044240 -2.369062 2.535400 -0.770227 1.490722 -0.581137 -0.730727 0.099051 0.532950 0.496090 -0.672141 -2.089002 -2.167129 -1.198959 1.100078 1.242524 0.448946 -1.244545 1.483803 0.352414 -2.365034 -0.120760 -0.174743 0.317604 -0.993125 1.643274 0.189083 0.789020 0.318199 -1.202956 1.733589 0.821699 -2.734927 0.827486 0.287262 -2.223289 0.855919 -1.024357 0.372922 1.043598 2.178380 0.042024 -1.738910 -0.818072 0.726651 -0.461152 1.412694 -2.498395 1.690111 -0.437028 0.496128 1.552558
준수 -0.377223 -1.077532 -0.839753 -0.647841 0.742559 -0.765160 -0.623818 0.474653 1.869742 0.144234 0.475403 -1.701009 0.681210 0.784258 0.277669 0.452539 -0.964927 0.269015 1.040400 0.878560 -1.032161 -1.063562 0.311920 2.390907 1.445228 0.422608 -1.904365 -0.422747 -0.373694 0.657941 -0.544698 -0.158945 -0.335064 4.261431 -1.784938 0.709739 0.516982 -0.448593 0.076838 0.118306 1.712710 -1.193707 1.654125 -1.091071 1.022448 -2.419253 -0.224150 1.804693 1.354242 -0.121266 -0.796519 -2.277284 0.161215 -0.528209 -0.565642 1.287204 -0.933902 0.437823 0.142876 1.198488 0.448269 0.159373 0.826397 1.876901 -1.019230 -0.448588 -0.169063 -1.385275 0.050582 1.914625 0.123406 2.938024 -1.279992 0.289929 1.196446 -1.805016 2.622618 0.069715 0.467112 0.612860 -0.817917 0.443866 1.965769 -2.145017 1.063437 0.295803 0.670813 -0.623153 0.334398 0.989569 -2.848192 -2.183103 -1.293652 0.728998 -1.467904 0.863262 0.346419 1.055871 -0.017208 1.467578
접촉자 0.772114 1.431174 -2.495633 -1.659977 -1.407307 -0.060006 0.423243 -0.761349 -0.899666 -1.064954 3.429631 -1.046493 -2.292014 -1.933638 -0.501292 -0.843096 -1.734305 -0.354256 1.330169 -0.984632 0.247874 1.320772 -3.483878 0.268857 -0.213998 -2.563801 -1.828338 0.208448 1.334316 -0.190822 0.156301 -0.781717 -0.810724 0.697692 0.435156 0.952400 2.092858 -0.858180 0.109096 -1.064468 1.327839 1.072734 0.528682 0.351331 -0.169343 -2.151641 -0.935699 1.085225 -0.069477 -2.036712 -0.563854 0.604672 0.387816 0.674093 -0.726243 -1.707748 0.272886 0.630900 -1.163937 0.339179 0.032556 -0.129547 1.298800 -0.610672 0.269559 0.149321 0.975275 0.759193 -0.990860 -1.987094 -0.474526 1.597354 -1.121299 0.459555 1.586350 -1.358494 -1.468750 -0.577667 -0.334347 1.608580 0.571322 1.955275 0.052786 0.409037 0.328220 -0.490934 -1.361450 -0.135960 1.352755 0.133076 0.591059 0.292998 0.202251 0.558595 -0.398848 0.970721 0.124466 0.378119 2.291187 1.526572
금지 0.802176 1.594773 1.439151 0.145660 -0.882424 0.211355 -0.376512 1.382053 0.886083 0.270558 -2.046234 -0.031494 -1.423781 2.111701 -1.507549 -0.024282 -1.706123 -1.746912 0.964643 -0.308636 -0.521562 -1.436803 1.092747 1.026611 -0.742395 -1.207653 1.119223 -0.902460 2.325394 2.937646 -0.934229 -0.538363 1.359431 2.688198 -2.942057 -0.520311 1.857654 3.006078 -0.419787 1.910942 -0.324344 2.697927 2.091490 -0.953510 -3.190916 0.703894 0.469283 0.885636 2.805699 -0.386149 -0.138560 -0.037142 -1.302982 1.985082 -1.817639 2.678554 -0.155464 0.860080 1.684228 -1.197489 0.246378 0.018678 -0.260974 2.034260 1.195392 -0.811068 -0.550329 0.450037 -0.999662 1.434257 2.086650 1.512150 -1.896180 -0.808300 -1.292745 -1.741066 2.647396 -2.737314 0.138754 -0.298772 -1.312696 0.147000 0.251097 -0.547761 -0.293373 0.780727 -1.888493 -2.108470 -0.145100 -0.814521 -0.886866 0.098545 0.312404 2.771230 0.125522 -0.425392 -0.369898 0.002595 0.182478 0.455449
관련 0.013150 1.588900 0.637687 -1.382611 -0.662054 0.837423 0.065868 -1.049836 0.504526 0.823380 1.014323 1.150954 -0.168761 0.381978 -0.615808 -0.996692 0.344450 -0.175017 -0.389113 -1.227401 -0.518394 0.519771 -2.883188 0.422472 -0.851135 -0.563521 1.709249 0.397442 0.377748 -0.241264 0.845611 0.857104 0.362266 -0.357086 0.814363 0.605443 0.380739 -1.247577 0.485257 -0.043588 0.209981 -1.078076 -0.339154 -0.375408 -0.871858 0.029657 0.387251 -1.460037 0.582645 -1.584502 0.680256 1.951529 -0.099028 -0.017704 -1.089085 -0.114251 0.456209 0.937439 0.380136 0.392300 0.588962 -0.124639 -0.809313 -0.801602 -0.243445 0.384251 -1.729449 0.270595 -0.519922 -2.038406 -0.613141 -0.985244 0.954715 -1.332668 0.018733 -0.651592 -0.828171 -0.197610 0.326228 2.044886 0.780858 -0.702980 -1.867795 -0.087268 -0.580839 0.323507 -0.982150 0.700604 1.545319 1.641011 0.092513 2.030869 -0.175094 -0.634000 -0.478945 0.395629 -1.272660 0.693537 1.075397 2.286680
운영 0.996100 -3.501036 0.995475 0.038378 1.607604 -2.502195 -0.935449 1.650080 0.762566 0.245972 -0.265499 1.202199 -1.791255 -1.133005 1.261596 3.354672 2.417744 -1.924469 0.877267 -1.352705 1.585343 -1.675584 1.515059 0.704511 -3.575828 -1.710926 0.746040 1.588181 -1.080131 1.263600 1.384598 1.579592 -1.183588 3.324522 -1.740903 -0.596303 -1.106721 1.231083 0.676084 -0.182629 -0.662500 0.810378 2.004252 -0.778769 1.645371 3.525717 0.082034 2.127201 2.556838 1.047376 -0.871497 -2.364508 -1.668635 -0.330699 0.830644 2.054500 2.335701 -0.724530 2.307907 -0.200099 -0.391787 1.514573 0.616516 2.439490 2.490857 -0.552087 2.155230 -0.768664 0.154498 -1.606974 1.140296 -0.466051 0.944582 -1.948912 -2.697886 0.935644 -0.356556 0.873989 3.126384 2.169888 -1.161334 -0.605491 0.179703 -0.654963 -1.159784 -0.162138 0.648528 0.038099 2.564536 -3.298455 1.866161 -0.931451 -0.411351 0.820390 -0.204550 -1.991495 0.024146 1.576706 -1.147670 1.875740
이용 -0.207643 -2.320505 -0.396839 1.014861 -2.138464 -0.358236 -1.755399 -0.306960 1.418439 0.955466 -1.217115 1.226900 1.017215 0.594134 1.130518 -0.982778 1.683983 0.851845 1.426880 0.169887 -1.323704 -0.787022 1.873817 -0.562123 -2.095018 -2.264470 -0.951338 -0.091959 0.649337 -0.555959 2.496089 0.138181 2.858172 -1.016637 -2.452165 -0.229341 -0.792941 -0.403758 1.659266 -1.004072 -0.515985 1.257815 -0.192734 -3.188515 2.440632 0.092586 -0.248956 1.874305 0.624593 0.391137 0.621529 0.546512 -1.132801 -1.745962 -0.527411 0.026705 -0.376637 -1.207212 0.489904 -0.553334 0.323509 -0.688761 -0.220326 0.274823 -2.030718 -0.498239 1.297925 0.038050 1.504807 1.371053 1.366481 2.889824 0.363817 1.040346 -1.193654 -0.027038 1.131629 0.490995 1.865726 0.651894 -0.442723 -2.289526 1.163318 1.980923 2.067375 2.923985 0.631279 -1.001436 0.466397 -0.997292 1.673188 -0.555906 0.175417 -0.691683 -2.669472 -1.162298 -1.309299 0.403164 0.191717 2.270575
가족 0.628126 -1.305895 -0.118681 -1.174731 -2.098941 -1.325181 -0.435013 0.410944 1.302076 2.489126 0.557484 -0.328459 -2.517789 0.917639 -0.878608 1.262270 -0.802435 -0.560809 0.474435 0.545000 -0.410739 1.797857 -0.228627 0.526882 0.163278 0.756654 -1.937242 -1.434114 0.801182 2.680551 -1.008659 -3.092319 0.226824 0.722087 1.459641 1.069279 2.974066 1.294630 1.234026 -0.111893 1.944243 -0.260267 -0.312712 0.281919 0.208378 -1.028467 -0.450114 -0.944913 0.538828 0.676567 -0.960432 -1.054726 -0.619295 0.874579 -1.812421 1.993965 -0.486531 0.038650 -2.108469 0.207431 0.591280 -1.150600 0.832113 0.055122 -0.657131 -0.752468 -0.809322 0.565525 -2.402431 -0.964344 1.438826 -0.905140 0.531281 0.665739 -0.752858 -0.444023 1.919681 -0.519170 -0.488133 3.442505 -0.466356 0.421663 0.447572 1.245894 0.102768 -1.496520 -3.219805 -0.627002 -1.781403 0.228683 -0.264983 -2.237243 0.111266 -0.954763 0.806722 -0.794623 0.082496 0.956059 1.607947 0.488762
블로그 -0.587664 0.850875 -4.014880 -0.161116 0.531996 -0.680799 0.081256 1.094954 0.346273 2.416808 1.259886 -1.319175 -1.283341 -0.240704 -0.084991 -0.008462 0.694682 -1.685750 0.961997 -0.729628 0.481806 -0.324630 0.737147 0.900624 -0.098312 -0.288230 -4.158178 -0.098845 0.283784 1.224192 -1.461296 0.840455 -1.395387 1.005766 1.555739 0.569307 1.201530 -0.618883 -0.955268 1.784207 0.357121 1.687512 -0.511494 0.277469 -0.433710 -1.893103 -1.311781 2.314614 -0.472213 -5.835705 3.447295 0.525733 0.230067 -0.192675 -0.505681 1.179014 -0.528415 1.497448 -0.580747 -1.063956 -1.075767 -0.162507 -1.023103 -1.902269 -0.519186 -0.366139 -1.187223 -1.536348 -0.962501 -0.742335 0.602440 1.645456 0.210148 0.061024 1.063188 1.824463 -0.569343 0.259516 0.694993 -0.464691 -2.561814 1.950295 0.369829 1.159875 1.421535 -0.768033 0.845511 1.111925 0.313022 0.597312 -1.160592 1.005306 -0.748341 1.806211 1.387972 -1.768829 2.796767 -1.055466 -1.705101 -1.602221
상담 1.129600 -1.357897 0.380690 1.095676 1.816586 2.034647 -0.758829 0.240852 0.334996 -0.298702 -0.510658 -0.102744 1.131160 -0.575909 2.187045 -0.535365 -0.392658 -1.406366 -0.726685 -1.625434 -0.215396 -1.498001 1.208854 1.533712 0.124277 0.218419 -0.934655 4.260070 -0.307014 -1.300662 -0.298155 -1.763637 1.007125 0.760314 2.518282 -2.584551 0.986599 0.701676 2.013233 1.395774 -1.443012 1.112296 1.000358 1.765140 1.025695 1.805827 1.043071 -0.779925 -0.470012 1.668113 -2.644347 -1.625896 -0.187119 -1.749194 0.492893 0.880906 0.711682 -2.518267 -0.585661 -0.262844 -0.220151 0.237763 0.897201 0.168065 0.721232 -0.114919 -2.119167 0.893644 -0.481615 -2.304382 -0.783389 2.872552 -1.434022 3.384858 -1.595132 -1.903227 1.899822 0.530712 -0.307263 -2.036822 2.308898 -1.225613 -0.613591 -1.356681 0.102792 1.503283 2.509089 2.602094 -0.009627 -0.395438 2.301378 -0.522362 -1.384601 0.202346 0.621220 -0.766256 -3.483746 1.770169 0.628153 0.996380
사회 -3.025270 -1.482004 -1.003950 0.468235 -0.695317 -1.062601 1.118398 -0.123876 2.412730 0.797836 -1.682243 -1.050456 0.847553 1.966576 0.136903 1.721819 0.717925 2.229124 0.685763 1.770264 -0.654079 -0.220232 1.661765 -0.933774 -0.075782 -1.925059 0.755511 -2.230577 0.261164 2.413233 -1.308158 -0.849312 0.716468 1.207720 -2.761656 -1.688254 -2.643664 -0.583792 -0.382432 1.696716 0.388297 -2.578976 1.764937 -3.114661 1.295852 0.714591 -0.751871 1.642363 -1.457185 -1.196307 0.136701 -0.436636 0.472821 0.267338 -1.755823 0.649216 0.051936 -2.318595 1.401385 2.059030 -1.587402 0.187210 -0.826794 1.075153 0.628137 -1.611847 0.483149 -0.124978 1.273697 0.512291 0.255267 -0.541090 -1.710832 -1.863200 -2.483331 -1.706523 2.957875 2.058627 -1.278557 -0.902666 1.305222 2.015021 1.339401 0.387499 1.206832 -3.699970 -1.507417 0.274393 -2.863755 0.118455 -1.003203 1.721153 0.710409 0.378586 -0.465431 1.747172 2.360591 -1.210893 0.566625 -0.934283
확산 0.157722 -2.013930 2.653555 2.141197 -0.976772 -0.221858 -1.412893 0.400782 -0.515842 -0.175960 -3.190679 -3.353815 -2.360315 0.404934 -0.391293 2.295385 -2.127164 -0.046029 0.238374 -0.288924 -0.862548 0.950299 1.954441 0.908288 3.785022 -1.463475 0.789254 -0.086283 2.600805 2.964089 0.768507 -1.352206 -0.721278 -0.142943 -0.462865 0.630032 -1.366847 -0.509356 -0.065576 -1.646447 -0.148824 2.164921 -1.072229 -3.181348 0.294667 1.219138 0.709871 -0.688060 -1.841074 0.863166 0.290223 -1.213120 3.579535 -0.950747 -0.839174 2.260265 0.029815 -2.458455 -0.099963 -1.168632 -0.820605 -0.539902 1.256274 0.446736 0.387529 2.154150 0.046353 -2.773264 -2.101475 2.306522 -1.788346 1.220486 0.866269 -0.304498 0.279480 0.312919 3.115481 -0.199535 -0.169487 0.973967 -0.553480 -0.725594 0.140056 1.506527 1.505685 0.605944 0.252223 -1.263941 1.495886 0.604652 -0.320884 0.314837 -1.402722 -0.315230 0.554194 0.299847 2.372287 2.037634 1.162392 -0.339713
이동 -1.097180 -0.389325 -0.492509 -2.319720 -0.357628 -0.393536 2.758065 0.240577 2.200400 -0.412374 1.544508 0.311535 -0.976379 -0.740603 -2.700422 -0.668614 -0.445047 -0.640817 -0.184960 0.361133 1.812772 1.011551 -0.900436 1.867492 -1.955917 -0.989238 -1.993119 -1.113284 0.106873 0.903535 -1.354343 0.752156 0.808565 0.142056 0.473308 0.925631 0.729046 -1.277073 1.057885 -1.396672 0.459982 -0.447445 2.362409 -1.197333 -0.033557 -2.469778 1.636692 0.551213 1.792634 -0.970652 0.845632 -0.831784 -0.978035 -0.575794 -1.493335 -0.982706 -0.830580 2.621242 -1.461255 -0.599605 -0.435464 -3.675066 1.480698 0.793368 -0.755310 0.711798 -0.432798 -1.249578 -1.077107 -0.670063 -0.414815 0.705190 -1.663160 1.727386 -0.283892 0.263121 1.234008 0.784670 0.049335 0.226476 -0.432826 0.477875 -0.083592 -0.152547 -1.121105 -1.160648 -3.075192 -2.310100 -0.404695 -0.087470 0.949269 -0.076790 -0.388993 -1.728950 0.084737 1.547893 0.303535 -1.279533 -1.348086 -0.754731
접촉 0.885963 -1.527425 -1.829399 -1.646627 -1.290228 -0.354388 -0.382917 -1.303520 1.995835 -2.115542 1.601926 -2.379313 -1.795801 -0.587683 1.310274 -0.230586 -0.478284 -1.531276 -0.474608 1.663428 1.233377 0.607523 0.649614 0.429142 -0.126395 0.071313 -1.071524 -0.729703 3.846483 2.385464 -0.089292 -0.558413 -1.727927 0.269341 0.723622 -0.075197 2.053436 -0.118826 0.633235 -0.376625 2.813858 0.060703 0.717950 -0.671950 -0.777860 -1.560153 0.642883 -1.880023 -0.896841 -1.444059 -0.371713 0.091553 -0.983057 -0.471737 -1.271922 -0.926753 0.249029 -1.867519 -0.542859 0.587658 0.466332 -1.636393 3.253331 -1.245598 1.238776 -0.231596 -0.975399 0.102669 -1.718637 1.239419 -0.643594 0.918337 -0.147231 1.181570 0.377695 -0.272979 0.711986 -1.294272 0.807753 0.868980 -0.446186 0.704190 1.668642 0.065670 2.541389 0.969107 -2.593958 -2.145062 0.716353 0.834179 2.795343 -1.431839 0.236823 -2.151275 -2.063519 -0.800735 1.691102 -0.942660 -0.343991 0.908643
증상 -1.715015 -0.429361 1.771993 -0.061811 1.529886 0.046516 -0.223239 2.421573 -0.127071 -0.833782 2.674908 0.199769 -0.350684 0.030433 1.501063 0.113891 -1.252967 -2.489147 -1.385880 -0.609939 0.134515 -1.719780 0.641921 1.225264 0.763413 0.446047 -1.167992 -0.536942 2.451988 1.154861 1.883007 0.203672 1.914404 1.028455 -0.085911 2.325851 0.175611 0.530084 1.288074 -0.207323 3.164095 -0.379284 -1.807536 0.876067 1.692741 1.285323 -1.229551 -3.118663 2.097965 1.613948 -1.132162 2.279109 0.396949 -0.508401 -0.816014 0.944975 -0.033810 -0.135782 -0.137710 -0.370778 0.659911 0.713117 2.896886 -0.694502 -2.661948 -1.307577 -0.255541 -1.977389 -3.054171 -2.121582 0.311378 2.689165 -0.637194 2.716788 -1.770426 -3.624816 2.552949 -0.662009 -2.366409 -1.337694 -0.451758 0.575005 0.173938 -0.402664 -0.958586 -1.341879 0.476708 2.133157 -0.419652 -2.852332 0.579121 2.148003 0.526736 -1.552687 -0.946031 1.306983 -0.005238 0.663680 -0.581960 -1.247116
감염 0.207497 1.459959 -1.204518 -0.871087 -2.615442 1.718196 0.209039 -0.923449 0.824556 -1.020707 -0.911488 -0.981201 -0.515981 2.237633 0.431185 -1.114621 -0.542177 -2.095752 0.782291 0.877357 1.293911 0.997519 1.103401 1.832468 -0.702991 1.847896 -1.142946 -0.027063 2.340463 2.646362 0.472256 -0.263691 0.005759 2.086188 -0.836244 0.864334 0.430529 1.367752 1.172054 -0.487642 2.657295 0.135319 2.211917 -1.037298 -0.708632 1.407975 -0.877047 -0.367787 3.282037 2.228571 2.292663 1.081311 1.633165 2.285179 -1.581350 1.621710 -1.327916 1.780560 0.313860 -2.620933 0.473526 -0.842682 -0.452308 -1.090802 0.716774 2.552093 -1.776109 -1.801829 -1.880967 0.272303 -1.306966 -0.259501 -0.593911 0.020673 1.177994 -0.949722 -0.284414 1.665542 2.910819 0.522065 -0.154240 0.981723 0.430324 -0.858650 2.037161 -1.598271 -1.310969 1.345058 -0.287478 1.612148 1.077187 -0.853234 -1.717555 -2.362359 -2.206007 0.781119 -1.136015 -1.296875 1.800877 0.346576
내용 1.940960 -1.269496 -0.866357 -0.843627 0.541650 -1.528035 -0.967219 0.160321 -0.342804 0.167712 0.817266 -0.417515 -2.310348 0.772892 -2.221141 -1.711774 -0.512132 -0.270845 2.258245 -0.349418 -0.907256 -0.432425 -2.034096 -0.624389 0.488484 0.877242 -3.629119 -0.860099 0.718646 0.245818 -2.506584 -0.362749 -3.472378 0.927714 -0.607641 -2.884685 -0.927594 -0.655162 -2.261464 1.476057 2.123168 0.677077 -1.359677 2.202583 -2.841240 -2.075001 -0.264144 2.911318 -1.752558 -0.707117 3.327702 0.715087 -2.275874 0.482590 0.165947 0.106125 1.226850 1.384861 0.796274 1.081011 0.807972 0.704572 0.319104 1.167802 -1.538653 0.782965 2.434716 0.377208 -1.378198 -0.815705 1.747959 -1.167787 -0.499150 0.072008 0.935424 -0.572408 -0.618677 -0.275977 2.816855 -2.594010 -0.197868 3.075776 2.321036 0.294256 1.989619 -0.435408 -1.582096 -0.340082 -3.003075 -1.470760 0.148723 -1.046961 -2.193863 -1.913093 1.053258 1.584658 1.574894 0.095600 -1.304933 -0.279131
추가 -0.170897 0.589138 -1.417333 -1.828840 -0.924731 -0.431112 0.521996 1.338039 -0.258064 -0.541975 0.794794 -0.187611 -0.796019 -1.267264 -1.138548 -0.966870 -1.010818 0.966846 -0.511825 0.208720 0.829588 1.928310 -0.820541 0.008050 0.074015 -0.926154 0.699515 0.008691 -0.345525 0.507228 1.102473 1.525819 -1.300563 0.098639 2.432746 -0.319143 0.402404 -0.099653 0.727226 1.276850 0.597548 -0.175644 0.636332 1.018188 -0.750482 -1.330326 -1.193738 -0.305246 0.112489 -2.053155 -0.465212 0.680851 1.594050 -0.612150 -0.380106 -0.663669 -1.491098 0.336227 -0.350023 0.092593 -2.204064 0.804297 0.251028 -0.140670 1.892070 -0.131868 0.238234 -0.927842 -0.831657 -1.492021 -0.829580 -0.114301 -0.604010 -0.358092 2.108577 -0.452207 -0.470162 0.318838 0.342277 1.176529 0.555235 1.886878 -0.134918 0.713444 0.575697 0.690805 -0.927274 0.992788 1.265057 1.670804 -1.816324 -0.424844 0.489541 0.679833 -1.773346 -1.149513 0.479730 -0.337487 0.134833 -0.982991
단계 -0.395516 -0.940806 -0.627798 -1.688832 2.310869 -0.764903 -0.276778 2.118256 -0.766936 0.700711 -0.916373 -1.180505 0.595103 0.989779 -2.061538 -1.776889 3.708173 1.130992 2.754457 0.536068 -0.587748 0.162525 1.616704 -0.833739 -1.644949 -0.389600 -0.176341 -3.902135 1.650086 -0.099982 -0.799476 1.947528 2.016814 0.035087 -1.460702 -0.875829 -0.513692 0.081500 -1.221301 0.597542 1.974676 1.899758 3.643425 -3.709099 0.543711 1.417646 0.625313 1.804033 -0.491005 0.724547 -0.439992 -2.063919 1.680118 1.633761 0.357790 3.694706 0.378908 -1.826420 0.340412 1.321637 -1.134970 2.159626 -1.713656 -0.225082 1.710711 -0.670372 1.034106 -0.137735 0.689183 2.567394 -0.538405 1.469441 -4.400022 -2.348806 -2.489654 -1.438456 3.608361 0.792453 -2.100274 -0.223255 0.538226 -1.777452 -0.406661 1.178909 2.470929 -3.296706 0.378819 -0.569973 1.890174 0.677798 -1.294411 0.124342 -0.095584 1.490274 0.845034 0.586225 3.072880 -0.236242 -0.222075 0.290944
격리 0.241966 1.117187 -1.803372 -1.566265 -1.993003 -0.866999 2.546838 0.194335 1.362408 0.086070 3.609333 -1.338994 -2.216622 0.391118 -1.687710 0.965397 1.656859 -0.577343 -1.900717 0.082715 -0.207429 1.886642 -0.333140 0.893067 -2.463586 -1.838139 -1.490476 -0.692972 0.439492 0.463288 -0.111601 0.194687 -1.388613 1.449230 -1.650841 -0.156166 2.035588 -1.292158 1.068589 1.119635 0.891890 0.461585 0.449069 2.158738 -1.291687 -0.425058 0.420506 0.832367 -1.224572 -0.748675 1.563026 -0.264724 1.185007 1.811937 -1.334508 -3.142445 2.200310 0.979153 -0.618106 1.905591 1.039067 -0.527152 0.466170 0.262561 -0.460791 -1.074412 2.497559 -0.039862 -0.681225 -3.108804 -1.701693 1.136582 -0.080404 0.917868 2.465755 0.535396 -0.150336 -0.233687 0.650295 1.863983 0.277755 0.062053 0.006711 0.210061 0.992317 -0.053360 -1.747028 -0.226628 0.639901 -1.062613 0.516052 0.129896 1.066210 1.648286 -1.594243 0.747305 0.043292 0.488513 0.565694 0.432072
외출 -2.371989 -2.216969 0.649707 -0.594181 -0.800296 -0.459062 0.188469 0.847765 1.785818 -1.207832 0.714194 -0.591112 2.521613 1.418812 -0.395195 1.968379 -1.038349 -0.267262 1.875968 1.405385 -0.027434 -0.037953 2.210016 0.965697 1.681457 0.278323 -1.118419 -2.110985 1.043342 1.220853 0.176280 -1.075495 -0.107395 1.744892 0.740466 -2.019144 0.487933 -0.611730 0.895874 1.032260 0.665056 1.713850 0.712900 -2.400133 1.626593 -0.315714 1.073783 -0.303723 0.489839 1.807295 -0.848930 -1.431790 0.921346 -1.750781 -1.697134 0.634818 -0.096841 -1.136401 -1.358166 0.374006 1.520399 0.146688 0.792224 0.817074 -1.648365 0.451482 -0.979968 -2.037405 0.777242 0.031322 -0.280071 0.859850 -1.086862 0.733667 -0.943207 0.313421 1.663657 -0.010785 -0.316798 -1.059005 -1.116469 -2.008343 -0.578564 -0.548062 0.888855 0.091141 -0.862250 -0.865666 -1.096180 -1.438235 -0.412517 -1.421299 1.051836 -2.852994 -0.952533 1.395434 0.110802 1.355254 -0.449073 1.951475
실내 0.102644 0.308888 0.459406 0.220481 -0.479279 0.684902 -0.412760 1.719237 0.444652 0.353341 -1.318054 -1.429331 1.431399 1.143461 -1.222618 0.184477 -0.846713 -0.876263 -0.349496 0.770722 1.735162 -0.178132 2.369457 -0.215778 0.184809 -2.604905 -0.584097 -2.150369 1.179922 2.627957 -0.258274 -1.323475 -1.927303 1.262252 -2.741282 1.350735 -0.650658 2.223157 0.110453 0.251453 -1.631924 0.988378 -0.505414 -2.140982 0.750321 0.172574 0.850020 1.861676 3.114601 2.664424 -2.558165 -0.136172 1.761212 -0.729000 -1.681356 2.687461 1.512333 -0.154804 -0.354126 -0.886156 1.491843 0.672062 1.102182 -2.012377 1.853637 -1.372698 -1.257704 -2.513369 1.391626 0.819107 1.086962 1.235699 0.288088 0.060156 -0.142700 -1.167143 2.958023 2.426011 0.185768 0.910310 -1.553879 -1.385917 -2.242580 -1.804816 1.825077 1.910815 -0.389472 -0.906465 -0.751390 -0.584005 1.245927 -0.359552 0.241287 0.529873 -0.332945 1.977595 0.772441 -2.696078 -0.530424 0.518458
이상 0.484891 0.155860 -0.905991 -1.162336 -1.239009 2.196486 -0.680439 1.797899 1.515326 -0.011936 -0.474535 -2.128381 -1.445116 0.384288 0.390115 1.250919 1.108890 -0.359826 -0.752350 0.937988 1.543483 -0.653633 1.320625 1.643815 0.512572 -0.316024 0.034730 -0.029825 -0.450420 2.405415 1.136479 1.938282 -1.690890 0.501742 -0.950472 0.036420 0.271280 0.716308 -0.507704 0.226231 0.823258 1.021545 1.574743 -0.355081 0.182969 0.434455 -2.852483 1.704534 2.690929 1.300902 -1.004916 -2.362633 -0.231877 2.648933 -1.463336 0.839535 0.926002 1.235593 -0.559953 0.979774 1.362139 0.282769 1.030714 1.033415 -0.816258 -1.107048 -0.651232 -0.959168 0.796668 0.882506 3.322786 0.133058 -2.047204 -1.643438 -1.278100 1.174120 2.202230 0.089209 1.177967 -0.764289 1.318974 1.264096 0.687403 0.362151 3.928091 -0.145250 -1.953236 -2.992042 0.258893 -0.588869 -1.031525 -1.358255 1.085127 -2.416004 -0.805812 0.530060 0.538767 1.750343 1.801717 -0.868623
연락 0.665722 0.503778 -0.891685 2.785909 0.755941 1.282119 -0.123616 0.957006 -1.285684 1.029328 -1.038538 0.116879 3.079214 0.153046 1.137063 -2.426197 0.311503 -0.889789 -1.436938 -1.970938 -2.255647 -1.685851 0.347554 0.084767 -0.175769 0.217891 -1.818876 4.128609 -1.636364 -1.605616 -1.657893 -1.779570 -0.472676 2.190278 2.190342 -1.736684 2.579062 -0.047404 0.269512 2.200486 -1.341527 -0.205364 -2.104962 0.935968 -2.886834 0.555901 -1.584429 -0.226401 -1.044874 -0.579380 -1.643046 1.251953 -0.985591 -1.519920 1.988663 0.719028 0.219501 -1.443822 -0.277124 0.632130 0.595554 1.370429 1.901725 0.281325 -0.479764 -0.179397 -1.831216 -0.437260 0.641281 -3.514626 0.141700 2.116707 -0.125685 1.764731 0.412118 -1.877241 0.106973 1.904208 -1.946367 -0.929144 3.368250 -1.901510 0.862338 -1.227018 1.887386 -0.640220 0.880783 -0.579026 2.482250 1.850034 2.271764 -0.627218 -1.291644 1.207403 -0.049104 -1.099652 -4.973320 1.108369 -2.136741 0.140462
광주 -0.141532 -0.832499 -1.781075 -2.329149 -0.547860 1.297613 2.057138 -0.775897 0.473818 -1.453616 0.598444 0.267845 -2.111689 0.834187 0.108631 0.569528 0.942969 2.695025 -1.180847 -1.606503 1.472284 0.123087 1.158152 2.215176 2.725790 -0.193689 0.285968 -0.892571 0.568260 2.176991 -0.591855 1.141443 0.676619 -0.150386 -0.157652 -3.133439 0.676175 0.897886 -0.156898 -0.448637 0.942793 2.464979 -2.842748 -3.059648 0.792414 0.931920 0.551079 -1.364754 1.175146 0.213703 -0.980511 0.436888 0.201629 -0.764461 -1.697958 0.156298 -2.646288 0.531124 -0.887185 -0.005419 0.691721 2.407901 -2.553450 0.803187 -1.228450 -0.484591 -0.651827 -0.256971 -0.482853 -1.003797 -1.783316 -0.112004 2.342325 0.607636 -0.263542 -0.034008 -1.053733 0.794219 1.727286 -0.368102 0.938360 -1.237642 -1.967260 0.468285 -1.756460 -0.155106 -0.413117 2.203557 -1.672231 -0.325622 1.176619 1.316324 0.104415 -0.536124 -1.974779 -0.133315 -0.272684 -0.413550 1.223182 0.017802
인근 1.564457 -0.656969 -1.762345 -0.504289 -1.565324 1.717789 -0.635864 -1.085825 1.396046 1.157993 -0.724401 2.174640 2.733994 2.390290 1.300091 -0.163116 0.380805 1.602422 1.960513 2.456326 -1.387011 -0.567588 1.460732 -0.625507 2.970213 1.508969 2.488978 1.531800 -0.819289 1.464275 -2.996357 0.654867 -0.838872 -0.465870 1.558864 1.664091 -1.117588 1.439842 -1.097749 0.036155 0.950935 1.713487 1.707880 -0.356045 -2.349039 -0.031983 -0.024990 -1.319814 -0.458720 0.787857 1.143521 1.392073 1.273369 -1.783477 0.250677 -0.150167 -1.131957 -1.466164 -1.698082 0.752084 3.079932 -0.305664 1.320811 -0.523348 -0.007222 0.014765 -1.176651 -0.385402 -1.273269 -0.675464 -1.014259 -0.698220 2.573253 0.641051 1.522172 0.590067 2.272910 -0.047051 1.925795 -0.722584 -0.274679 -0.715078 0.044950 -3.311933 -0.813442 0.244373 1.185826 2.570593 -3.589195 -0.579275 0.969588 2.590097 0.030374 -1.740739 -0.155907 1.411620 1.728651 -1.572600 0.446440 1.578616
안내 -0.668860 1.534905 -1.864938 -0.741921 1.713881 1.956770 0.527813 -1.841350 -1.102432 -0.012863 1.163444 2.078862 -0.422481 -1.394731 -1.107852 -0.863888 0.657004 1.277352 -0.626140 0.703605 0.787347 1.563182 -0.836682 0.253295 -0.550835 -0.591332 0.092511 1.289857 -1.109348 -0.888095 -0.450514 1.358681 1.302156 -0.683425 -0.287797 -1.448281 0.633229 0.417464 -0.380329 1.438601 -0.918363 -1.659791 -1.675755 -0.463958 0.919153 -1.184138 1.162228 2.047598 1.265638 -1.283600 2.282118 0.439572 -1.319753 -0.732392 -0.435690 -1.732036 0.969018 1.558010 0.658146 -0.135451 0.327697 -2.057653 0.998887 -0.316510 -0.457245 1.095666 -1.888792 -1.344955 0.820571 -1.243767 -0.990154 -0.292048 -0.030751 -0.844101 -2.013766 -0.205073 -2.154934 0.965840 1.136907 -0.044004 -0.443487 0.053157 -0.390568 0.661899 -0.072343 -0.042089 -0.036013 -3.901280 2.490071 1.088354 0.813143 0.112471 -0.498010 -0.846021 1.682382 -0.516792 -0.121194 -0.078860 1.886668 -1.723011
결과 -0.384435 0.271189 1.054237 -3.619793 -1.506483 0.004571 1.043917 -0.554146 1.143168 0.399807 2.229704 -1.270584 -1.832923 -0.006897 1.197240 0.248563 0.031104 -0.302616 0.307778 -2.341331 -0.717447 -0.006395 -4.909359 -0.475954 -2.522350 0.219154 -2.663945 -1.088586 -1.054427 -0.761260 -1.578861 2.013245 -1.847078 1.272361 0.186265 0.598284 0.487611 -1.562423 -2.508048 -0.617348 1.056391 1.401666 -0.289021 0.170223 -0.488680 -2.700815 -1.716475 -0.067873 0.409515 -1.382217 0.012419 -0.660770 2.678233 1.316622 0.619087 -0.844830 0.331072 1.364669 -0.151218 -1.555601 -1.477687 1.634066 -1.916134 -2.303681 -0.856756 0.060146 0.773517 1.592259 0.260866 -2.218607 -0.484536 1.779990 1.874500 -0.422681 0.928046 -0.346032 -0.381191 -1.908727 1.490404 1.351777 -1.062454 1.587802 1.398102 1.508438 1.523623 0.563502 -2.362856 -0.106470 1.101279 1.712843 -1.099867 -0.166485 -1.226836 0.382050 -0.238587 1.357606 -0.216372 0.754945 2.945359 1.107436
참조 -0.004301 0.334395 -1.490883 -0.227082 1.881168 -2.308914 0.544745 2.409401 0.891539 2.256333 1.328185 -3.066050 0.953738 -0.073603 -2.732635 1.647744 -0.520771 -3.663537 0.189810 2.004222 -0.317334 0.078547 -2.308501 -0.896041 -0.570212 -1.636273 -0.372098 0.144825 0.335973 2.703375 -0.268371 1.111890 0.540239 0.102805 0.777250 1.908962 0.996545 -0.262165 -0.268633 1.893255 -2.361988 0.086798 -0.036025 1.538738 -0.155958 -3.306826 1.506921 3.499711 -0.348337 0.630951 4.155228 0.728455 1.759922 -0.905549 -0.888325 2.731533 0.988427 -1.432718 3.122384 2.614486 -0.905129 -0.996152 0.284476 -0.046324 0.314047 -2.404461 -0.482514 0.403756 -0.394736 0.256474 1.161651 -2.032830 1.153661 -2.786786 1.839697 1.310534 1.758461 -1.450912 2.223531 -0.623928 0.914757 1.072376 2.493634 -3.118838 1.901825 -1.062251 -0.597228 1.418496 0.048102 1.318388 -0.650486 -3.004143 0.949895 0.291346 2.860042 -2.465142 0.859832 -2.045463 -0.513460 -0.802326
음성 -0.380716 0.512797 0.253955 -1.804574 -3.540797 -0.518517 1.367714 -2.463684 -0.131154 0.692628 3.883390 -2.147823 -2.372313 -1.942348 -2.361332 1.045332 0.069147 3.622418 1.385391 0.355490 -2.519157 0.054528 -2.431048 0.542167 -2.000167 -1.654502 -2.362010 1.058397 -1.779806 1.535817 -0.733497 -2.354342 0.006016 1.948507 0.342737 0.144154 -0.197656 -0.171418 1.570455 1.317123 1.662792 2.715600 1.641354 -2.527520 -0.122589 -1.250737 0.006227 -2.595555 0.408300 -0.327801 -0.396531 1.438450 1.340077 2.557811 0.124132 -0.154430 2.107754 1.753620 1.622315 0.778219 0.115958 -1.408000 0.755829 2.089908 -2.125082 0.410385 2.155682 -3.617021 -0.226572 -3.336151 -0.442611 -0.204950 0.271958 0.877612 2.600566 -1.906878 -0.343950 0.682414 1.059693 -0.120722 -1.293885 -0.751047 -1.199242 0.354675 1.600204 -0.121340 0.639260 -1.667374 -1.567340 -0.374065 -2.629811 -2.253919 2.755130 -0.436254 1.608786 3.248682 -1.641211 -0.126924 -1.035571 2.536356
예방 -1.309058 -1.254935 2.042492 -0.232357 -1.515375 -1.419178 0.583403 0.600232 1.113061 0.835733 -2.708066 0.199741 -0.289016 2.527797 0.731271 2.245657 -0.845184 -0.800119 -1.301234 -0.957932 0.299821 0.710607 1.964095 -1.172738 2.447027 -0.466225 0.405881 -1.901603 -0.151143 -1.282632 -0.114499 -0.649356 0.760674 1.372975 -1.593132 -0.435721 1.284186 -0.845303 1.035665 -1.522149 0.327244 2.510704 2.297827 -3.597299 -0.041908 0.309679 -0.397320 0.171821 -1.204257 1.314453 -0.190317 1.913632 1.966080 0.396107 -0.985350 0.881572 -0.720116 -0.300716 0.405520 -0.483740 2.337863 -1.159609 -0.359578 -0.367593 -0.774749 -0.626571 1.604440 -1.665936 0.409822 2.642996 0.724876 -0.571397 2.009475 2.258967 0.698572 -0.375893 -0.444147 -0.534763 -3.320904 0.154058 -0.441059 0.471320 -0.398176 -1.052553 -0.089774 0.782865 -0.210505 -1.786062 0.372149 0.897804 -0.980353 -1.504809 -1.283228 -0.051430 0.174508 1.862894 1.661556 0.831012 1.856235 -0.633823
참고 -1.256265 0.640463 -0.905846 0.960638 1.352217 -1.514329 1.489704 2.493814 -0.742100 2.706724 1.508846 -2.503928 2.161255 -0.758199 -3.628893 -0.706150 0.839344 -3.598383 0.375773 0.673903 -1.419286 -0.111540 -3.694991 -0.127556 -1.639510 -1.781603 -1.499119 -0.955861 0.373100 1.047939 -1.065256 0.858670 -0.242270 0.665719 2.723190 0.595470 0.066815 -2.367080 -0.099228 1.804577 -1.480332 -0.495576 1.758399 1.871477 1.765962 -4.027870 0.560432 4.211065 0.061149 -2.304765 2.825340 -1.438543 0.708352 -1.660213 -1.569056 0.197013 -0.622837 0.383484 2.347201 1.496417 -0.928760 -2.466567 -1.179363 0.229286 1.213826 -1.705710 -0.245019 0.810937 0.432495 0.587667 -0.321877 -1.741057 0.540095 -0.793299 1.271462 0.113250 0.268012 -1.521422 1.485875 -1.113643 -1.463807 -0.319448 1.827335 -2.797917 0.177520 0.055032 -0.640333 0.963429 2.445786 1.276203 0.201103 -2.862207 1.098348 -0.355806 1.330032 -0.947204 1.578160 -2.366794 -1.759546 0.501315
종교 0.104663 1.659552 1.568089 0.136518 -0.612530 1.402969 -0.478328 0.120681 0.615271 1.689022 -3.496783 0.971887 0.829582 -0.002222 -0.688397 0.093616 0.133932 0.031021 -0.622724 1.122821 -1.818940 2.308139 2.003246 -1.127740 -0.154830 -1.144024 1.119714 -2.913582 1.405262 3.832329 0.881451 -0.069450 1.649010 3.998730 -2.066047 -0.415165 -0.235315 0.098239 1.445570 2.193510 2.188200 -1.504713 -1.117708 -0.231913 -2.428672 -1.544592 -0.293055 2.349432 1.571889 2.421434 -1.452749 1.107330 0.252834 0.116649 -2.497651 1.401791 -0.977744 -1.500064 -0.061906 -1.376800 1.946883 3.415795 -1.838803 1.185591 1.461141 2.041012 2.720883 1.300819 -0.716771 3.086033 0.261848 0.677400 0.346557 -2.836246 0.683784 -2.081814 3.769634 2.586393 0.279138 2.436434 -0.678671 -4.078613 0.653709 1.329471 -0.487152 2.579942 -2.533202 0.185417 -0.777248 -4.649711 -2.755919 1.519069 -1.809034 -1.896838 -1.403521 -0.044094 1.618124 1.056107 1.013163 -2.228056
개인 -0.083999 -0.462620 -1.682959 0.057380 -0.493207 -1.009886 0.750352 -0.221130 0.233311 0.119622 2.209291 0.185147 1.665854 0.734454 0.196569 -0.487350 0.052914 -0.647849 -0.037750 1.562152 -2.314502 0.228371 -0.240406 1.391773 1.419188 0.483494 -0.963423 -2.264624 0.976129 0.400578 -0.729527 -2.022688 -0.217229 2.555343 -2.592852 1.215842 0.590493 -1.126583 1.796132 -0.094005 -0.916532 0.355861 -0.391754 -0.826564 0.907762 -1.587503 -1.265710 0.812734 2.715479 -0.148461 1.414555 -0.508565 0.005206 0.413670 -0.309214 0.012515 -0.958055 -0.162041 -0.785481 1.841113 0.167015 -0.330812 -0.421660 -0.030237 -0.222864 0.278871 0.848814 -0.631428 -0.499018 0.917482 0.023948 2.328605 -1.188585 1.724071 0.127441 -0.912390 2.865319 0.913334 -1.135505 1.054992 -0.765306 0.218778 -0.649402 -0.378837 1.147416 1.080808 -2.082925 -0.360353 0.536597 -1.062583 -1.285177 -0.512178 0.892816 -1.160385 -1.660750 -0.450677 -0.862230 0.118385 1.267694 -0.735165
집회 -3.720324 -1.860516 0.673622 -4.171168 -0.682521 -0.542730 -0.517707 -1.346648 -0.365879 -0.641712 -0.959129 -2.223284 -1.220579 -0.267789 0.198595 -2.036253 -2.433012 -0.596310 2.111158 -1.833914 -2.707087 -1.544358 2.805845 3.487209 1.233222 0.297335 -2.669103 3.092499 2.485646 0.663291 -0.572648 -0.427179 -0.688941 2.769678 1.772317 -0.608664 0.022710 -0.367725 0.154332 -1.794739 2.304634 0.303853 -0.273130 2.103755 2.333226 -1.087356 0.549749 0.862898 0.131150 1.440515 -0.385192 1.094390 2.491195 -0.040594 -0.445711 0.421986 -0.585481 -3.766695 -2.823057 2.882198 -2.981553 -0.222863 0.197476 -2.340113 0.666849 -0.204638 -1.473679 0.736036 0.044037 0.232959 0.910922 -1.200687 -0.786957 0.580633 -0.420117 1.344713 0.364433 -1.105857 -1.039596 -1.957743 1.095660 -0.933119 -0.037679 -1.291760 3.067366 -1.591713 -0.869228 -0.932565 -0.244650 -1.242460 -2.791201 -0.600416 -0.720914 0.341678 -2.185082 3.254606 -0.632018 0.991764 0.196841 4.935075
이용자 1.500830 -0.236293 -1.609945 2.090641 0.563880 0.568333 -1.983842 0.726748 1.018722 -0.582824 -0.336469 1.209926 -1.690988 0.700426 -0.430211 -3.348905 1.308104 -0.073853 -0.572574 0.093283 0.141886 -1.837623 -0.406536 -1.691760 -1.432143 -2.620033 0.234746 3.941200 -0.692854 -1.678842 0.685500 -0.592152 0.520337 -2.174478 -2.094504 -1.693431 -1.843661 0.961986 0.688958 -1.990088 -1.110279 0.584468 -0.186410 -2.083056 1.335256 -0.810298 -0.884947 0.836150 -1.092248 0.151190 -0.993573 2.350590 -3.052748 0.427309 0.949205 -0.602127 1.340471 1.836014 0.887149 -0.226948 -0.830176 -0.640769 1.730184 1.094044 -1.443062 -1.656058 0.576776 1.623803 1.744219 0.431684 0.035890 0.376451 3.300290 1.627635 -1.199524 1.554452 -1.920429 1.489091 -0.297299 -1.331434 -0.148322 -0.883098 -0.280773 0.429545 0.553658 2.708909 2.623921 -0.147009 1.058931 -1.891346 -0.418612 -0.035904 0.646128 1.916266 -1.849759 -1.590296 -1.091424 -0.265163 0.697864 0.719906
교회 -1.308358 -0.711176 -1.172433 -2.347443 -0.183495 0.475419 0.743883 -3.350034 -2.092795 0.859163 -0.441139 -0.467530 0.944591 0.068080 -1.543715 0.296945 -1.792693 1.121516 0.979560 -2.624346 -1.086657 -1.781132 -0.098747 1.488024 1.280811 0.130028 -1.091999 -0.538433 1.268484 2.973876 -3.019769 2.935324 -0.552997 -0.149051 3.141351 -0.864143 0.438360 0.990146 2.703074 1.423487 1.444917 -1.472764 -4.071244 -0.508504 0.717712 -1.354047 2.470793 -1.761318 -0.186301 0.904084 0.185539 -1.246469 2.052890 0.383557 -1.659772 0.785360 -0.732951 -0.687519 -0.455609 -0.075124 0.373131 0.730784 -0.659375 -2.192840 -1.439320 4.790139 1.705945 3.743975 -0.199700 -1.192352 -0.335676 -1.360910 -0.316867 0.327949 -0.904107 -0.527484 1.865430 -0.312541 -1.132845 0.954441 2.488689 -0.010788 0.337828 1.929760 1.569960 2.102372 -0.560970 2.673846 -1.861454 -2.558925 -2.350865 0.972767 0.413653 0.459289 -1.700272 -0.214497 0.475577 0.764843 -0.977737 -0.351646
유증 2.131690 -2.216254 -3.191161 0.401090 -1.546436 0.459836 2.990738 -1.534903 -1.224572 -0.615646 -0.085241 -3.390180 2.185865 -0.020084 -0.485070 0.985650 0.581159 -2.440036 1.558085 -1.386086 1.499786 0.777402 0.651113 -3.402068 -2.159810 0.785860 1.559697 1.592653 -2.271384 1.567715 0.806444 2.687362 -0.639076 1.192646 -0.091795 1.821392 -0.201476 -0.364858 -0.861795 0.143288 -0.647453 -0.513759 -2.943112 1.996037 -2.148581 0.236540 -2.507882 -2.332715 3.849819 -0.495573 -2.141727 2.203279 -1.043864 -2.040910 0.159276 -1.518848 -2.452854 0.108729 0.623424 -3.581115 -1.577751 -0.807606 -1.468009 -0.389979 -3.608007 -1.946981 0.240908 -0.317471 -2.698517 -0.876976 0.364565 1.119721 -1.082370 2.828284 0.681187 1.177054 2.442571 1.125217 -0.401596 -2.525864 1.739133 -0.070314 -0.837075 -1.424437 -0.974539 0.873201 -1.136654 -0.835183 1.357154 -3.275431 -0.174177 -1.608350 1.082070 -1.002891 0.741165 1.557115 -1.281561 3.317385 -1.000230 1.652524
생활 0.188399 0.482593 -1.829108 -1.244235 -0.675839 -1.357983 0.700296 0.227787 0.835531 -0.198168 0.805541 -2.433364 0.023093 1.401823 -0.512242 1.033818 -1.899037 0.812938 0.907827 0.062555 0.224266 0.918967 -0.214817 0.734025 1.367046 0.454281 -0.408552 -2.250423 1.491411 0.562237 -1.132501 0.080745 -0.842208 2.565848 0.015262 0.950913 -0.591711 -0.375947 2.527703 -1.750054 -0.665928 -0.256268 0.761817 -2.740239 1.550168 -0.326974 1.434415 1.969963 2.680514 1.032016 0.179976 -0.727903 -1.270843 0.217892 -0.387657 -0.336099 0.179638 -1.058788 0.602924 1.295027 0.410242 -1.345235 0.698037 0.545485 -1.069013 -0.449697 0.621948 0.173968 0.463650 -1.178414 -0.920397 0.738164 -3.081256 2.224064 -0.389327 -1.761906 1.575007 -0.327913 -1.050803 1.472670 -0.912507 1.696108 -0.333085 0.145690 0.393961 -0.521799 0.024599 0.885973 -0.317746 -0.817875 -1.170775 -0.929768 0.925339 -1.307606 0.121100 0.299752 -0.801480 -1.390085 1.635496 -0.869908
식당 -2.626858 -0.003029 0.293373 -0.301544 -1.249502 0.518862 -0.025625 -1.915262 -2.021471 -0.220563 0.545320 1.321311 2.024124 0.959217 -1.529209 0.247700 2.316070 -0.976845 -0.963869 1.398711 1.417918 -0.227184 -2.203286 -2.383775 -1.939662 0.753352 -2.084818 1.286220 -1.736170 2.384625 -1.349390 0.915896 2.186622 -1.024453 0.191915 0.562745 -1.113662 0.757327 0.864585 0.507603 0.176617 0.613171 0.869880 0.246375 0.022183 2.093454 2.191061 1.146681 0.413513 -0.689930 -1.431831 -1.399331 -1.370116 -1.633433 -1.401086 0.446082 1.450180 0.079629 3.062148 0.232834 0.053194 1.420523 0.576369 0.062007 0.833993 0.459652 -0.862638 -0.126060 0.535395 2.431692 0.508441 3.379016 -1.322687 -1.950160 -0.217014 -1.634163 -0.478602 0.683072 -0.760733 -0.612914 -2.345721 -1.029732 -0.801385 -1.003680 -0.305377 -1.894338 -1.011322 -0.735281 -0.408597 -1.248411 0.300224 0.227935 -0.202335 -0.222949 -0.743864 0.043127 -1.008187 -0.643032 1.760527 0.453089
병원 0.422722 -2.286692 0.856119 -1.854885 0.157861 1.956826 1.337615 -1.708517 2.264909 1.680619 0.916514 -1.813267 -2.099459 1.206093 -1.970118 1.520621 0.602415 -0.186751 -1.895512 -3.642027 2.959536 -0.171438 -0.480392 -0.699950 0.733846 -0.456277 -2.229288 -0.493530 -0.397572 0.689824 1.928376 2.489085 -1.937752 0.369893 1.256791 2.013660 0.469310 1.531659 0.996131 -1.341772 0.441994 1.127543 -0.725641 1.482714 -2.056834 -1.462090 3.637747 -1.268568 1.628362 -1.728374 -1.565287 1.840608 -0.449890 0.414592 -0.109129 -2.019762 0.217696 1.823549 -0.114131 1.875997 1.206422 0.757685 2.655016 -0.766888 1.889111 0.569284 0.393463 3.578997 0.170590 -0.780064 -1.413388 1.106664 -1.366005 2.821564 3.333044 -0.699608 0.452423 -3.101781 1.078652 3.599258 2.085166 1.040598 1.823823 1.994110 1.064137 0.107621 3.026278 -0.249652 -4.403162 -0.997781 1.489723 -1.367087 -0.855254 2.049855 0.775981 -0.307876 -0.360235 -0.687202 -0.900522 -0.382975
활동 0.160557 -2.517347 -1.182578 -3.497494 -1.838880 -0.217804 1.692849 2.514886 1.424741 -0.494298 -1.904748 -2.309453 -0.212796 0.451412 0.153182 0.018500 -1.095623 -0.429144 1.534459 0.344208 1.067398 -0.987175 3.384067 0.545063 3.120336 -1.194226 1.010682 -1.066302 0.482089 1.257661 1.222484 2.163770 -2.018193 1.131421 -0.028563 -0.782010 1.655581 1.636569 0.870211 -0.760774 -0.118859 4.325570 4.538536 -1.657142 -0.745686 0.594736 0.475757 -0.725011 0.251322 -1.134971 -0.012000 -0.202996 0.556740 1.716799 -0.508127 3.220514 -1.119301 -0.223450 1.513003 0.064431 0.566458 -2.937963 2.703118 -0.814247 2.668450 0.901241 -1.437605 -0.314095 1.044747 4.242220 -0.106998 1.580197 0.315363 -0.670484 0.196441 -0.598063 -0.626155 -1.366572 -1.350044 1.266394 0.007161 0.606471 0.611944 -1.171837 -0.002363 0.562853 -0.426107 -1.167790 -0.920522 -1.750511 -0.086639 -2.856041 -1.922710 -2.948512 -1.960930 2.228737 0.423291 1.009392 -0.705569 3.267268
행사 -1.180476 -1.905364 1.401568 -1.231838 -2.438271 0.494831 0.856755 0.313028 0.685340 0.838230 -0.592451 -1.637664 -0.450125 -0.198373 -2.273414 -0.139342 -1.215514 0.143376 2.618538 1.180943 1.498011 0.136952 2.618716 1.601259 1.876309 1.227156 0.467462 -3.256298 1.741630 1.613340 -0.726127 1.458185 -1.253859 0.645060 -1.623334 -1.466413 0.695475 0.839024 0.071065 0.223907 -0.424870 4.129041 1.949385 -2.734992 0.682837 0.758734 1.139834 -0.567503 0.534962 -0.414376 0.616586 0.306174 0.382059 -1.546172 -1.323253 2.929670 -1.574619 -2.048853 1.616089 -0.222245 1.912984 -1.983089 0.946709 -0.903550 -1.722071 0.807884 -0.885139 -0.921186 -0.965159 2.965643 3.802899 0.222706 -0.850684 -0.069347 -0.311643 -0.587796 2.352242 0.674792 0.096003 0.079457 0.029508 -1.120225 1.806655 -2.316104 1.296474 1.480497 0.033500 0.385233 0.290929 -2.575855 -2.283820 -0.371777 -0.420842 -1.650608 -0.933260 2.281935 -0.566616 -0.032847 -0.667714 0.397561
수도 -1.702724 -1.600349 -0.484131 -0.711251 -0.488735 1.121433 0.119194 -1.233580 1.652211 -1.297253 -0.917322 -2.839163 0.148475 0.823366 0.779392 -0.006602 0.254261 -0.522606 0.588193 -0.191956 -0.506706 0.729970 2.287322 1.323426 2.324963 1.503749 1.411626 -2.824210 1.246060 3.000012 -1.619761 -1.716875 0.441805 0.991293 -0.421440 -0.209377 0.181046 0.746738 -1.325003 -0.736565 2.701195 0.249427 0.241620 -0.807565 2.008594 1.835069 0.294119 -1.406183 -0.255256 1.740451 -0.134976 0.728731 1.577472 -1.128345 -0.524740 1.308852 -0.324110 -0.774197 -0.144186 1.819851 1.091231 0.121663 1.230146 -0.716069 0.113074 -1.008420 -0.345390 -0.584204 1.653993 1.386988 -0.306456 -1.450338 -0.196198 -2.126972 1.187569 -1.964370 2.092458 -0.323896 1.669432 -0.001875 0.169590 -0.668470 -0.381143 0.207373 0.109840 -0.571657 -1.384889 -0.072074 -0.935598 -0.324851 -0.507007 -1.423201 -1.254043 -0.955502 -1.186533 1.843788 2.055696 -0.948320 1.204390 1.126643
사항 2.050381 -0.422189 -2.018026 0.537539 0.402271 -0.525919 1.778384 -0.353415 0.404227 2.417183 0.529837 -2.252821 -3.357871 0.649116 -0.739510 -1.146498 -0.627121 -2.534353 2.072866 0.140949 0.164464 -1.988521 -2.752392 1.407706 0.712196 1.165505 -1.492228 -0.780282 -0.715434 0.914904 -2.416785 0.224959 -3.495917 -0.679958 -1.540044 -2.705644 -0.449798 -1.850390 -2.553238 -0.190096 3.753345 -0.453638 -1.687864 3.041434 -0.779266 -0.046716 0.694325 1.722823 -0.658869 -1.962362 2.407058 1.289489 -1.668530 0.365438 -0.233278 -0.299252 3.362594 2.969641 0.049757 0.161064 -1.127978 -0.666462 -0.545477 0.543159 0.004224 -1.757818 2.839356 1.634501 0.605568 -1.925091 1.976068 0.040808 -0.040781 -1.300112 -0.532748 -0.855572 -0.574501 -1.434868 0.366603 -1.017029 0.567602 1.190040 1.901348 1.101027 0.796949 -0.216591 -1.899231 0.630318 -0.645020 -0.813453 1.238495 1.593753 -1.838650 -0.589135 1.308289 2.034845 1.070131 -0.414591 -0.191173 0.372673
파악 0.239164 2.451388 -0.910723 -1.940556 -1.604217 0.887622 4.105451 -0.523577 -0.171086 1.937882 2.540380 0.200513 -3.505023 -1.819834 -3.267274 -0.831929 0.079774 -0.314368 -2.639652 0.156220 -1.580973 1.218408 0.497921 1.494476 -1.833258 -2.401672 -3.548920 0.025241 -1.769811 0.886065 -2.852889 -1.197444 -1.503111 -0.576353 0.337025 -0.083466 1.333450 -1.781912 0.594208 1.612309 -0.220747 1.655602 -1.162312 3.572855 0.644717 -1.564836 -0.181031 0.040887 0.808847 -2.807998 1.476772 -2.050761 1.915078 -1.327109 -2.027951 -1.360325 0.357803 0.666614 -0.890824 0.193433 -1.359058 -1.510005 0.416931 -1.128069 -1.595999 1.166224 2.198723 -1.950398 -2.518459 -1.778016 0.605551 0.120947 0.258379 0.013972 0.726309 -2.042060 1.423536 -0.217236 -0.423703 1.855696 -2.205503 0.479529 1.707365 -0.627025 -0.357512 1.974573 -0.872266 1.379937 0.693916 2.791719 -0.310950 -0.079034 -0.745268 -1.948778 -1.862436 -0.172666 0.533358 -1.394145 1.453665 -0.311332
서울 -0.678862 0.825250 -2.339501 -0.502633 -0.103420 0.216014 0.594843 -2.990136 -1.262876 0.370694 0.061756 0.765153 -0.052547 -0.552021 -1.681849 -1.284297 0.892747 -0.155219 1.015998 -1.877225 -2.145881 0.584586 -0.020825 0.915650 0.031638 0.325184 0.612865 -0.093350 -0.005738 0.910152 -1.091163 -0.577667 0.588620 0.444835 2.250726 0.156857 0.185117 0.836025 -0.691808 1.319058 0.409644 -0.970035 -2.252575 0.086617 1.876399 1.778286 -0.269611 -2.383002 -2.410345 0.105747 1.365117 3.233304 2.373778 1.701196 -2.326357 1.355449 0.391022 1.344720 -2.987434 0.476686 -2.035839 1.138279 -0.752892 0.964056 -1.337935 0.868214 0.479706 0.918177 -0.177688 -0.015227 0.155907 -1.398807 0.047326 -1.028567 0.553821 -1.662983 0.807731 1.858663 0.507523 -0.218881 -1.139585 -3.343442 -1.005181 -1.750433 -1.485306 1.198967 0.748189 1.048294 -0.634455 -1.281421 0.874531 0.297854 -0.123955 1.026026 -0.201824 0.029592 1.374898 -1.263029 -2.085680 0.686573
세부 1.378993 2.979027 -4.386617 -1.975338 1.571976 -0.597209 2.644807 -1.501171 2.025816 1.695040 -1.153102 0.521781 1.821338 -1.832678 -1.529929 1.883507 2.188846 0.796872 1.993002 -1.446020 -1.489803 -2.398985 -2.466604 -0.891090 -0.798496 -1.075752 -1.439940 -1.054504 1.179762 1.633725 3.728488 1.097174 0.427456 -0.845949 1.349306 2.140353 1.432145 -2.936453 0.008725 -0.419356 -1.986039 -0.450290 3.634326 1.969885 0.207365 -1.026502 -0.512523 1.636158 -0.799318 -4.036615 2.057439 1.476040 0.382296 -0.435053 1.616841 -0.030992 -0.255788 -1.901331 -3.359886 -0.541252 0.658703 0.662420 -2.196352 -0.987940 2.397364 0.687034 -1.753510 -0.493316 0.714945 -3.367010 0.799450 -0.363498 -0.148726 -1.274830 2.912100 0.956642 0.090269 -1.152727 -0.149255 1.974444 -2.520816 1.948396 -1.263639 0.033978 0.611386 -1.453443 1.967622 0.195473 2.198562 -0.069106 -0.657188 1.656608 4.161847 2.955860 0.309506 -1.066482 -0.359913 0.431209 -0.664020 -1.497616
확인 -0.395511 0.998861 -0.260159 -0.717815 0.398380 -1.243790 3.820357 -0.089881 -0.684392 1.179462 2.841745 -0.559349 0.576514 -0.027709 -3.206931 -0.129391 1.290166 -0.742966 -1.522326 0.163084 -1.111122 0.102104 -2.119993 -0.532136 -2.178108 -2.975444 -2.674543 -0.950825 1.119303 0.530670 -0.503071 0.143257 -0.859266 0.821170 1.432415 0.368775 1.597679 -1.417278 0.325961 1.202978 -2.717817 0.827225 0.059906 1.154467 2.115123 -3.752567 -0.292187 1.047180 0.470624 0.063004 3.005512 -0.980299 1.208512 -1.313977 -1.232728 0.831373 0.039241 -1.031906 2.674042 0.528870 -0.891056 -1.757522 -0.141167 -0.660667 -0.159959 -0.667775 -1.070620 -0.545622 -1.476098 0.488419 -0.048420 -2.131945 0.155942 -0.083812 -0.153000 0.864897 1.642423 -1.306458 3.193566 -1.394125 -0.396741 -0.802346 2.337653 -1.895216 1.393641 0.418461 -0.570011 0.892723 0.422449 -0.035874 -0.937760 -2.185418 0.249323 -0.582892 0.558397 -1.828002 1.405293 -0.139887 0.442235 0.054121
관내 0.739195 0.733815 -1.620928 0.640697 -0.802303 1.177543 0.391836 0.749013 0.394694 0.857583 1.968866 0.688489 -0.339436 -0.524739 -1.248676 1.666344 -1.132335 0.348320 0.793888 -0.245779 0.152229 0.387967 -2.017725 -0.739343 0.824027 -2.528612 0.004197 -0.568156 -0.478239 0.514200 -1.313961 -0.192183 -0.831372 0.547116 0.969950 1.028658 1.344982 -0.391203 -1.403546 -1.259401 -0.832550 -0.701673 -0.040571 1.733099 0.319768 -0.771938 0.828988 0.109227 -0.267476 -1.451705 2.795150 0.958299 0.188074 1.049118 -0.216500 0.060867 -0.945481 0.066274 -1.029588 0.526545 -0.838143 -0.056761 -0.034913 -0.149856 -0.104573 -3.133116 0.818842 -1.369253 -0.708457 -0.869875 -0.870317 0.285314 -1.987876 -0.849246 1.397954 -1.795800 -2.271914 -1.110879 0.514788 2.218084 -1.208122 -0.257523 -1.227998 -1.573334 -0.900760 1.372233 -1.097341 0.612052 0.719540 0.706741 0.270960 1.489874 -1.919019 0.618293 0.614668 1.432922 1.696298 -1.093429 0.482106 0.295426
시간 -0.702872 0.371654 -0.001696 -0.862843 0.996486 -0.783642 -3.401361 1.989084 -0.065829 -2.493575 -1.034311 -1.019093 1.003122 3.025615 -0.349457 -1.660985 2.891391 -0.409416 -0.198876 -0.221102 0.481208 0.329934 -0.723606 -2.357149 -1.208610 -2.497095 0.181970 -0.804771 -1.483214 0.150945 -0.691473 -0.098249 0.795060 3.503455 0.829938 -1.686700 -1.550181 -0.129995 1.643688 -0.765726 0.552630 -0.442230 -0.937216 0.874516 -0.502077 1.748016 1.201098 1.270720 2.753484 -1.198052 -1.512712 -2.454713 -1.682731 0.158610 0.769607 -1.434028 1.426449 -0.499739 0.825362 -1.001292 1.354395 -0.138033 -0.475426 0.302488 1.003255 1.703315 1.413366 -2.202552 0.719958 -0.485111 -1.394597 0.207679 -3.321714 1.899899 -2.954376 -2.165158 2.279106 -1.403113 -1.431903 -2.516299 -2.036521 -1.118055 0.207114 0.196462 0.065250 0.906336 -1.084012 -2.451766 0.777194 -0.544194 -0.010335 0.902974 1.040202 0.655719 -0.732234 0.729083 -0.273824 -1.125903 -2.612893 0.986111
다중 3.103884 0.373058 4.119430 -0.890165 -2.127900 3.196417 -2.317769 1.807649 -1.951575 1.429692 -1.438832 -1.270266 0.755570 2.103547 0.130581 0.211467 0.162450 -0.997612 -1.050622 -0.127239 -0.542959 0.417417 2.285747 0.948420 2.573488 2.342610 -0.352629 -5.455365 4.085705 0.300881 -0.266768 -2.703428 1.103003 4.756946 -0.334928 -0.251997 -1.855827 2.833658 -1.997296 2.080897 0.097263 -1.578153 4.566387 -1.617327 -0.096392 0.720196 -1.266000 -1.170804 3.618023 0.902541 -0.143008 -0.350071 1.246404 -1.525938 -1.540103 0.151230 -0.476885 -1.309156 2.636647 3.371087 -0.056850 4.454520 0.036126 1.708956 0.247491 1.186679 0.044042 -4.030506 0.120242 0.182511 1.522864 2.412051 -1.682476 -1.620152 0.965876 -1.897358 4.804452 1.862924 -2.961594 -0.083730 -0.430970 -2.173670 -1.552817 -1.866966 -0.149409 2.153854 -3.634242 -2.538316 -0.819582 -2.111809 -1.076292 -1.603130 -2.852326 -1.019657 1.219749 2.389618 -0.797834 -0.216337 1.915992 -1.707807
주말 1.003009 -0.731857 0.627923 -0.881577 -2.355195 1.767545 1.008784 0.589082 1.396326 -0.530268 -2.158600 -0.519243 1.110893 -0.467893 -0.506176 2.390376 -1.147246 0.580410 1.914571 0.511183 -0.772720 -0.410554 1.545369 1.048328 2.524758 0.265130 2.685878 -0.947628 -0.431577 2.286817 0.609169 -0.212474 2.726077 2.083676 -0.010530 -0.634208 2.175770 0.030384 -0.052251 2.430094 3.089999 1.546800 -0.209706 -2.438388 0.291381 1.450287 0.260295 -0.075387 -0.037455 -0.279744 -0.681633 0.751450 2.231241 0.134879 -2.144443 2.887438 -0.370885 -1.078100 1.201358 -0.831119 1.587450 0.527262 3.040350 0.083640 0.567987 1.476527 -0.929595 -2.721476 0.511619 1.436275 -0.922630 -0.341189 0.640501 -0.008668 0.679049 -1.487728 0.126240 1.158887 -0.069801 -0.861002 1.088502 0.512387 2.341806 1.131895 0.155328 0.847797 -0.563875 0.214510 1.754541 0.922803 0.209333 -1.086403 0.403820 -3.069037 0.144981 -0.212823 0.477123 -1.798238 0.279000 1.212427
상자 -1.281998 -1.782828 0.894853 -1.171658 -0.388672 2.663426 -2.934020 1.741606 -0.812960 3.023166 -1.016017 2.149834 -0.682280 1.200526 -0.644472 0.473480 1.207928 0.154750 -1.155066 0.527744 0.659194 -1.366485 -1.839438 2.192419 2.914299 0.927962 -1.584345 0.764417 0.394352 -2.306117 -0.841861 -2.997358 0.436426 1.885615 2.104899 2.453470 2.622484 -3.086597 0.155618 0.632789 -1.925960 -1.641200 2.908326 1.397946 -1.523467 1.535657 2.342818 2.048943 -1.712258 -0.997177 0.412091 -3.327264 -1.337635 1.659242 3.439939 -0.711537 3.663565 -0.039934 1.059923 1.908878 3.292857 -1.899428 1.155563 -0.284508 -0.176467 -0.363710 0.544413 1.781248 -0.917432 -1.823139 -0.173713 -1.503124 1.192372 -1.659832 0.644259 -1.649098 -2.323664 0.987534 -0.189097 -1.956689 -1.223371 2.195496 1.637443 2.762931 1.061968 -0.340469 1.446470 0.355240 -0.487060 -0.464185 1.476072 0.512363 -2.575531 -0.270511 -2.914019 -3.184759 2.042521 -1.220014 0.636898 2.222667
상세 0.849077 -1.363359 -2.048687 -2.629601 0.606028 -0.687366 0.378040 0.763279 2.406671 0.859906 0.657097 2.125630 1.377335 -0.504592 -1.072841 1.534518 2.225481 -0.837924 3.778053 -0.412643 -1.326274 -1.907445 -4.196298 0.226350 -0.162949 -0.977691 -0.711073 -2.711304 3.429048 0.916082 3.068673 2.102699 -0.451654 -0.323647 -0.098719 2.069648 2.166456 -4.039115 -0.962363 0.330877 -1.953754 -1.147191 0.641198 0.771439 -0.103222 0.662929 0.236439 0.725402 2.440127 0.301800 2.064064 1.833170 -0.891347 0.557848 -0.295607 1.126661 -2.079151 -1.637520 -3.556490 -1.347260 -0.761786 -0.558947 -0.391951 -0.898570 0.703530 -0.261528 -4.769638 -0.651336 0.190260 -0.911872 1.410735 -0.436879 2.499626 1.386109 2.042961 1.797799 -0.383783 -1.351192 0.203365 0.158590 -1.828973 -0.018120 -1.302250 0.696341 1.611270 -0.293501 -0.845558 1.920469 4.245831 0.351841 -2.115605 0.384646 3.013095 2.086704 -0.579956 -2.095582 0.821254 0.905597 -1.571895 0.120007
이후 0.424463 -0.240056 0.855237 -1.307634 -0.092335 2.176198 -0.038161 0.996049 -1.010800 -1.193787 -0.532787 0.716775 -0.927810 0.020247 1.101102 -2.284658 0.191704 1.389247 -0.652721 -0.253602 2.330795 -1.448454 1.184811 -0.480540 0.076555 -3.108121 1.630344 -0.974087 0.204921 2.242611 0.110277 -0.437749 1.098037 1.985314 0.877162 -0.226045 -0.589552 -0.273491 -1.112367 0.210595 0.549354 0.848549 0.726451 1.385989 0.655151 0.858419 1.947844 -1.645902 1.662648 -0.158274 -0.071394 -0.559616 0.399299 0.075801 -0.078723 0.525472 -0.191378 -0.387307 -0.386361 -0.318291 1.497366 1.016158 -1.209609 1.264508 0.517215 -0.891304 0.250580 1.186515 0.328748 -0.559024 1.676909 -0.326778 -0.820401 -1.972492 -1.226344 1.539446 0.213846 -0.296286 -2.189748 1.382673 -1.051601 -0.420162 -1.022352 1.507059 0.409971 0.229888 -0.537210 0.379658 -0.129558 -1.170881 -0.019382 3.131749 0.682634 0.790851 -0.935423 0.197593 -0.180015 -0.253890 -0.382377 0.377445
진행 -0.306090 -1.290545 -2.662387 -2.167040 -0.391503 0.100464 2.425154 0.046104 2.244936 0.120837 3.740889 -0.199221 -1.482151 0.596266 -0.797962 1.123062 -1.745198 -0.894757 -0.286455 0.791280 -0.769065 0.426084 -4.434158 0.959052 0.316696 -0.731925 -1.399148 -0.942926 -0.480842 -0.517577 -1.911119 3.574512 -1.902708 0.349355 -2.173713 0.029463 1.178665 -1.663039 0.359972 -0.500638 0.479715 -0.162602 -0.799371 0.535544 0.344060 -3.653511 -1.009751 1.589105 0.026505 -1.065503 0.954382 -0.594995 0.728846 0.190860 0.388912 -0.003613 0.063993 0.371242 0.534615 -0.229192 -2.615628 0.601704 -0.027363 -2.148590 -0.504476 0.657649 0.554566 1.898464 -1.129321 0.093397 0.577872 0.725164 2.568883 0.104134 -0.594341 2.021497 1.244542 -1.418969 1.129804 2.000028 -1.396862 4.352540 1.142578 0.207532 2.081849 -1.480335 -1.464528 0.733070 0.055218 0.509107 -1.540819 -0.487271 0.460373 1.193265 0.148548 0.176526 0.197439 -0.999123 2.279705 0.197609
거주지 1.250368 0.866108 -1.055804 0.766880 0.208812 2.786537 2.905175 -0.772567 -0.389445 -1.561455 -1.491330 2.253285 -0.083283 -1.924313 -1.845014 -0.126526 -0.055384 0.055140 -1.044001 -2.546185 -1.217266 -1.259805 0.966658 0.053413 2.157802 0.626405 -1.592724 1.906463 -0.675628 1.738311 0.608113 0.189432 -2.048354 0.641650 1.148965 0.992685 1.020862 0.672363 0.448860 0.599443 0.564649 1.511140 -0.303221 0.859683 0.347824 0.106168 0.062736 -1.337811 -0.076675 -1.260171 2.138360 1.264995 -1.827425 -1.784150 2.994250 0.419812 -0.197813 -3.066318 1.649496 1.736329 2.709407 2.781882 -0.687611 -0.562825 0.455930 -0.960879 0.813383 -0.370962 -0.536053 -4.317319 0.687720 0.834183 1.237321 0.247656 1.251537 2.231660 0.930649 -0.365274 1.110076 1.421182 0.153640 1.834892 1.456676 -1.212001 0.499911 1.584713 1.743320 -0.133562 -0.908311 2.567761 -1.990372 0.802896 0.692509 1.745703 -0.258890 -1.734793 -1.112964 -0.227243 -2.677210 -3.474479
지속 -1.548839 -1.275419 -0.928048 -2.108526 -1.994129 1.350747 0.767498 0.374815 1.067255 -1.785686 -1.264886 -0.594550 -0.010609 1.182173 -1.905228 1.139755 0.045975 -0.878582 0.173226 1.618806 1.494118 2.275465 0.973373 -0.469835 3.957937 -0.806126 1.416663 -2.220926 1.862562 1.636852 2.887654 -1.838925 2.022959 3.417187 -0.231572 -0.113880 1.075104 0.207205 -0.066437 0.528801 0.895006 2.499283 2.533539 -1.039653 3.194524 1.159366 0.527854 1.051632 -0.607223 1.003115 -0.582043 -0.567854 -0.907616 -0.459103 -2.458272 1.700019 0.551287 -2.840263 0.247536 1.266921 1.742722 -2.524986 -0.653940 -1.159532 0.354377 -0.610215 -1.879053 -0.963397 -0.315248 0.510752 0.093622 -1.799731 0.831941 1.557697 1.810368 0.589000 1.667224 -1.514843 -0.183245 0.651846 0.045945 -2.722531 -0.459506 1.490139 2.394868 0.261473 -1.644521 1.725834 -0.885415 1.322970 -0.796407 -0.404691 -2.129624 -0.346192 -0.244437 1.805217 -0.656490 1.684993 2.019745 -1.008752
방지 -2.158296 -0.201481 -0.011624 -0.925919 -0.598939 -0.217438 -0.589484 -1.435944 2.476449 1.361153 -3.649328 1.620102 1.353741 1.340827 1.702910 0.455250 -1.135442 -2.166665 -0.040230 -1.455764 1.780860 1.185613 3.957301 -0.257884 -1.509507 0.951343 0.980591 -2.299208 1.029542 -1.630100 0.229336 1.149464 1.309622 1.127937 -0.620020 -0.048401 1.553970 -0.762204 -0.978227 0.278747 1.224266 2.313144 1.640238 -3.971039 1.949449 0.315243 1.096579 1.025304 -1.178023 0.782632 -0.378388 -0.105920 2.435847 0.050005 0.476888 0.270816 -2.158284 0.201689 0.689548 -0.355796 2.048988 -0.021479 0.394683 -0.006508 -0.409980 -0.363549 3.057261 -0.120676 1.485879 2.329373 1.793082 -1.270126 1.791693 0.154320 0.168660 0.052222 0.341134 -0.387574 0.240149 1.147941 -1.627917 1.245557 1.307290 -2.456719 -0.107252 0.771160 -0.873631 1.006262 0.256795 0.021394 -0.229840 -0.876444 1.094287 -1.317798 0.102174 3.108734 1.799284 -1.620077 1.625597 -0.530711
북구 2.194017 1.706045 -1.549248 -1.691765 0.426869 1.709199 -0.318246 -0.273255 0.956240 -0.821588 1.127733 0.864672 -1.920333 0.474411 -1.227823 0.829601 1.734380 0.018474 -0.537030 -0.556623 -1.377210 -0.412626 -1.405425 2.320627 2.220294 -0.310205 0.409299 0.161861 0.139138 1.969332 -0.138825 -0.988191 1.306853 -0.909435 2.721320 -0.264946 -0.059870 1.654240 2.023552 0.097386 -0.286113 0.396915 -0.215700 0.453691 1.546931 -0.352864 1.966002 -0.805868 -0.257095 0.457264 0.167588 -0.858090 2.767675 -0.373767 0.220594 -2.973016 -0.192877 -1.081751 -0.420682 -0.726010 1.629731 2.798865 -0.793339 0.177562 -0.993934 -0.053215 1.572752 1.549150 -0.905051 -1.439340 1.074345 0.558255 -0.382518 0.996385 0.540287 1.138537 -0.792083 0.334406 2.270270 -2.161699 -1.842193 2.455104 0.176293 0.088076 -1.785158 0.443576 0.387570 0.092792 -1.297123 0.928606 0.161567 1.608122 -1.427477 -0.446400 -1.421422 0.480843 -2.406308 2.333880 0.316487 -1.271002
상시 -2.022698 -1.655208 2.710548 -0.263984 0.168665 2.594504 -2.780932 2.923964 1.476721 0.743284 0.116901 0.904375 -0.910299 1.176787 -0.326984 0.909474 0.238176 -0.960896 -0.132896 1.275018 0.693344 -2.088321 0.745421 2.970951 2.148339 0.233725 -2.274248 -0.883080 2.212597 -0.735619 -0.938278 -2.033782 0.428030 2.062533 -0.579453 1.133799 3.110767 -2.076686 1.081928 0.550973 -1.613593 -0.247914 2.089340 -1.400423 0.320148 -0.266594 1.127605 0.209321 0.688122 -0.027027 -1.886593 -4.029976 -1.187124 2.301301 1.095407 0.792109 1.806788 -0.428454 -1.304768 1.192378 1.662420 -1.685285 1.557070 0.365964 -0.283116 -0.724634 -0.336526 0.396343 -0.704051 0.921027 1.438327 0.592744 -1.150464 0.919695 0.191984 -2.497357 -0.481122 2.229263 -1.161623 0.007191 -2.413088 2.348970 0.648723 0.056348 2.158836 0.663709 0.887277 -0.561903 -1.084852 -0.622228 0.080201 -1.145857 -0.376176 -1.417395 -2.574631 -1.464798 1.582895 -0.991184 -0.272075 1.837309
기간 -1.772798 -1.745804 1.338003 -0.340319 -1.062460 0.491758 -1.414110 -0.992533 -0.371092 -2.563197 0.274113 -2.497347 1.644051 0.224371 -1.323235 0.692566 0.402469 -2.102949 0.509173 -1.906117 -1.146361 -1.365268 2.636121 2.146319 0.859471 -2.389625 2.113729 -0.289218 -1.771723 1.487038 -0.295466 -0.861954 2.162184 1.019188 0.375961 0.071704 1.580990 1.410542 1.709422 1.469364 2.302754 2.445584 -0.089920 -0.789201 0.029998 0.925899 0.015003 0.719068 0.367781 0.779310 -1.344327 -0.321572 2.045321 0.127153 1.832896 1.050786 -1.574598 -0.476984 0.211725 1.155031 0.659647 0.587509 -1.339274 0.855399 -0.016055 0.941028 0.652876 -0.959094 1.226427 1.741030 -0.574753 -0.872010 -1.220071 -0.923204 -0.486330 -1.716768 0.060307 0.650853 0.181630 1.298363 0.521195 0.438951 3.584897 0.902628 -1.406747 -0.662151 -0.475713 -2.168290 1.927157 1.196199 1.482718 1.576685 1.649441 1.779807 1.396417 -1.968757 -0.079229 -0.236584 -1.354066 -1.312051
조치 -2.295159 2.095311 -1.964597 -1.027102 -1.026989 -0.476682 1.082081 -0.669218 0.093345 1.344307 3.649760 0.321017 -0.775743 -2.551328 -1.529554 -0.578716 -1.756529 0.557705 -0.422683 -1.048614 -0.125616 -1.684787 -0.862339 0.738365 0.492621 -2.282341 -3.051166 1.323318 -0.170197 2.441095 0.386544 0.365088 -0.042052 0.757034 0.295828 0.952003 -1.081461 1.185446 1.475659 1.742131 -1.322766 1.354682 2.320061 0.566840 1.590768 -1.929162 -1.671572 1.787793 1.420518 -5.182437 0.848853 -2.226507 1.949761 0.116905 -1.094882 0.722219 -1.795997 -0.921290 -1.876187 -0.440526 -0.492607 1.259188 0.090074 -0.196690 0.672263 -0.279457 0.993881 -1.514250 0.448406 -1.334647 0.597116 0.691772 -1.118052 -0.928055 -0.064772 -0.894593 -0.051908 -1.631398 -1.162650 1.853070 -0.513459 1.181520 0.454703 -0.080537 1.212531 -1.476205 3.175543 -0.845017 0.477458 -1.165928 -0.916798 -0.057316 1.089430 2.185429 1.185994 0.002678 1.568888 -1.459923 0.329692 -0.947258
장소 -0.769727 -1.106692 -2.543398 -0.682428 0.301793 -0.514525 -1.759283 -2.243382 -0.803533 -0.308883 0.357874 0.206254 0.848169 0.814599 -1.030299 -0.202995 -1.986005 0.822905 1.358371 -2.506913 -0.640687 -0.904136 -0.946172 -1.558971 -1.176340 -0.790311 -1.078343 -3.070460 -0.198153 0.670213 -1.634545 2.527653 -2.044315 -0.002583 -2.209750 -1.480443 1.174182 -2.380189 1.010536 -2.145185 0.504746 1.804109 0.629668 -1.175559 0.197497 -0.383907 0.988342 1.305917 1.176343 -0.689138 -0.639314 -1.142890 1.149203 -2.337982 -0.070789 -0.287053 -0.603852 -0.204288 -0.512383 -1.741907 0.480360 -0.080069 2.395149 -1.775450 0.340898 0.953821 1.164403 -1.781799 -0.651375 -1.146280 0.636211 -0.414881 -0.387613 1.185945 -1.892798 -3.301446 0.216047 -2.000230 -0.254502 -0.677167 0.698899 3.205102 2.384382 -2.018305 -0.191967 1.930018 0.084115 2.021512 0.036248 0.488770 0.492310 -3.274797 0.083214 -0.094143 0.717403 -1.647962 -1.052414 -2.091517 -0.120134 2.144660
연휴 -0.843917 -1.028918 -0.938279 -1.903699 -0.412547 1.424449 -0.430004 2.429083 2.363042 1.253278 -2.670542 0.737980 -0.256586 2.125184 -0.369930 2.637418 -2.672396 0.621284 -0.014292 -0.555978 -1.072453 2.908857 2.689016 1.287898 -0.563110 2.048247 0.694142 -1.245557 2.189272 4.422353 1.472137 -0.422229 2.990286 0.258472 -1.364799 -1.501121 1.233637 -0.435517 -3.762438 -2.777467 1.722968 0.981793 -0.966709 0.304023 1.070751 0.884575 1.838539 0.552845 -1.996885 1.251226 1.555360 0.098130 0.473407 0.299965 2.026503 3.949759 -0.542565 0.752712 0.664709 -0.117368 2.093983 0.223483 1.334526 -1.474745 1.355928 -2.497695 0.161405 -1.323173 -1.948110 -1.363467 -1.520050 1.077716 -0.879393 -0.195943 -0.664525 -1.499443 1.581910 1.402660 0.582413 0.167989 1.815454 1.762270 0.242650 -0.080700 0.519939 1.559049 2.071582 -2.129947 -0.044945 -0.969889 0.850700 -3.204578 1.252714 -1.314688 -0.614906 1.752546 -0.290737 0.503540 0.029119 0.843590
카페 1.685072 -0.769801 -1.854742 -0.245172 0.303375 0.989060 -1.975852 2.733849 -0.617821 0.158312 -0.829871 -2.016798 -0.848762 -0.737898 2.540679 -2.253938 1.879384 2.340396 -1.686620 -0.981232 2.451447 -1.217878 -0.398732 -0.425024 0.298880 -1.345111 -0.249898 -0.235888 -1.155880 1.321663 -1.428473 0.376373 2.061738 1.886796 -1.984131 -0.437871 -2.848288 0.189530 1.078537 -1.311688 0.185766 1.764706 1.282848 -0.843479 -0.528303 0.804136 0.237878 1.269643 1.790071 0.718116 1.107931 -1.357471 -1.762555 0.704541 -0.527238 2.560383 1.320213 0.653709 0.394285 -0.849134 -0.005888 0.445461 -0.339763 -0.159963 -0.058677 -0.705846 0.786495 0.474950 2.190993 -1.069503 0.008877 -1.903302 -0.096946 -0.874439 -1.430271 -1.816489 2.313569 -1.082754 -1.112820 -0.566356 0.072048 -1.683237 -2.124092 0.127789 -0.062046 2.658206 -0.377494 -2.908538 0.038129 0.005901 -1.244660 0.832687 0.820477 -0.947776 -1.579470 -0.762190 -0.686098 -1.947235 -1.229146 0.937892
보건 -2.855610 0.108111 0.239815 -0.092782 1.218106 2.344530 2.697615 2.261166 -1.852900 -0.567754 0.505002 0.443497 1.190630 -1.795245 1.997437 -1.340826 -1.639579 3.214072 -0.706957 -0.727347 -1.042877 0.861033 -0.932060 0.531412 -2.043151 0.992328 4.096192 1.519572 -0.251311 0.033938 0.664121 -1.122112 -1.224886 2.332008 0.595340 0.148632 -0.368921 2.543401 1.492027 0.101912 -3.469374 -0.731909 2.076319 0.243741 0.101102 2.576295 0.436295 -1.581730 0.633982 2.711326 -0.573250 -4.292190 0.417980 -0.586999 1.780037 0.282367 -1.665287 -0.197126 1.355025 0.803019 0.754091 1.646767 -0.996970 -0.625896 -0.759042 -1.568932 1.005865 -0.914512 1.212154 -1.760719 0.771544 -1.458945 0.678561 3.006931 -1.266290 1.360357 0.187031 -3.119764 0.177300 0.626865 -0.627916 0.961715 -0.798752 -0.182029 -0.842072 3.083323 -0.973293 0.183582 -1.531206 -0.516209 1.107445 1.817879 -0.583720 -0.062888 -0.074374 0.639538 1.670318 2.510183 1.110341 4.063576
환자 0.910807 -0.194731 -2.263383 -0.299560 -1.319116 1.272462 2.205028 -1.522438 0.396328 0.776199 0.875562 -1.179367 -0.742815 0.224217 -0.531494 -0.757978 -0.399047 -1.459108 -0.463722 0.067332 1.793112 -1.392925 -0.920118 1.116049 0.486897 1.882934 -1.000323 0.782747 2.187736 2.161491 0.563466 0.610979 -1.458579 -0.574129 -0.920385 1.289797 1.042637 -1.164015 0.602901 -2.300351 0.593641 -0.555795 -0.397501 0.463348 -1.313122 -0.362091 1.165610 -0.671537 -0.517266 -1.872063 1.097816 0.164443 -0.898177 -2.666577 1.895990 0.497511 -1.756278 0.882903 0.033729 0.519267 2.276924 0.850108 -1.152453 1.257963 0.788328 -0.480555 0.307143 -0.499213 -1.520331 -1.837725 -0.201166 -0.867821 1.216190 -0.239298 3.737811 0.408706 0.281305 0.112937 1.064230 1.632851 0.202054 2.956722 0.110764 -0.162581 1.587522 0.188269 -0.214841 0.446746 -1.641050 0.501622 0.703310 0.551886 -0.026583 1.623136 0.092646 0.862785 1.131687 -0.642462 0.366810 -1.651019
연장 -0.754894 -0.351189 1.627745 -2.207941 0.888683 -0.717009 1.512435 1.442478 -0.532529 0.456395 -1.901749 -2.015977 1.974511 0.497668 -0.350439 1.877119 -0.199915 0.808343 0.391824 0.517892 -0.730133 -1.085537 0.292084 0.702127 -0.909239 -2.014167 0.426286 -0.061239 1.114868 2.957936 0.675945 0.881399 1.505602 1.298055 -3.006605 -0.601290 -1.630460 0.214493 -0.884122 0.006170 0.506695 0.401017 0.756433 -1.144685 2.524324 -0.138412 2.057203 1.134864 0.150326 0.941215 0.210733 0.720007 0.861824 1.835780 -0.727796 1.834762 1.210498 1.331913 0.587945 -0.038840 1.880574 -0.272841 1.222106 1.732560 0.744026 -0.500967 0.624949 -0.261208 -0.936916 0.946911 2.535168 -0.175535 0.209491 -1.283848 -5.382706 -1.428136 1.756589 -0.042893 1.025230 -0.681577 -0.903676 -1.666723 1.175392 1.223176 0.328588 -1.260825 0.509469 -3.415483 -0.093973 -0.795461 0.119958 -1.226220 2.215116 0.984338 -1.659816 1.115812 1.161561 0.601552 0.496669 -0.847727
식사 1.366925 -1.688265 -1.194361 0.763157 -2.272285 1.639138 0.024320 3.004112 0.414000 -0.277402 -1.647124 -0.805389 -1.350749 -0.278950 1.251703 0.624494 1.247955 1.041960 -0.474305 0.892397 -0.798767 -1.584575 1.126591 -0.497827 1.321267 -0.817905 -1.048771 -0.154064 -0.108564 -0.429904 1.668188 -1.356498 0.678722 0.821578 1.673510 -0.245749 0.575370 -0.596058 1.400307 -0.015561 0.286388 1.016363 2.215180 -1.060075 -1.274508 -1.340456 -1.860005 2.171052 -0.088149 1.535222 -0.419149 -0.981515 -0.891385 2.096692 -1.681582 4.820856 0.797466 -0.259215 -0.031228 -0.273127 1.209771 -0.958308 0.500328 -0.603632 -0.832619 0.682412 0.119855 0.742570 -0.541555 2.483495 4.431152 -0.732162 -0.061858 -0.169500 -1.082348 -0.457138 1.629587 1.648040 -0.463981 1.666085 -1.155786 -1.321151 -0.093799 -1.388976 0.964297 2.984456 -0.674033 -2.176322 -0.955440 -1.877764 -3.516458 -0.894938 0.011785 -3.833655 -1.774689 0.875898 -1.383442 -0.590127 0.027143 -0.319330
의료 -0.617661 -2.689082 1.084658 -0.234349 1.327657 2.043730 -0.306559 0.063328 1.022503 0.440423 3.058958 1.611682 -0.576931 1.231463 -2.736182 1.154978 1.941413 0.442608 -0.839626 -2.366345 0.882209 1.480119 -0.892910 1.671656 -0.075466 -0.261515 -3.240641 -0.407578 0.224732 -0.192127 1.294284 -0.911776 -2.103816 0.394284 -1.525631 2.390637 1.408507 -0.424214 2.146736 -0.317739 1.338047 -0.783993 -0.300804 0.719376 -0.295312 0.120142 3.629845 -5.493782 1.859913 -1.590267 -1.237260 1.747891 1.167064 1.351020 1.631977 -3.315361 3.066229 0.496182 -0.201588 -2.402112 0.637419 0.054549 1.474846 1.116044 1.603313 -0.298348 2.923545 -1.161950 1.545531 0.987592 1.229808 2.288311 -0.504049 -0.325372 0.957716 1.474065 1.592682 -1.270656 -0.020117 -0.214759 3.692693 -1.070433 -1.351056 0.390751 -0.082330 -1.234290 1.742012 1.206569 -1.540537 -2.133834 -0.247661 0.535882 -0.271828 2.033620 1.672698 -1.340233 1.077699 -1.165308 3.699654 2.113326
진단 -1.882684 -1.325038 1.737334 0.529185 0.625743 -0.925924 0.667832 -0.617885 -0.689842 -0.158669 -0.632107 0.928455 0.300713 -1.004967 0.275599 -0.580635 -0.430025 -0.179663 -0.356646 -0.493243 -1.797352 -1.136979 0.063075 1.146030 -0.559485 -1.593507 -0.847144 2.190617 -1.887137 0.244065 -2.173387 -0.779273 0.062577 2.093314 1.019366 -0.249594 0.875308 0.236999 0.707518 0.825717 1.613909 -0.057388 0.474795 0.732125 0.003808 -1.199282 -0.311166 -1.607537 0.042011 0.740665 -1.376211 0.359087 0.020568 -0.335343 -0.292032 -1.101297 0.891992 -1.728116 -0.412898 -0.180171 0.769734 0.827266 0.567919 -0.752085 1.372941 -1.022234 1.470924 0.259090 0.454497 -2.822067 -1.241598 -0.999833 -0.594380 0.486450 -0.616161 -0.443739 1.448340 -0.294074 -0.019717 1.010610 1.774694 -1.481719 -0.551468 -2.065506 1.274391 1.051135 0.315119 -0.072773 -0.037807 -1.482094 0.701040 1.774264 -0.043679 0.947306 -1.799561 1.348867 -0.678017 1.524541 -0.846180 1.806884
전원 -2.041911 0.701165 2.403274 -0.411450 -2.820723 -1.308165 0.715654 -0.760025 2.425005 0.529705 2.638590 -0.305068 -0.415647 0.056911 -0.094146 -0.264854 0.595889 1.084262 0.035577 -1.089914 1.402207 -1.085290 -3.384765 0.190035 -0.016818 -1.490194 -1.908426 -0.187280 -2.421599 0.036846 -0.385268 -1.221157 -1.300243 0.192282 -0.913561 -1.231346 0.995399 -1.659830 0.484905 -0.484135 -0.581893 2.411994 0.378806 -0.785523 -0.687826 -1.224194 -1.135877 0.937639 1.208174 -0.471434 -1.030767 0.466573 1.827471 -0.755518 -1.067712 0.656517 -1.110253 -0.701929 1.449236 1.015437 0.687832 -0.122791 2.077354 -0.336884 -2.354632 -0.617699 -0.220065 1.028566 0.243200 -2.619906 -1.366356 0.216394 1.481234 0.019024 0.443506 -0.645251 0.300182 0.312563 -0.021877 0.500818 1.253607 1.511132 -1.290456 -0.950707 0.916934 -0.332509 -1.279562 -2.571218 0.411867 -1.828007 -1.530434 1.036217 -1.105477 2.096351 -1.960267 1.135278 0.198869 1.563488 2.930220 1.961982
안전 -0.457241 -1.260792 0.901458 -1.363468 -0.889423 -3.378931 0.475878 -0.335262 0.496073 -1.168452 -0.640245 -2.745130 1.995806 -0.544475 -0.043892 0.596915 -1.728309 -0.721997 -0.818410 0.312972 -1.938990 2.244393 2.081395 0.031123 0.918817 -0.403152 0.289099 -1.053144 1.690338 -0.506781 -1.442911 -2.059931 1.407286 2.592580 -0.551847 1.367664 0.239042 0.206510 1.367323 -0.386936 -1.809745 0.607495 -0.379705 -1.514837 1.521022 0.066425 0.888216 -0.091226 0.052678 0.897609 1.344724 0.805883 0.672359 1.389552 0.194246 1.438340 -1.043351 -0.496552 -0.913387 -0.597490 0.517591 -0.553034 -1.105088 1.219008 0.033937 0.559990 2.201800 -0.483958 0.212457 1.717411 1.637856 1.285936 -0.261401 2.824779 0.787036 0.883725 0.541420 2.705787 -2.258126 1.063083 1.756103 0.082476 -0.988524 -0.830286 1.360563 0.509498 -0.426387 -1.065616 0.985442 2.910221 -0.923731 -1.133051 0.843914 0.243100 0.074969 -0.320322 -0.478032 -0.166853 1.461048 -1.287882
거주 0.653583 0.075769 -1.776324 -0.554885 -0.845491 0.111261 1.888306 -0.900182 0.708801 -0.930726 0.315072 -0.823171 -0.528797 -2.392609 -1.461562 1.422378 -0.630719 -0.249555 0.598748 0.498244 0.740779 1.112142 -0.675230 0.148267 -1.617654 1.066915 -2.896232 0.087305 0.439658 1.210821 1.339433 0.588149 -1.654290 -1.822246 2.501786 2.148022 1.206998 -1.617728 -1.234582 -0.405323 1.599836 -0.696988 0.758267 0.916115 -1.661900 -0.364611 1.122098 -0.417393 -1.433369 -0.339389 2.238778 0.747736 0.397461 0.595301 -0.268516 0.831133 0.346101 0.115602 -1.765422 0.187419 -1.259828 -0.585077 0.433632 0.122579 0.855104 0.819454 -0.818361 0.426807 -1.933671 -0.282835 0.230950 -1.391679 0.592120 -0.679178 0.858483 0.889027 -0.762864 0.665632 0.423331 1.972264 -0.103047 -0.481632 0.619208 -0.158615 0.374383 -2.043125 -2.310110 0.475838 -1.070342 0.138503 0.262351 1.027549 0.750374 0.047900 1.076668 0.441713 1.093255 -0.471958 1.072096 0.770121
군민 -0.227562 0.627392 1.653083 0.251297 -2.188342 0.305843 0.213604 0.129448 2.485986 -1.020248 0.463989 -0.277314 0.075584 -0.679695 0.235183 0.802698 -2.126175 -0.728751 -1.985380 -0.901340 -1.655025 0.949805 0.576195 1.959942 1.363943 1.422456 -0.244152 -0.122247 -0.708350 0.669979 0.270052 -0.333400 0.105186 0.737849 0.817759 0.584121 0.256119 -0.193830 -1.650190 -0.025115 3.887287 2.569384 0.622194 -1.950420 2.193269 0.301298 -0.961649 1.072228 1.197569 0.454661 1.473321 -0.593829 1.097488 -0.773302 0.784327 0.237284 0.270020 -0.752757 -1.005555 1.229046 1.481427 0.630747 -0.311782 0.163764 0.534101 0.515829 0.953143 -1.587832 2.192848 0.181893 -1.462878 -1.138310 -1.557026 0.510839 1.816972 -2.112548 -0.747567 0.737137 -1.048586 -1.230772 2.392579 1.062851 -1.895271 2.086759 -1.366042 -0.187049 -0.205568 0.355826 -1.914566 0.409366 -1.273453 0.816336 -0.240876 -0.723641 -1.247752 0.104043 1.354763 -0.574572 1.712368 1.060105
집합 -1.077576 0.695453 -0.424757 -0.696054 3.173347 -0.262248 -1.783701 -0.976708 2.023664 -0.424681 -2.332077 -2.572713 0.046091 1.518127 0.642103 -0.427246 1.378849 -0.494394 -0.914549 2.683264 -0.808299 -3.038098 2.497742 -0.170941 -0.919726 -4.422376 -2.239680 -2.628615 0.351888 2.719384 2.400276 0.882248 1.295212 1.921745 0.469451 -1.333477 -1.289200 -0.290505 0.390123 -0.010978 1.339148 1.421142 0.540697 -1.405794 0.055095 1.590738 1.391557 1.572258 2.666453 0.866383 -0.870354 -1.116786 0.355419 0.914707 0.081143 0.818586 -0.627037 -0.951956 -2.192217 -0.100568 -0.224485 -0.073865 -0.314208 -0.570129 0.665280 -0.464158 0.684895 -0.004017 -0.091123 1.303927 3.658935 0.591629 0.706022 -2.953616 -2.097669 -0.760311 2.149479 -0.138758 0.090859 1.101461 -0.936977 -1.681186 -0.643831 -0.342996 2.626641 -2.466819 0.601818 -1.566964 1.763978 -1.684537 0.977915 0.531329 0.723491 -0.261589 -2.541437 1.441849 0.516870 -0.873891 0.328367 1.333216
