192 100
확진 -0.134271 0.243544 0.135760 -0.513491 -0.181470 -0.489908 0.054240 -0.237671 -0.270629 0.167887 0.082119 0.386069 -0.171396 -0.294456 -0.193919 0.412113 0.077663 0.426622 -0.162097 -0.390573 0.207550 -0.209864 0.171293 0.438509 0.203548 -0.366019 -0.079618 0.439146 0.169042 0.105694 0.164103 -0.249119 0.074592 -0.289759 0.251505 0.163675 0.139864 -0.121172 -0.141450 -0.032158 -0.347597 0.143218 -0.307823 -0.033645 0.172764 0.118318 -0.057509 0.184535 -0.153565 0.027884 0.087745 0.395232 -0.047449 0.001240 -0.156946 0.083012 0.029823 0.371832 -0.013449 -0.098558 0.417316 0.069143 0.112374 0.077151 -0.220912 0.186043 -0.000891 -0.019379 -0.101593 -0.007386 0.273522 0.308772 0.465947 -0.090201 0.600391 -0.251572 -0.252148 0.100125 -0.353869 0.200586 0.330631 0.097267 0.035466 -0.529074 -0.335995 0.590663 -0.191840 0.455133 -0.029701 0.361896 0.229177 -0.456241 -0.036939 -0.096714 0.146347 -0.055984 -0.372928 -0.319091 0.138748 -0.168422
발생 0.199404 0.200072 0.125992 -0.180648 -0.165680 -0.263595 0.217868 -0.245883 0.255024 0.116154 0.605105 0.244568 -0.111356 -0.466261 -0.003600 0.515525 0.289765 0.664779 -0.308791 -0.338023 -0.249300 -0.257386 0.083371 0.332976 0.109498 -0.182423 0.225167 0.156402 0.166446 0.322080 -0.086580 -0.506127 0.193112 0.128069 0.022257 -0.067064 0.186355 -0.452191 -0.021580 0.145554 -0.392476 -0.012363 -0.089590 -0.171536 -0.024921 0.242644 0.103556 -0.109488 -0.387415 -0.115594 0.052297 0.112941 -0.128976 0.229833 -0.400167 -0.038543 -0.105445 0.011785 0.028255 0.081287 -0.077582 -0.330076 0.128945 0.314596 -0.091501 0.329668 0.000728 -0.303754 -0.197123 -0.360457 0.257049 0.594291 0.467772 -0.145299 0.032586 -0.185184 -0.198768 -0.026465 -0.161147 -0.178801 0.158649 0.008334 0.357500 -0.573504 -0.110903 0.074282 -0.006091 0.212553 -0.287483 0.461712 -0.120444 -0.491693 -0.351451 0.217121 -0.203694 0.058001 -0.617515 -0.075910 0.088369 -0.414464
코로나 0.325393 0.241646 0.227720 -0.354550 -0.354143 -0.167358 0.028746 -0.138590 0.151213 0.157478 0.058838 -0.040527 -0.232294 -0.320470 0.054561 0.149112 0.162825 0.524548 -0.066760 -0.439537 0.270712 -0.192530 0.251385 0.206478 0.150146 -0.176224 0.060658 0.142381 -0.021624 0.431560 0.535429 -0.558322 -0.102916 -0.242731 -0.080184 -0.204463 0.068549 -0.297931 -0.336745 0.524511 -0.623801 0.087509 -0.120393 -0.302812 -0.012977 -0.267836 -0.359980 -0.016771 -0.031689 -0.174090 -0.264804 -0.135364 0.240412 0.085467 -0.282541 -0.144272 0.112993 0.370072 -0.018027 -0.006076 0.016484 -0.129223 -0.258436 0.234373 -0.028595 -0.068127 0.106008 -0.279685 -0.025060 -0.073803 -0.196240 0.496526 0.104330 0.344877 0.160430 0.060971 -0.145132 -0.121018 -0.495142 0.105411 0.168021 -0.156111 -0.452829 -0.170418 0.051393 0.004331 0.006579 0.345833 -0.097369 -0.019280 0.092920 -0.124443 -0.086148 -0.045359 0.039086 0.256325 0.053989 -0.464793 0.510450 -0.070369
착용 -0.015123 -0.137966 -0.085079 0.053973 0.201738 0.222863 -0.058065 0.180665 0.309221 0.055677 0.587224 0.317717 0.151468 0.157297 0.012757 0.225344 0.006904 -0.231481 -0.467866 -0.090941 0.292518 -0.232212 -0.040238 0.160930 -0.094139 -0.372857 -0.382216 0.452056 0.164566 0.304435 -0.302477 -0.305826 -0.094740 0.065582 -0.053075 0.165862 0.261745 -0.493679 -0.219056 0.298511 -0.517419 -0.006564 -0.437666 -0.377740 -0.282474 -0.351007 -0.148588 0.028128 0.205166 0.035228 -0.190608 -0.157950 0.051075 -0.349436 -0.285578 0.085792 0.062602 0.283249 0.010182 -0.288747 0.445359 -0.104285 0.108557 0.443051 -0.070816 0.093318 -0.078449 -0.067445 0.441762 0.054924 0.012695 0.428636 0.612445 -0.257683 0.578040 0.113546 -0.385346 -0.224125 -0.240866 -0.030312 0.304507 -0.078612 -0.316868 0.170898 -0.245149 -0.033920 -0.152982 0.151619 0.032403 0.091177 -0.377084 -0.083291 -0.426650 0.796262 0.095956 0.097176 0.194210 -0.265118 -0.016538 0.022988
방문 0.145584 -0.071207 0.198271 -0.227807 -0.072341 -0.287765 0.358965 -0.001035 0.206543 0.300824 0.592725 0.671083 0.181919 -0.229575 -0.075091 0.172856 0.206205 0.279161 -0.519697 -0.165330 0.188444 0.033878 0.288703 0.055280 0.184540 -0.437671 0.170272 0.245795 -0.047261 -0.073458 0.165550 -0.007894 0.097000 0.285656 0.113793 0.388282 0.083770 -0.155366 -0.138707 0.144524 -0.134171 0.058358 -0.202187 0.077983 -0.112496 -0.417641 -0.576324 -0.094382 0.037024 0.282435 -0.278365 0.136967 0.033077 -0.027166 -0.210577 -0.046466 0.160312 0.468222 0.088201 0.090389 0.148036 0.270087 -0.120240 0.138334 0.175538 -0.139805 -0.103580 0.100593 0.360152 0.238718 -0.060716 0.008333 0.218219 -0.111310 0.159215 0.130367 -0.343920 0.003415 -0.117095 -0.196176 -0.039621 -0.286519 -0.294705 -0.072735 -0.229852 0.010942 0.015314 0.163918 0.233559 -0.070954 -0.263700 -0.395079 -0.081317 -0.205780 0.445447 0.523285 -0.300893 -0.152321 0.378691 -0.199035
방역 -0.124689 0.203084 0.350116 -0.222328 -0.167951 -0.422774 -0.073243 0.317645 0.015889 0.216426 0.307941 -0.062286 0.148564 0.286168 -0.266096 0.640870 0.141508 0.129906 -0.619951 -0.418836 -0.241806 -0.329136 0.006016 0.389633 0.291220 0.120399 -0.056603 0.190676 0.021660 0.243328 -0.033972 -0.355064 0.319539 0.451267 -0.171838 0.002404 0.260902 -0.452861 0.098614 0.119017 -0.656246 -0.095758 -0.169116 -0.048133 0.262238 -0.190239 -0.413597 -0.253621 -0.277143 0.119841 -0.101117 0.140853 0.157630 -0.271806 0.006450 -0.134131 0.087606 0.068224 -0.067156 0.174529 0.050214 0.136924 0.336700 0.546825 0.214579 -0.091306 0.027332 0.485094 0.115569 -0.018413 -0.065782 0.086211 0.429909 -0.412874 0.486468 0.280565 -0.299438 -0.210244 -0.011631 -0.328406 0.134362 0.154061 -0.095007 -0.643818 -0.126685 0.060858 -0.174826 0.378863 0.036407 -0.073424 -0.140613 0.195245 0.163742 0.445525 -0.257442 -0.049512 0.286950 -0.180811 -0.168562 -0.462707
검사 -0.092665 0.110943 0.022624 -0.365102 -0.677841 -0.244498 -0.113932 -0.333932 -0.166575 0.401077 0.385929 0.497363 0.375992 -0.335036 -0.022003 -0.002678 -0.290468 0.137357 -0.242491 -0.129881 0.306945 0.062263 0.058672 0.243499 -0.100776 0.114782 -0.291464 0.302641 0.083934 0.173944 -0.317271 -0.480233 0.476814 0.187223 -0.139144 -0.097170 0.711026 0.098515 -0.215695 -0.408869 -0.249548 0.229377 -0.034474 -0.157872 -0.216783 0.032324 -0.859377 -0.378091 0.143189 -0.121653 0.020602 -0.117186 -0.035788 0.416746 -0.155973 0.057328 0.141301 0.154639 0.087960 -0.506360 0.220021 0.381996 -0.164800 0.622300 0.356022 0.099250 -0.111444 0.081153 0.043453 -0.577887 0.151671 -0.048267 0.540268 0.263459 0.202829 0.334133 0.228064 -0.086248 -0.197913 -0.390064 0.143928 -0.013424 -0.110149 -0.279864 0.155490 0.231119 -0.092621 0.221511 -0.367952 0.119680 0.319757 -0.229524 -0.303325 0.419186 0.422988 0.181603 0.711084 -0.161355 0.437286 0.163772
동선 -0.082192 0.098268 0.219046 -0.395095 -0.044032 -0.218526 0.233980 -0.335865 0.221468 0.175819 0.090678 0.502016 0.228364 -0.307039 0.236130 0.264937 -0.167015 0.078091 -0.309556 -0.577827 -0.206772 -0.215886 0.144948 0.051261 -0.278586 -0.137334 0.108939 0.563819 -0.149947 0.071812 0.013370 -0.229086 -0.026564 -0.099426 -0.170223 0.436932 0.292071 -0.163682 0.058053 0.174884 -0.113394 -0.101078 0.095354 0.303734 0.234317 0.096642 -0.321812 -0.098480 -0.245574 0.048759 0.426375 0.284534 0.184562 0.088731 -0.438122 -0.089332 0.112384 0.064969 -0.153119 -0.286561 0.020984 -0.173169 0.151399 0.064904 -0.003137 0.055153 -0.074305 -0.001751 -0.067891 0.339667 0.514037 0.178846 0.908598 -0.279234 0.493970 0.273062 -0.170285 -0.022822 0.159369 0.228871 0.311799 -0.153062 0.027999 -0.318729 0.281866 -0.322786 -0.314813 0.647760 0.034314 0.329931 0.324102 -0.386981 -0.256157 0.311116 0.593358 -0.170054 -0.249559 -0.000090 -0.004288 -0.109295
보건소 -0.461023 0.296463 -0.027694 -0.867619 -0.489505 -0.434070 -0.068843 0.015939 0.163085 -0.178150 0.346111 0.828117 0.007791 0.060173 -0.151261 -0.072617 0.122906 -0.107451 -0.343545 0.113644 0.147492 -0.341903 0.220211 0.080431 0.473207 -0.025106 -0.269215 0.121930 -0.072641 0.258469 -0.238268 -0.585034 0.480330 0.464746 -0.439971 0.224903 0.517623 0.086056 -0.353740 -0.209548 -0.163617 0.263692 0.054100 -0.103224 0.232219 0.004415 -0.384475 -0.000296 -0.265498 -0.311321 -0.294715 0.016197 -0.048972 0.368360 -0.164888 -0.033998 -0.233730 0.589619 0.107648 -0.171648 0.448995 0.330538 -0.524177 0.396144 0.138233 -0.111904 0.001413 0.025972 0.010736 -0.508616 0.022183 -0.537195 0.355320 0.322291 0.585424 0.282269 -0.016595 -0.097396 0.077041 0.037522 -0.036954 -0.136779 -0.322820 -0.361546 -0.052024 0.226023 0.026131 0.477070 0.295952 -0.116973 -0.128485 -0.363477 0.004090 0.481900 0.154448 0.258784 0.003359 -0.663145 0.162443 -0.075535
자제 0.318230 0.180313 0.135653 -0.018012 -0.321552 0.301233 0.330863 0.092331 0.263767 0.078066 0.620963 0.517441 -0.143777 0.276183 0.372627 0.394403 0.061867 -0.313626 -0.391771 -0.206310 0.717076 -0.502033 0.363358 0.015433 -0.050809 -0.155742 -0.000828 0.758367 0.126346 0.330938 -0.363243 -0.410788 0.574603 -0.163705 0.137612 0.120195 0.216509 -0.392560 -0.057538 0.491780 0.438427 -0.140287 -0.248299 -0.268740 -0.214880 -0.603701 -0.189187 0.271394 -0.296282 0.223310 0.050911 0.117806 -0.054396 -0.281090 -0.059146 0.048083 -0.105357 0.214154 -0.215352 -0.086164 0.313403 -0.074252 -0.141580 0.352039 0.134430 -0.186408 -0.408763 0.243499 0.556165 0.404215 -0.330055 -0.046610 0.183528 -0.269461 0.031041 -0.180091 -0.545897 -0.220502 -0.080416 -0.047793 0.402898 -0.332925 -0.386039 -0.233646 -0.176529 -0.063368 -0.467423 0.428816 0.101402 0.000119 -0.482931 -0.115669 -0.445510 0.312230 0.110552 0.011000 0.059340 -0.306070 0.477163 -0.150539
마스크 0.039061 0.008173 -0.031623 -0.305893 0.125301 -0.014380 0.438466 -0.239134 0.114023 0.198062 0.302091 0.328148 -0.024636 -0.142753 -0.099246 0.168978 0.203505 -0.156245 -0.469780 -0.204235 0.453444 -0.385548 0.272922 0.057100 0.271890 -0.410295 0.008794 0.320040 0.066916 -0.201665 -0.692386 -0.353468 0.051202 0.053649 0.067997 -0.049917 0.491898 -0.269567 0.128492 0.545493 -0.324085 -0.261795 -0.299154 -0.199251 -0.244922 -0.023712 -0.485235 -0.149794 0.155035 0.104235 -0.086882 0.149595 0.147765 -0.045686 -0.045317 0.191550 -0.243397 0.328812 -0.085970 -0.322032 0.106374 0.379771 -0.038388 0.437269 0.172547 -0.114493 -0.291423 -0.049980 0.323400 -0.050392 -0.126036 0.258218 0.764820 -0.350062 0.301814 -0.108212 -0.391917 -0.163470 -0.128725 -0.069765 0.516579 -0.275815 -0.246729 0.140026 0.081382 -0.070792 -0.112685 0.297960 0.245023 0.112132 -0.469854 0.076365 -0.006113 0.520422 0.383579 -0.051035 0.358962 -0.411084 -0.013630 -0.257247
홈페이지 0.101286 -0.163497 0.467884 -0.189529 -0.417860 -0.612357 0.186549 -0.176416 0.717025 -0.167080 0.298493 0.507674 0.451784 0.404379 -0.421802 0.637143 0.357167 -0.098573 -0.196798 -0.576245 -0.553566 -0.408957 0.317017 0.501897 -0.373134 -0.125488 0.428170 0.294798 -0.418769 0.387521 -0.402357 -0.770137 0.545329 -0.170727 -0.288722 0.056092 0.127346 -0.103098 0.015516 0.022431 -0.516171 0.123741 -0.100875 0.100551 -0.059303 0.191949 -0.369829 0.135518 -0.074547 0.152157 0.201091 0.088970 0.017001 -0.198533 -0.546973 0.440736 0.424879 -0.141778 -0.232341 -0.299210 0.375264 -0.348365 0.431123 0.384570 0.197260 0.113418 0.068857 0.506300 -0.376572 -0.060443 0.021593 0.097950 0.532655 -0.405549 0.377571 -0.024327 -0.584134 0.178704 -0.103742 0.022135 0.686065 0.144027 0.069393 -0.640513 0.493708 0.114501 -0.263915 1.260122 -0.195064 0.603079 0.467332 0.104400 0.015711 0.511779 -0.250248 -0.120172 -0.434932 0.085429 0.184480 0.052493
지역 -0.008789 0.277777 0.175999 -0.074051 -0.062293 -0.183363 -0.241465 0.058836 0.207468 0.153264 -0.024548 0.104645 -0.080996 -0.129596 0.164541 0.497431 -0.051380 0.265410 -0.691828 -0.425128 0.365824 -0.396397 0.220920 0.154350 0.223925 -0.279389 0.104986 0.244081 0.067442 0.436967 -0.101050 -0.586103 0.098767 0.107787 -0.202859 0.275207 0.318629 -0.480552 0.191549 0.236377 -0.360976 -0.386011 -0.407111 0.037560 -0.188959 -0.178888 0.099608 -0.144067 0.088405 0.119720 -0.146007 0.089629 -0.119392 0.096166 -0.201750 -0.110442 -0.009762 0.348705 0.465471 0.048327 0.214911 0.289403 0.068925 0.463227 -0.111231 0.085892 -0.206243 -0.257787 0.059346 0.132403 0.166720 0.155840 0.277607 0.131212 0.188694 0.231611 0.068311 -0.270275 -0.347102 0.102173 0.265162 -0.020462 -0.072380 -0.303417 0.212850 0.142629 0.138286 0.522780 0.045702 0.238362 -0.357218 -0.182419 0.113076 -0.039798 -0.049986 0.099608 -0.032562 -0.153820 0.312868 -0.516527
수칙 0.322399 0.458818 0.123980 0.049980 -0.209284 0.426247 0.227187 0.137564 0.607342 0.243503 0.522476 0.306819 0.158354 0.125327 0.220122 0.693436 -0.077207 -0.075213 -0.195258 -0.099832 0.132979 -0.416979 0.050887 0.324683 0.180040 -0.701836 -0.306541 0.279359 -0.050752 0.389817 -0.442241 -0.357887 0.385783 0.536037 -0.387888 -0.248124 0.215383 -0.170099 -0.152729 0.487449 -0.533349 0.202492 -0.380645 -0.250482 -0.547715 -0.018158 -0.094515 -0.117249 0.064666 -0.130629 0.438550 0.269442 -0.121775 -0.238948 0.092457 -0.039425 0.372509 0.577125 -0.404866 -0.332884 0.286551 0.201263 -0.594285 0.521407 0.228954 0.265765 -0.071662 0.222357 0.205800 0.106752 -0.134526 0.098098 0.628716 -0.166780 0.299145 -0.014303 -0.693557 -0.031845 -0.152680 0.150670 0.461400 -0.174824 -0.226726 -0.013450 -0.198018 0.008994 -0.128396 0.196814 0.130351 0.164492 -0.225656 -0.029595 -0.336854 0.558651 0.144537 -0.436228 0.292861 -0.071225 0.287242 0.012742
조사 -0.279507 0.111833 0.428243 -0.349476 -0.044122 0.083742 0.013362 -0.478561 0.128842 -0.055198 -0.057295 0.525890 0.425040 -0.171583 0.201935 0.061824 -0.001663 0.006373 -0.352838 -0.198625 0.028597 -0.176953 0.112656 0.397783 -0.408060 -0.191337 0.086053 0.663249 0.073216 0.194264 -0.318136 -0.444647 0.591525 -0.197660 0.084534 -0.045219 0.657752 -0.524999 -0.175327 0.084673 -0.514796 -0.017669 -0.013129 -0.111768 0.316507 0.170454 -0.018916 0.108078 0.153756 -0.170665 0.206974 -0.120692 0.377452 0.010254 -0.314123 -0.015628 0.147468 -0.023048 -0.130346 -0.014971 0.127613 0.005027 0.214865 0.421484 0.137678 0.260343 -0.116912 0.270025 -0.108400 -0.364650 0.120938 0.455101 0.885343 0.156898 0.050348 0.022129 -0.442832 0.091937 -0.255985 0.021422 0.345860 0.283141 0.011852 -0.288766 0.213004 0.266150 -0.279643 0.959480 -0.231660 0.527643 0.793257 -0.203439 -0.281545 0.606438 0.268563 -0.110070 -0.019194 0.075392 0.487107 -0.216024
광주 0.069125 0.103797 0.027640 -0.091314 -0.347825 -0.430379 0.217116 -0.370869 -0.079618 0.381005 0.261806 0.857160 0.300989 -0.305157 0.251656 0.429240 0.128727 0.252139 -0.320856 -0.329381 0.252330 -0.347932 0.188328 -0.081893 0.434953 -0.260326 -0.097486 0.447550 0.227346 0.079189 -0.170445 -0.732288 0.001875 -0.105645 0.149488 0.460713 0.032890 -0.171943 -0.256185 0.166194 -0.155927 -0.056665 -0.267357 -0.276127 0.272769 -0.176473 -0.376937 0.608777 0.003662 0.267119 0.081764 0.019564 -0.168819 -0.023982 -0.134180 0.104967 -0.276779 0.063193 0.340132 0.022803 0.101707 -0.025834 0.035987 0.818575 0.060521 -0.501170 0.179902 -0.502628 0.020794 0.067659 -0.416427 0.218160 0.082740 -0.140509 0.280395 0.064616 -0.190891 0.221291 -0.192551 -0.029986 0.035877 0.200991 -0.001932 -0.491168 -0.383139 0.160102 0.034964 0.159416 0.232647 0.307287 0.130760 -0.403830 -0.261287 -0.184574 0.095378 0.299053 -0.635864 -0.123678 0.523899 -0.324213
역학 -0.119361 0.038688 0.041483 -0.419547 -0.211492 -0.251349 -0.203024 -0.461183 0.223587 -0.063910 0.096076 0.147154 0.546860 0.092500 0.107457 0.425809 -0.107101 0.301587 -0.324020 -0.490637 0.381312 -0.370539 0.216414 0.518802 -0.438722 -0.173889 -0.275037 0.339136 -0.092795 -0.003971 -0.235696 -0.785493 0.693467 -0.044982 -0.177971 0.083546 -0.066400 -0.167093 0.232514 -0.225066 -0.524930 -0.055111 -0.101534 -0.102036 0.218789 0.258239 -0.115070 -0.175001 -0.389409 0.113231 0.250552 0.084186 0.214367 0.446062 -0.547089 0.076309 0.222081 -0.017830 -0.418616 -0.493375 -0.017851 -0.239316 -0.179593 0.479700 0.146152 -0.093541 -0.197269 0.315105 0.182240 -0.157619 0.343405 0.376260 0.582809 0.357618 0.282229 -0.065319 -0.413103 0.048092 -0.209282 -0.231659 0.956661 0.304309 0.121628 -0.382034 -0.121077 0.138824 -0.321711 0.819353 -0.436423 -0.005742 0.505079 -0.277445 -0.185403 0.162419 0.486766 0.003261 -0.199245 0.257571 0.203124 0.228699
방문자 -0.190441 0.116571 0.385093 -0.472740 -0.602511 -0.631860 -0.099575 -0.213985 0.447502 0.395182 0.893070 0.806397 0.218118 -0.283116 0.311739 0.034304 -0.101942 -0.058903 -0.001941 0.126804 0.221355 0.239928 0.295181 -0.049369 -0.144785 -0.256377 0.015201 0.309523 0.062428 0.297066 -0.221250 -0.172053 0.156899 0.086478 0.262589 0.281218 0.349694 -0.219715 -0.139166 0.031481 0.135955 0.202181 -0.044273 0.046423 0.296590 -0.202542 -0.793070 0.276328 -0.341348 0.242880 -0.157347 0.189814 0.072837 0.185911 -0.187696 0.224212 -0.360353 0.338905 0.166115 0.311677 -0.165061 0.265580 -0.297624 0.190959 0.239333 -0.209645 0.023213 0.115308 0.149644 0.096982 -0.126710 -0.304670 0.525241 0.294908 0.021261 -0.164502 -0.119448 0.144983 -0.289877 0.177309 -0.025669 -0.251060 -0.464153 -0.331322 -0.193606 -0.087463 -0.112277 0.187072 0.180352 -0.130028 0.048620 -0.169016 -0.436732 0.162889 0.074932 0.173947 -0.061965 -0.187579 0.516297 0.054855
공개 -0.052019 0.016892 0.670314 -0.230565 0.270614 -0.413214 0.230910 -0.120139 0.277909 -0.210354 0.312137 0.243647 0.267606 0.106891 -0.307856 0.154726 -0.028914 0.282929 -0.419979 0.043460 -0.424686 -0.311207 0.157482 0.087213 -0.718485 -0.430632 0.337838 0.502177 -0.078098 0.007380 -0.392731 -0.855339 0.472681 -0.036127 -0.374946 -0.134827 0.099400 -0.741944 0.304641 0.027336 -0.368718 0.034680 -0.405488 -0.066159 -0.004924 -0.041917 0.025574 -0.154070 -0.073300 0.109672 0.340406 -0.212575 0.172504 0.002829 -0.581143 0.350093 0.120731 0.080643 -0.345075 -0.336813 0.115559 -0.195837 0.220030 0.202163 0.400028 0.255488 -0.009632 0.142573 0.308632 0.074556 0.081720 0.551852 0.521451 -0.163197 -0.280391 -0.148450 -0.707758 0.127108 -0.052555 0.244849 0.903970 -0.347999 -0.473719 -0.169454 0.200146 -0.139600 -0.345021 0.535400 0.055212 0.319642 0.112135 -0.453194 0.020412 0.172785 -0.138463 -0.204423 0.111879 -0.041740 0.483491 -0.223774
교회 -0.055687 0.301902 0.072412 -0.762761 -0.470673 -0.422308 0.132138 0.085297 0.305661 0.047742 0.529210 0.790827 0.376519 -0.135276 -0.095524 -0.090518 0.136046 0.500502 -0.219380 0.051888 0.179036 0.079566 -0.046438 -0.064915 -0.465049 0.066773 0.266338 0.346556 0.240124 0.083013 0.242038 -0.897535 0.460095 -0.171317 -0.198097 0.514659 0.026465 -0.156894 0.046763 0.113645 0.043089 -0.203180 0.122057 -0.176836 -0.238566 0.021674 -0.497352 0.312087 -0.407644 -0.032090 -0.145034 0.107026 -0.284039 0.086123 -0.094183 0.030525 0.108852 0.484964 0.412253 -0.067249 -0.249671 0.024302 -0.353391 0.484244 0.008779 0.279570 -0.197369 -0.194723 0.362857 0.076947 -0.159465 0.323482 0.464492 -0.371373 -0.158983 -0.300661 0.048560 0.230804 -0.316432 0.013161 -0.387545 0.010178 0.050618 0.003286 0.175280 0.338932 -0.278338 0.783140 -0.400939 -0.277375 -0.194757 -0.716504 -0.517025 0.315075 -0.421306 0.090959 0.009995 -0.219188 0.609721 -0.471464
거리 0.347177 0.405857 0.021114 -0.125610 0.162459 0.039666 0.306400 -0.383322 0.635072 0.201719 0.136941 0.027851 -0.071285 0.214231 0.136270 0.246338 0.139687 -0.333848 -0.343324 -0.012207 0.448342 -0.510839 0.085632 -0.083531 -0.412763 -0.809158 -0.295640 0.244151 -0.100600 0.585514 -0.103670 -0.328924 0.351964 0.378488 0.061039 0.053192 0.142628 -0.179159 -0.207659 0.108080 -0.616883 -0.079349 -0.273988 -0.230263 -0.078559 -0.029204 -0.234906 -0.320099 0.023581 -0.128736 0.459789 0.133211 0.056498 -0.074501 -0.307302 0.450126 0.337465 0.550221 0.086089 -0.312632 0.455107 0.270922 -0.104692 0.879974 -0.020881 -0.163832 -0.420606 -0.162257 0.533871 0.273978 -0.073363 0.592231 0.687712 -0.091549 0.068579 -0.077540 -0.387144 -0.560483 0.157358 -0.351024 0.184483 -0.219671 -0.707557 -0.112230 0.126136 0.112974 -0.105417 0.874987 0.515045 -0.116686 -0.791177 -0.261450 0.140807 0.508449 -0.123371 -0.223802 0.084053 -0.305298 0.161470 -0.107461
완료 -0.275837 -0.268617 0.059654 -0.240177 -0.356395 -0.247462 0.009240 -0.440275 0.370028 0.402224 0.442004 0.263758 0.124490 -0.536273 -0.203109 0.442764 -0.023223 0.208242 -0.155591 0.060457 0.009236 -0.481771 -0.385516 0.417733 -0.227451 -0.181533 0.456293 0.507521 -0.444202 -0.060733 -0.055910 -0.527854 0.492498 0.041288 -0.241488 0.001697 0.158869 -0.173009 -0.147926 0.225869 -0.492824 0.323363 -0.028296 0.254592 -0.258540 0.231477 -0.358024 -0.014342 -0.071683 0.022680 -0.007459 0.014530 0.088432 -0.151023 -0.122204 -0.249635 0.070400 0.279973 -0.111156 -0.183822 0.469298 -0.140426 -0.061568 0.210242 -0.103300 0.256634 -0.097678 0.801885 -0.480679 -0.088171 0.018804 0.128199 0.522998 -0.192597 0.801281 -0.156480 -0.565420 -0.257763 -0.111858 -0.115967 0.623617 -0.181137 -0.058739 -0.760445 -0.265659 -0.110641 -0.484018 0.469415 0.016981 0.164459 0.010818 0.142841 -0.037738 0.350679 0.397449 -0.064378 0.072256 -0.051980 0.111990 -0.318555
집회 0.131377 -0.122296 0.415469 -0.606249 -0.363655 -0.596495 -0.157827 0.356161 0.096126 -0.249026 0.263473 0.723418 -0.002058 0.151183 -0.031961 0.320952 -0.168562 0.224595 -0.434380 -0.221014 0.469940 -0.094727 -0.025990 -0.062767 0.170620 0.228847 0.307040 0.502266 0.691713 0.124679 0.029477 -0.598801 0.655189 0.615785 -0.234743 0.195094 0.468517 -0.264924 -0.239411 -0.055132 0.114456 0.353440 0.219356 -0.441217 -0.228411 -0.194799 -0.964524 -0.173825 -0.129357 -0.078586 -0.507120 -0.034562 0.230648 -0.121489 -0.360339 -0.224204 0.238088 0.252237 0.303213 -0.158334 -0.063144 0.168609 -0.396933 0.337155 0.015679 0.153061 -0.060237 0.020874 0.339422 0.267182 0.096541 -0.232836 0.774560 0.138626 0.021883 -0.024340 -0.072564 0.275158 -0.520325 0.327047 -0.008045 0.317532 -0.276946 -0.582427 0.193360 0.150037 -0.002071 0.309574 -0.544536 -0.052849 0.076520 -0.641237 -0.543367 0.512038 -0.257241 0.258536 0.132778 0.211904 0.811663 -0.119091
두기 0.143633 0.200486 0.332777 0.117465 -0.242059 0.193403 0.385502 0.226550 1.171550 -0.148908 0.464036 0.240837 -0.165729 0.242830 -0.191225 0.381976 0.439049 0.152115 -0.222672 -0.288240 0.334897 -0.314660 0.165126 0.069412 -0.487156 -0.430768 -0.500645 0.786626 -0.126273 0.256126 -0.377558 0.023398 -0.021459 0.374164 -0.051502 0.173230 0.292316 -0.137946 0.052861 0.570239 -0.361861 0.042295 -0.624829 -0.530338 -0.155357 -0.335199 -0.444653 -0.292582 0.083238 0.071911 0.088709 0.233162 0.269460 0.069737 -0.077665 0.647728 0.161269 0.213064 0.155346 0.027725 0.462786 0.105346 -0.438576 0.575432 -0.067230 -0.360809 -0.535478 0.041369 0.338869 0.338588 -0.086626 0.248718 0.631758 -0.350095 0.261799 0.358613 -0.545619 -0.516820 -0.273632 0.036728 0.482535 -0.207426 -0.219604 0.193922 0.373116 -0.075404 -0.268331 0.671987 0.209167 0.546685 -0.453687 -0.311527 0.083285 0.548801 -0.228190 -0.443226 -0.002507 -0.296376 0.055800 -0.065792
접촉자 -0.297521 0.045438 0.159850 -0.591898 -0.410967 -0.171039 -0.240759 -0.383462 0.088149 0.040239 0.251801 0.157293 0.189924 -0.613327 0.175482 0.142831 -0.457669 -0.289945 -0.288655 -0.086080 0.159786 -0.410888 0.057123 0.301626 -0.129318 -0.569355 -0.142870 0.637755 -0.218863 -0.249514 -0.104248 -0.487050 0.089362 -0.218192 -0.093055 0.038098 0.353871 -0.317131 -0.030510 0.302801 -0.084673 -0.075873 -0.041356 0.230444 0.045571 -0.096212 -0.449620 0.024450 0.151362 0.247930 0.108992 0.041745 0.360858 0.122104 -0.284031 0.251407 -0.138301 0.152952 -0.078637 -0.029370 -0.005647 0.162257 0.001762 -0.032767 -0.106726 -0.062411 0.219702 0.152389 0.015463 -0.079748 0.234490 0.134044 0.727599 -0.048260 0.407004 -0.175669 -0.200479 0.065875 -0.451225 -0.325480 0.741918 -0.252567 0.086712 -0.392032 -0.243807 0.202689 -0.048347 0.560158 -0.242183 0.142403 0.609173 -0.056466 -0.004946 0.315378 0.448014 0.180212 -0.132910 -0.001056 0.259296 -0.067509
서울 -0.178621 0.144893 0.155032 -0.789731 -0.368386 -0.328014 -0.301485 0.226693 0.042846 -0.066905 0.470158 0.480302 0.025074 -0.053999 0.414331 0.222267 0.066992 0.537306 0.079489 -0.541623 0.259790 -0.267465 0.088597 -0.320377 -0.279689 0.144456 -0.116644 0.171099 0.548648 0.608759 0.007197 -0.173175 0.928809 -0.230202 0.034960 0.213650 0.357870 -0.050125 -0.114776 0.272639 -0.358368 -0.126626 -0.171750 -0.006801 -0.087414 0.208156 -0.625504 0.261807 0.143800 -0.160818 -0.152796 0.175244 0.058775 0.046641 -0.301108 0.124533 0.128961 0.573139 0.260224 0.157814 0.063473 -0.325085 -0.286186 0.397423 -0.142682 -0.199127 -0.018979 -0.570495 0.405609 -0.116805 -0.053752 -0.058233 0.666298 0.302549 -0.319794 -0.038659 -0.225793 -0.034070 -0.419612 0.142984 0.215875 0.282559 -0.478133 -0.178241 0.257569 -0.144823 0.183404 0.739241 -0.379334 0.223998 0.025383 -0.240071 -0.291292 -0.029523 -0.037444 0.209216 -0.546093 -0.218488 0.398775 -0.138704
시설 0.198296 -0.324458 0.320197 0.033131 -0.150036 0.299714 0.013337 -0.130894 0.616423 0.215438 0.243738 -0.185067 0.225352 -0.349891 -0.417747 0.422985 -0.073827 0.069383 -0.453435 -0.560432 -0.142146 -0.326651 0.363431 0.082151 0.369610 0.124084 0.081829 0.513570 0.045518 -0.104876 -0.515220 -0.400528 0.361538 0.340495 0.328960 0.404976 0.216137 -0.207802 0.040601 0.210950 -0.086170 0.245530 -0.247420 -0.157992 -0.174692 -0.567538 -0.565785 0.143737 -0.287691 0.227608 0.075897 -0.244759 0.366406 0.270928 0.243790 0.049694 0.400190 0.501850 -0.193214 0.062823 -0.081478 0.209996 -0.387084 0.310433 0.067211 0.229765 0.171214 -0.383195 0.105226 0.186033 0.308094 0.792928 0.197129 -0.261359 0.663260 0.148950 -0.524675 -0.178715 0.290069 -0.023785 -0.075486 -0.400673 -0.310681 -0.220981 0.111395 0.088518 0.069367 0.423568 0.126374 0.126474 0.025354 -0.110118 -0.254577 0.543732 -0.248680 0.526439 -0.019748 -0.203106 0.361348 -0.312067
예정 -0.357838 0.198623 0.467032 -0.248356 -0.101941 -0.286441 -0.031180 -0.165559 0.410076 -0.024041 0.308548 -0.163522 0.286252 -0.093499 0.115100 0.006564 -0.047853 0.467827 -0.440501 -0.457071 -0.240558 -0.156924 0.454056 0.384576 -0.481699 -0.072166 -0.064565 0.077303 0.164069 0.195699 -0.233051 -0.633082 0.027988 0.470555 0.120254 -0.226047 0.334322 -0.327314 -0.282284 0.202499 -0.770674 0.253949 0.192062 -0.220868 -0.112936 0.340992 -0.193619 -0.481706 -0.169718 -0.266068 -0.315596 0.102004 0.424826 -0.034105 -0.276509 0.315818 -0.367668 -0.112194 -0.287471 -0.460225 0.448687 -0.206067 0.359479 0.526250 -0.341201 0.174356 -0.347619 0.635849 -0.076415 -0.210600 0.339310 0.346483 0.784766 0.013126 0.500579 -0.041724 -0.753047 0.060951 -0.173923 0.113567 0.736311 -0.118178 -0.046206 -0.457794 0.139147 0.012598 -0.333265 0.768891 -0.194368 0.276485 0.024156 0.028655 -0.258810 0.499677 0.198840 -0.006978 -0.039801 -0.594527 0.118429 -0.503134
준수 0.254321 0.256679 0.227847 0.174247 -0.040431 0.014547 0.173816 -0.178511 0.370766 0.249461 0.319527 0.187507 -0.269205 0.098256 0.274205 0.406602 0.057449 0.103627 -0.556295 -0.345706 0.503244 -0.307002 0.250434 0.295932 -0.405243 -0.396696 0.152719 0.555021 0.034429 0.094998 -0.429924 -0.289325 0.164243 0.203303 -0.209443 -0.060896 0.116822 -0.233994 -0.034113 0.120799 -0.329993 0.114519 -0.154052 -0.213084 -0.419556 -0.359786 -0.279902 -0.498214 -0.285358 -0.021431 0.165853 0.222250 0.093941 -0.008474 -0.079518 0.286306 0.062936 0.128258 -0.068682 -0.113529 0.667594 0.061168 -0.321259 0.774053 0.195244 0.202170 -0.203942 0.113384 0.771054 0.001198 0.169261 0.244504 0.294693 -0.279821 0.293139 -0.266394 -0.745448 -0.199934 -0.279266 -0.105350 0.316065 -0.082217 -0.146071 -0.049747 -0.130562 0.120800 -0.339562 0.288898 -0.029373 0.074872 -0.543030 -0.175008 -0.242885 0.773960 0.074383 -0.273449 0.265831 -0.252098 -0.082507 -0.000349
사랑 -0.027292 0.402653 0.009183 -0.781544 -0.509596 -0.658638 0.222551 -0.173616 0.131715 -0.490811 0.220569 0.476982 0.076302 -0.230191 0.292207 -0.200709 -0.172253 0.717832 -0.421190 -0.166152 -0.160164 -0.055224 0.093315 -0.204887 -0.227731 0.010767 -0.243174 0.214625 0.514073 0.135849 -0.469393 -0.572247 0.579288 0.159802 -0.188001 0.473823 0.293311 -0.143836 -0.151084 0.180777 -0.374091 0.030742 0.245885 -0.439780 0.281715 -0.081364 -0.932687 0.162124 -0.602035 0.227535 -0.489292 0.206937 -0.059052 -0.095878 -0.410181 -0.050167 0.595016 -0.003756 0.519519 -0.498341 0.144492 0.193565 -0.285064 0.292162 0.059869 -0.046274 0.171471 0.003573 0.102727 -0.221689 -0.056885 0.294099 0.839703 -0.062153 0.011741 -0.314429 0.084026 0.431713 -0.161040 0.205673 -0.025849 0.252599 -0.146871 -0.123801 0.236984 0.039651 -0.085274 0.604862 -0.364246 -0.073035 -0.307805 -0.875969 -0.649918 0.240243 -0.441904 0.205790 -0.146326 -0.148920 0.781492 0.138008
블로그 -0.111665 0.649418 0.352128 -0.063678 -0.422387 -0.623568 0.419328 -0.576346 0.645876 -0.105181 0.508638 0.400194 0.628988 -0.184216 0.059831 0.283258 -0.079274 0.176590 -0.388672 -0.193668 0.211927 -0.177312 0.498894 0.425896 0.055271 -0.400157 -0.170005 0.412829 -0.511386 0.487157 -0.493760 -0.481372 0.484661 -0.310469 -0.294426 0.396771 0.186186 -0.343547 -0.154561 0.189786 -0.605526 -0.162674 -0.354875 0.010054 -0.003888 -0.011450 -0.251487 0.229688 -0.390297 0.018937 0.086286 0.004013 -0.155925 0.179678 -0.643321 -0.023282 0.433747 -0.061462 -0.366787 -0.271870 -0.041122 -0.489993 0.331480 0.217490 -0.264234 -0.235264 0.278268 0.702264 -0.003018 0.203222 -0.259807 0.365407 0.711220 0.361939 0.087599 -0.100933 -0.447846 -0.048299 -0.403506 -0.284820 0.841570 0.018899 -0.726504 -0.097742 0.036917 0.101871 -0.587555 1.170776 0.021939 0.960966 0.588114 0.018494 -0.100612 0.722191 -0.024747 0.112904 -0.529005 0.068405 -0.112639 -0.532185
소독 -0.251334 0.235060 0.134473 -0.251866 -0.125214 -0.551267 0.074599 0.167571 0.176449 0.090591 0.643461 0.280236 0.196426 -0.427544 -0.431206 0.447597 0.179178 -0.106259 -0.404906 0.328771 -0.097851 -0.533501 -0.132401 0.467855 -0.063059 -0.375058 -0.300712 0.418806 -0.413099 0.166481 0.098280 -0.098795 0.272096 0.247535 0.068700 0.011987 0.101234 -0.549565 0.083550 0.153694 -0.426513 0.202265 -0.255811 0.047105 0.155605 -0.104283 -0.314666 -0.120172 -0.292813 -0.069793 -0.033395 -0.117674 -0.229269 0.053956 -0.132508 -0.047042 -0.112876 0.204469 -0.219675 0.301271 -0.009886 -0.000228 0.120297 0.382849 -0.152344 0.114330 -0.153295 0.165765 -0.182327 -0.197396 0.031857 0.126101 0.453154 -0.281130 0.757855 0.302865 -0.603418 -0.520355 -0.181124 -0.188057 0.843593 0.152891 -0.031319 -0.115026 -0.248385 -0.277374 -0.355319 0.564747 -0.003700 0.135778 0.364071 -0.128313 0.052907 0.528467 -0.170305 -0.209484 0.123027 0.273714 -0.227206 -0.018421
격리 0.369409 -0.078366 -0.123904 -0.240982 -0.322088 -0.470520 -0.014962 -0.243190 0.308768 0.089267 0.138392 0.343111 -0.104480 0.015757 -0.202754 0.414084 0.394627 0.147303 -0.017637 -0.378806 0.074758 -0.236144 -0.089895 0.500940 -0.168517 -0.432292 -0.077846 0.694716 0.069173 0.321883 0.112240 -0.264076 0.463755 0.189010 0.048717 -0.105576 0.013009 -0.140161 -0.329946 0.190817 -0.544180 0.101018 -0.044324 -0.155726 0.215894 -0.089804 -0.220634 0.121192 0.037982 0.367062 0.056943 0.103332 0.243214 -0.157948 -0.603637 -0.435468 -0.409792 0.270167 0.264203 0.116272 0.384537 -0.106064 -0.100019 0.457441 0.387327 -0.120138 0.145473 0.675761 0.043088 -0.566633 0.179750 0.196942 0.212313 0.196465 0.687882 -0.144215 -0.108234 -0.310626 0.098800 -0.386104 0.368254 0.155270 0.009656 -0.687944 -0.278263 -0.089392 -0.403101 0.899797 -0.215237 -0.014597 0.420545 -0.263283 0.060556 0.584026 -0.048087 0.015082 -0.182112 0.072642 0.137899 -0.119633
관련 -0.169880 0.112275 -0.305998 -0.571788 -0.147128 -0.348881 0.174607 -0.043120 0.098928 0.194279 0.678008 0.219653 -0.111714 -0.325022 0.037261 0.025238 -0.222992 0.348417 0.056653 0.009902 -0.133259 -0.353553 -0.088317 0.337074 -0.118186 -0.339249 -0.060287 0.230247 0.389183 0.132491 0.191644 -0.486489 0.419252 -0.011119 -0.133030 0.306866 0.414266 -0.378193 -0.070378 0.193139 0.223099 0.101303 -0.144707 0.136965 -0.131707 0.181433 -0.475014 0.353719 -0.167311 0.079196 0.294577 0.061114 0.088148 -0.079116 -0.179722 0.060768 -0.185221 0.041400 0.244800 -0.076480 0.109757 0.301384 -0.066117 0.248236 0.075415 -0.435015 0.402790 -0.057043 -0.137904 -0.031954 -0.086735 -0.250538 0.390335 -0.013578 0.341840 0.121160 -0.196362 0.086265 -0.288891 -0.127460 0.382448 -0.207555 -0.121758 -0.297084 -0.161746 0.062295 -0.100907 0.323953 -0.203837 0.224117 0.083621 -0.173296 -0.071822 0.120658 -0.214157 0.187288 -0.235100 -0.193671 0.231410 -0.080383
이용 0.327865 -0.081775 0.162857 -0.302193 -0.136916 -0.236701 0.187871 0.055186 0.537414 0.368695 0.754173 0.415061 -0.100267 -0.312751 0.149354 0.319077 -0.192929 0.461753 -0.832389 -0.150522 0.019383 -0.136318 0.219685 0.449890 0.191130 -0.433426 0.340296 0.368991 -0.227492 0.040469 -0.139877 -0.110308 0.514304 0.053265 -0.060759 0.404349 0.178214 -0.293269 -0.354202 0.109434 0.196514 0.146471 -0.269479 0.112807 -0.241612 -0.584459 -0.665817 -0.015653 -0.384484 0.202421 0.202664 -0.140234 0.236081 0.068436 0.074886 -0.197793 0.350857 0.623635 -0.307583 -0.149520 0.165920 0.219188 -0.040953 -0.038908 0.205111 0.011916 -0.155078 -0.125563 -0.022731 0.307851 -0.123465 -0.110376 0.066446 -0.333434 0.853326 0.277917 -0.472305 -0.582031 0.043505 0.036447 -0.045599 -0.266482 -0.140239 -0.054798 -0.040735 0.066634 0.058507 -0.113770 0.479531 0.085355 0.110510 0.004260 -0.158394 0.514481 -0.052741 0.366402 0.247332 -0.148181 0.321055 -0.221938
내용 -0.169523 0.388552 0.290529 -0.168240 -0.165123 -0.215221 0.374417 -0.259091 0.169403 -0.218437 0.358836 0.485337 0.696288 -0.366812 -0.454360 0.445509 -0.375938 0.323799 -0.039613 -0.114196 0.091279 -0.092690 0.363496 0.094817 -0.246487 0.020475 -0.197327 0.339430 -0.512822 0.069474 0.038748 -0.726766 0.491115 0.155402 -0.110818 0.638379 0.573368 -0.168024 0.186797 -0.001745 -0.823513 0.385853 -0.280419 -0.220770 -0.122933 0.210332 -0.360610 0.056565 -0.507689 0.155733 0.306964 0.188207 0.128834 0.051024 -0.548481 -0.383831 0.609956 -0.110471 -0.214203 -0.648188 0.145401 0.355512 -0.247963 0.538176 -0.171665 -0.119073 -0.274348 0.643268 -0.250898 0.353330 -0.181340 0.247562 0.521201 0.025269 0.656205 0.064491 -0.590668 0.070027 -0.228277 -0.169947 0.739795 0.077894 -0.246488 -0.114051 0.120645 0.228398 -0.640924 0.853088 -0.112266 0.589626 0.022186 -0.330851 -0.281497 0.605074 -0.309058 -0.442116 -0.282528 0.265102 0.102299 -0.306613
진료소 -0.244196 -0.137000 0.137748 -0.683705 -0.580555 -0.660787 -0.405637 -0.246296 -0.140988 0.096807 0.357120 0.790689 0.316417 -0.092079 -0.353567 -0.040954 -0.078562 -0.425283 -0.218055 0.187618 0.095083 -0.590031 0.306591 -0.357954 -0.209988 0.242872 0.067585 0.721663 0.090623 0.621866 -0.634169 -0.840987 0.439111 0.364324 -0.446241 0.358122 0.149958 -0.180362 -0.195957 -0.334880 0.014431 0.455646 0.226514 -0.335699 0.312619 -0.559564 -0.546800 0.035285 0.039316 -0.329751 -0.001340 0.173910 -0.144090 0.091838 -0.373910 0.002263 0.109373 0.239777 -0.154429 -0.568379 0.133377 0.134680 -0.118220 0.178685 -0.258983 -0.230034 -0.379339 -0.142263 -0.027199 -0.520591 0.211579 -0.050884 0.242966 0.197877 0.268303 0.195828 -0.197204 -0.263989 -0.164834 0.041329 0.364030 -0.121686 -0.317112 -0.410951 -0.048736 -0.306170 -0.213184 -0.007774 -0.148248 0.084164 -0.225548 -0.342057 -0.367633 0.327079 0.170962 0.304907 0.123914 0.008003 0.101258 0.016911
수도 0.471967 0.470634 0.416478 -0.392274 -0.415723 -0.086855 0.066153 0.052524 0.059224 0.011324 0.237738 0.332235 -0.306300 -0.216856 0.317279 0.578806 0.077094 0.214171 -0.566078 -0.657529 0.162937 -0.670682 0.404183 -0.087413 0.143862 -0.480356 -0.258891 0.090274 0.175888 0.357047 -0.270647 -0.076490 0.253582 -0.046521 -0.041652 0.568383 0.448734 -0.206700 -0.104609 0.195850 -0.202895 0.087679 -0.250922 -0.232931 -0.162671 -0.382620 -0.473580 -0.201029 -0.010629 -0.037742 -0.327004 0.404412 -0.199752 0.060442 0.021309 0.238995 0.120476 0.136503 0.384363 -0.137699 0.229382 0.003724 -0.432211 0.279917 -0.019713 -0.232443 -0.005229 -0.344821 0.425837 0.150761 -0.175810 0.087506 0.175985 0.105319 -0.281469 -0.014989 -0.092444 -0.314313 -0.133368 0.115587 0.245441 -0.039968 -0.499472 -0.109007 0.285989 -0.032090 0.212998 0.479102 -0.235835 0.383224 -0.661613 -0.692691 -0.215091 -0.164582 -0.204215 0.350561 -0.066303 -0.210966 0.641944 -0.062954
추가 -0.110509 0.254624 0.372444 -0.503607 0.024422 -0.358463 -0.173723 -0.393999 0.134032 -0.178592 0.165289 0.507688 0.238541 -0.243158 0.168202 0.351820 -0.130475 0.152785 -0.470709 -0.155006 -0.334730 -0.346786 0.432278 0.309783 -0.053500 -0.539399 0.017467 0.156895 0.062500 -0.148298 0.098543 -0.422782 0.238388 -0.192327 -0.120241 0.251740 0.068059 -0.343873 -0.104572 -0.087279 -0.369227 0.142047 -0.163494 -0.160860 0.175795 0.056705 -0.213306 -0.112112 -0.090900 -0.121214 0.211226 -0.042693 0.213573 0.257015 -0.397397 0.054011 -0.169135 0.049567 -0.046810 -0.141573 0.184125 -0.019215 -0.096625 0.208173 0.023131 -0.250479 0.312952 0.179102 0.140762 -0.141339 0.131740 0.287059 0.295436 0.207951 0.270140 0.145450 -0.113509 0.023586 -0.215395 0.171705 0.402451 0.007276 -0.082773 -0.169688 0.144865 0.414419 -0.008647 0.642104 -0.339353 0.383926 0.539288 -0.384813 0.011264 0.416182 0.002439 0.157626 -0.283781 -0.023177 0.117539 -0.190710
모임 0.125653 0.089915 -0.173755 0.128698 0.062898 0.155036 0.239695 0.104015 0.653001 -0.050132 0.433785 0.401809 -0.023323 -0.011349 0.085195 0.403588 0.633746 -0.096864 -0.626614 -0.235087 0.334786 -0.293039 0.251633 0.083711 0.281959 -0.411206 0.186899 0.024276 0.056410 0.290717 -0.456569 -0.481304 0.677371 0.306188 0.006510 0.773238 0.008338 -0.517537 0.141458 0.038509 -0.148655 -0.057432 0.318991 -0.436123 -0.635781 -0.160375 -0.581149 0.083706 -0.250908 0.145953 -0.230418 0.032918 -0.036381 -0.095249 0.001044 0.133404 0.074135 0.267596 -0.058934 -0.187602 0.318942 0.092934 0.047261 0.358950 -0.090527 -0.241129 -0.234382 -0.207400 0.508471 0.276120 -0.297317 0.162926 0.248056 -0.015742 0.061704 -0.164648 -0.626111 -0.044483 -0.460942 -0.099620 0.540033 0.159738 -0.401841 0.181241 0.062961 0.079869 0.163528 0.566612 -0.194798 0.489614 -0.627737 0.141997 -0.405630 0.559112 -0.050088 0.344222 -0.335688 -0.152748 0.481806 -0.230437
선별 -0.077472 -0.135110 0.246576 -0.967302 -0.817958 -0.052188 0.052700 -0.098735 -0.106193 -0.242420 0.291298 0.759038 0.285218 -0.438936 0.053243 0.204018 -0.055464 -0.108993 -0.646118 0.244779 0.216941 -0.016261 0.234527 0.023062 -0.151135 0.374580 -0.115594 0.455692 0.072924 0.431813 -0.688524 -0.794860 0.193993 0.224647 -0.064907 0.226052 0.804160 -0.322029 -0.511315 0.094579 -0.233116 0.385417 0.100803 -0.179395 0.228269 -0.082749 -0.174829 -0.219916 -0.352142 -0.006604 -0.149830 -0.161276 0.135189 0.309687 -0.266121 0.279659 -0.013872 -0.038512 -0.180062 -0.158960 0.533302 -0.029604 -0.383604 0.170915 0.159103 -0.350252 -0.380247 -0.106746 0.153614 -0.563077 0.058650 -0.114057 0.417772 0.458474 0.116187 0.108957 -0.272288 0.047323 0.044043 0.067634 0.189013 0.277195 -0.099417 -0.036467 -0.135419 0.017986 -0.138785 0.056200 0.076329 -0.436238 0.410890 -0.720830 -0.348886 0.664878 0.303941 0.520346 0.021176 -0.092810 0.263671 -0.023019
생활 0.073054 0.133653 0.171808 -0.078225 -0.064828 0.016335 0.252212 -0.182222 0.341296 0.342206 0.345015 0.073750 0.481141 0.151125 -0.075567 0.537964 0.172038 0.114210 -0.310993 -0.304511 0.120963 -0.359198 0.238191 0.427014 -0.131537 -0.517585 0.175258 0.281659 0.142330 0.131858 -0.398564 -0.281368 0.194452 0.502111 0.239068 0.093284 0.026952 -0.356728 0.030066 0.324010 -0.565661 0.066012 -0.103930 -0.150039 0.012586 -0.307842 -0.216153 -0.441371 -0.220342 0.195876 0.045173 0.054467 -0.002297 -0.147935 -0.070377 0.020814 -0.227364 0.116276 0.179391 0.056933 0.239109 0.113053 -0.293722 0.570056 0.101918 0.005069 -0.043072 0.129568 0.286152 -0.131452 0.089374 0.359583 0.185421 -0.108402 0.311891 0.120249 -0.436234 -0.286655 0.007028 0.236506 0.352302 0.205313 -0.186959 -0.015709 -0.105819 -0.268504 -0.107805 0.270567 0.105464 0.078521 -0.168391 0.069494 0.051465 0.366090 0.038887 -0.048413 0.221157 -0.180975 0.202377 -0.034498
참석자 -0.265510 0.093644 -0.101087 -0.436658 -0.580635 -0.561508 -0.054729 0.132028 -0.089948 -0.160188 0.514521 0.494877 -0.100032 -0.217441 0.207467 0.051211 -0.233199 0.196578 -0.293184 -0.278626 0.150695 0.145968 0.048056 0.069960 -0.445453 -0.162547 0.114664 0.568234 0.227318 0.346682 -0.309850 -0.534068 0.817008 0.035565 0.086669 0.691729 0.688440 -0.377143 -0.152055 -0.162666 0.123783 0.368632 0.313050 -0.067500 -0.574369 -0.442025 -0.938504 0.130827 -0.202036 0.257420 -0.124795 0.215682 -0.133679 -0.095204 -0.452841 -0.357813 0.053394 0.346889 0.167065 -0.396338 -0.021902 0.220575 -0.447296 0.309561 0.183726 0.028217 -0.166355 -0.023848 -0.006425 -0.196731 -0.016932 -0.371473 0.766548 -0.027997 0.537327 -0.125153 -0.166090 0.029439 -0.661062 -0.001830 0.139519 -0.078451 0.197847 -0.113453 0.248677 0.031548 0.094166 0.342042 -0.281055 -0.349538 0.197375 -0.418921 -0.362652 0.415831 -0.224476 0.116395 -0.043460 -0.199772 0.791263 0.220592
증상 0.169634 0.427253 0.174514 -0.293768 -0.492444 -0.193640 -0.308896 0.292010 0.406992 0.453835 0.528420 0.568562 0.158727 0.013019 -0.095328 0.191173 0.361183 -0.273703 -0.101966 -0.114521 0.129787 0.038659 0.131701 -0.293049 0.080858 -0.155081 0.086614 0.569462 0.152491 0.285064 -0.205987 -0.395705 0.460936 -0.079554 -0.269413 0.340847 0.848529 0.126262 0.056962 0.122261 0.308965 0.255180 0.255944 -0.004412 0.112634 -0.270111 -0.524350 -0.068759 0.097464 0.095771 -0.646235 0.070763 -0.458260 0.048269 -0.329827 0.155808 0.205664 0.410458 -0.126833 -0.022213 0.368686 0.227573 -0.364950 0.616152 0.189154 -0.256755 0.194992 0.221530 0.174100 -0.075675 -0.346815 -0.023416 0.410257 0.214787 0.308574 -0.380228 -0.113548 -0.068573 0.010877 -0.556408 -0.209139 0.026649 -0.811791 -0.171718 0.309303 -0.200348 -0.004435 0.681812 -0.039011 -0.212368 -0.109889 -0.459243 -0.512160 0.301902 -0.001315 -0.024264 0.207302 -0.276906 0.669254 0.227955
확인 -0.179528 0.079970 0.178989 -0.398197 0.118637 -0.187269 0.169079 -0.194358 0.108490 0.049638 0.474348 -0.073042 0.112577 -0.325165 -0.191510 -0.119892 -0.330190 0.527507 -0.553333 -0.414415 0.120596 -0.235941 -0.049237 0.151848 -0.074592 0.119250 -0.033289 0.955198 0.308291 0.206949 -0.126951 -0.526066 -0.007987 -0.369804 -0.067219 0.369234 0.207330 -0.482331 -0.208472 -0.146204 -0.131494 0.272440 -0.358777 -0.286936 0.091507 0.285178 0.042441 0.024925 -0.290440 -0.303566 0.004324 0.255125 0.092065 0.034010 -0.689966 0.153948 0.590401 0.273224 -0.118875 -0.510481 0.332451 -0.182635 0.188530 0.182840 0.071113 -0.204476 0.133232 0.076097 -0.037299 0.207957 -0.225104 0.373504 0.909780 -0.219266 0.211467 0.165017 -0.371459 -0.157321 0.183598 0.042753 0.446877 0.096469 -0.076588 -0.342597 0.203277 0.022175 -0.566208 0.560180 -0.076841 0.025734 0.071040 -0.161750 0.381945 0.287941 -0.039472 0.163937 0.000330 -0.139952 0.032443 -0.178336
이동 -0.178572 -0.117150 0.235609 0.019931 -0.350141 -0.357324 0.168842 0.241502 0.299951 0.206845 -0.106213 0.195712 0.235673 -0.024423 -0.466276 0.256069 -0.113691 0.250982 0.085756 -0.389260 0.056505 0.269784 -0.214483 0.019055 0.075827 -0.300256 0.005394 0.512673 0.009566 -0.104015 -0.210315 -0.715628 -0.185903 0.320630 -0.078368 -0.358915 0.458364 -0.322223 0.173584 -0.002269 -0.315489 -0.045118 -0.464355 -0.006051 -0.323389 -0.221244 -0.201959 0.220170 0.128316 0.552760 0.300106 -0.082715 0.081232 -0.189153 -0.389255 0.155259 0.074249 0.145125 -0.195309 -0.352949 0.187227 -0.166536 -0.036062 0.168311 0.034228 0.335848 -0.041709 0.348633 0.201758 0.023434 -0.065475 0.401165 0.524103 -0.085000 0.400522 -0.129765 -0.234649 0.227278 -0.229071 0.019474 0.591007 -0.075959 0.142622 -0.502485 0.017217 -0.161153 -0.122758 0.816947 0.407033 0.308859 -0.020012 -0.408589 -0.146605 0.697867 0.143004 0.351821 -0.315975 -0.111324 0.084919 -0.255804
상담 0.206726 -0.020481 0.095196 -0.328104 -0.898177 -0.451857 -0.000508 -0.016206 0.324795 0.478131 0.702825 1.084549 0.148425 0.095662 -0.022713 0.036818 -0.175525 0.069339 -0.184482 -0.052767 0.646828 0.070929 0.266003 -0.194695 0.142354 -0.334426 0.048008 0.578300 0.110898 0.432103 -0.224826 -0.724097 -0.118046 0.262473 -0.416804 0.382187 0.437464 0.110233 -0.176809 0.036960 -0.101170 0.267964 -0.176064 -0.348213 0.228865 -0.090176 -0.339692 0.073831 -0.021870 0.072041 -0.156261 0.120238 0.108460 0.186644 -0.323722 0.165985 -0.165334 0.163871 -0.188370 -0.114614 0.127215 0.302973 -0.189418 0.725304 0.139583 -0.215005 -0.437459 -0.031987 0.109165 0.101331 -0.115899 -0.140506 0.352698 0.248115 0.544094 -0.315035 -0.131122 -0.027191 0.110972 -0.442560 -0.028215 -0.054507 -0.361064 -0.192238 -0.135973 -0.058665 0.105644 -0.075858 0.453479 -0.126739 0.099467 -0.249250 -0.513221 0.484851 -0.060609 -0.065740 0.115133 0.058822 0.378010 0.095180
감염 0.140150 0.390743 0.227449 -0.233757 -0.507256 -0.387076 0.268403 0.086340 0.303086 0.336814 0.021714 0.309373 -0.054654 0.331700 0.024287 0.363988 0.387030 -0.023189 -0.368993 -0.267179 -0.082055 -0.553033 0.551722 0.372345 0.113859 -0.462925 0.024105 -0.110566 0.204432 0.350290 -0.222075 -0.404441 -0.157393 0.342954 0.192625 -0.240947 0.153507 -0.551506 -0.259503 -0.002703 -0.291327 0.017493 -0.383370 -0.247190 -0.268875 -0.181706 -0.499601 -0.155164 0.116638 -0.094805 -0.029769 -0.092121 0.063714 -0.072540 0.055426 0.510291 -0.363095 0.462492 -0.342367 -0.105466 -0.420256 -0.240310 -0.003993 0.175781 0.127516 -0.134821 0.039200 -0.260868 0.219862 0.162202 0.172146 0.603767 0.054642 -0.000897 0.108710 -0.415030 -0.011876 0.188779 -0.666534 0.088881 0.476604 -0.140818 -0.484508 -0.145979 -0.131396 -0.175902 0.249478 0.496114 -0.100947 0.577869 0.091562 -0.237461 -0.538335 0.088405 0.072284 0.292404 -0.384579 -0.346567 0.409067 -0.160266
외출 0.251323 0.280704 0.026796 -0.141038 -0.150375 0.180484 -0.009448 0.231155 0.189314 0.396304 0.565741 0.440265 0.320138 -0.109937 -0.070358 0.139748 -0.179596 0.186300 -0.674560 -0.275524 0.436771 -0.107303 0.270463 0.095278 -0.028631 -0.293496 -0.045453 0.480627 0.122878 0.086479 -0.124571 -0.295136 0.156773 0.425674 -0.246543 0.323504 -0.014831 -0.105672 -0.246396 0.395436 0.159642 0.046043 -0.024284 -0.206583 -0.154904 -0.643730 -0.346937 -0.145475 -0.057311 0.224245 -0.154474 0.358203 -0.332016 -0.133047 -0.080645 0.014323 0.360184 0.115967 0.164417 -0.406866 0.585143 0.109745 -0.168128 0.392696 0.196691 -0.094596 0.002039 -0.130986 0.393365 0.251333 -0.317573 -0.257352 0.034482 -0.196355 0.204418 0.246871 -0.531868 -0.225179 0.183773 -0.051430 -0.121928 0.072023 -0.100864 -0.112697 -0.097932 -0.031316 -0.176501 0.434829 0.166091 0.298855 -0.509518 -0.390342 -0.381747 0.032287 -0.085845 0.404834 0.020143 0.136219 0.530796 -0.318110
결과 -0.220132 -0.000106 -0.182806 -0.554881 0.006921 0.168983 -0.411846 -0.506803 0.049835 -0.587419 0.316669 0.462028 0.188148 -0.044037 -0.182997 -0.009318 -0.423902 -0.024442 -0.237291 -0.154830 0.286244 -0.152438 -0.167456 0.142007 -0.344096 -0.078620 -0.062886 0.582101 -0.294145 -0.123842 0.304144 -0.551309 -0.067619 0.043774 -0.612882 0.346178 0.233639 0.021135 0.031369 0.131155 -0.471979 0.258725 0.265059 0.169641 -0.285945 -0.089269 -0.718912 0.147131 0.291416 -0.177312 0.346874 0.003210 0.328291 -0.266589 -0.235418 -0.046718 -0.030106 0.173055 -0.211663 -0.484169 -0.031260 0.019730 -0.162088 0.249869 0.193056 -0.135770 0.175460 0.175306 0.526516 0.012414 -0.143011 0.095215 0.843400 -0.292889 0.644593 -0.055815 -0.449775 -0.224692 -0.350912 0.102038 0.260071 0.363819 -0.105850 -0.239465 -0.251400 0.139499 0.009711 0.474886 -0.443662 0.638066 0.097145 -0.298852 -0.279644 0.375866 0.307635 0.240908 -0.134705 0.002477 0.265786 -0.296178
음성 0.138603 -0.124601 0.078449 -0.756939 -0.216300 -0.039354 -0.124577 -0.238525 -0.153579 -0.070698 0.218109 0.063104 -0.056774 -0.576445 -0.337498 0.544690 0.124149 -0.024508 -0.081427 -0.602714 0.349850 -0.154048 0.142682 0.417283 -0.371875 -0.087106 -0.209527 0.790695 0.214724 0.040245 -0.049413 -0.625010 0.405624 0.195437 -0.189392 -0.116671 0.413795 0.238334 -0.005549 -0.068014 -0.339724 -0.355986 0.073890 0.101265 -0.455902 -0.418427 -0.545603 -0.183263 0.047265 -0.092116 0.147052 -0.138000 0.376866 -0.256832 -0.270649 0.061740 -0.112770 -0.085197 -0.150719 -0.439438 0.080348 -0.051789 -0.483505 0.117902 0.252415 -0.337843 0.541922 0.075725 0.438775 -0.333531 0.062003 -0.017084 0.476040 -0.323420 0.044322 0.198162 -0.701167 0.198178 -0.167024 -0.145153 0.164872 -0.203622 -0.242644 -0.400010 -0.223300 0.443356 -0.015351 0.341045 -0.012148 0.378024 0.134596 -0.327785 -0.442433 0.492314 0.459872 0.499531 -0.050538 0.261245 0.288347 -0.306396
입국 0.207142 0.128346 0.092768 -0.117321 -0.366671 -0.340950 0.250176 -0.257168 0.209460 0.365727 0.292341 0.719938 -0.157026 0.190114 -0.034844 0.308376 0.018311 0.499071 0.020819 -0.691676 -0.175102 -0.286625 -0.009697 0.178694 -0.181621 -0.786887 0.162519 0.661946 -0.110824 -0.021760 0.327818 -0.274119 0.349888 -0.120593 -0.375840 -0.169917 -0.247436 -0.294199 -0.540149 0.112110 -0.516634 0.248031 -0.160158 -0.255641 0.017932 -0.295128 -0.350278 -0.029353 -0.164648 -0.067946 0.072283 0.506435 -0.058114 0.186696 -0.679389 -0.176164 -0.264185 0.423370 0.076278 -0.048364 0.648835 0.108922 -0.359834 0.064726 0.324931 0.213114 0.056074 0.457768 0.161226 -0.400911 0.081161 0.134172 0.109558 0.238614 0.676305 -0.141403 0.159128 -0.432050 0.404856 0.062167 0.182899 0.234458 0.191311 -0.204779 0.031983 -0.174935 -0.382091 0.827785 0.028498 0.682046 0.273626 -0.682016 0.173165 0.728259 0.002573 -0.108353 0.119742 -0.545834 0.178450 -0.289528
확산 0.596654 -0.105641 0.337392 0.019558 -0.322249 0.128255 -0.014736 0.256425 -0.090817 -0.195021 0.338657 0.507736 0.031326 -0.224160 0.319256 0.621566 -0.039857 -0.070274 -0.283411 -0.435684 -0.065596 -0.408533 0.569344 0.278773 0.041042 -0.652930 0.047511 0.088196 -0.007913 0.338729 -0.245196 -0.251521 0.351601 -0.031849 0.014472 0.272179 0.497664 -0.592217 0.146935 0.474397 -0.337841 -0.091852 -0.276044 -0.369821 -0.269914 -0.188713 -0.665934 -0.378384 0.457437 -0.156933 -0.388566 0.221519 0.095562 -0.193957 -0.464285 0.408624 -0.259549 0.360122 -0.030179 -0.143017 -0.232025 0.303103 -0.334719 0.322378 -0.385851 0.157760 -0.271861 -0.306806 0.627852 0.044013 0.114399 0.365978 0.494569 -0.185342 0.115767 -0.149327 -0.285267 -0.107753 -0.156146 -0.081768 0.275231 -0.440635 -0.297314 -0.230821 0.167405 0.130511 0.334356 0.340278 -0.492247 0.543202 -0.570525 -0.080947 -0.483135 0.079111 0.006558 0.455382 0.032727 0.013429 0.308727 -0.402796
가족 0.287694 0.190012 0.063581 -0.321154 -0.579985 0.140501 0.381498 -0.015056 -0.093963 0.247533 0.156679 0.247052 0.106650 -0.123948 -0.672775 0.320429 -0.048652 0.240948 -0.045384 -0.213387 0.306174 -0.166069 0.162520 0.280927 -0.093292 -0.293765 -0.043821 0.142731 0.308381 0.363509 0.304800 -0.448264 0.116730 0.268208 -0.199562 -0.513137 0.263921 -0.208488 -0.207585 0.386118 -0.203574 -0.041093 0.042879 0.139982 -0.371431 -0.373058 -0.182367 0.012320 -0.002710 0.506316 0.048630 -0.008669 -0.185814 -0.324674 -0.600193 -0.294889 -0.232538 0.328077 0.087106 0.009343 -0.009804 0.140598 -0.001765 0.320269 0.279632 0.175611 -0.095506 0.073658 -0.040091 -0.249978 -0.191031 0.401304 0.223901 -0.184075 0.175210 0.005592 -0.125315 -0.214016 -0.203462 -0.145203 0.223263 -0.229302 -0.239364 -0.431042 -0.020127 -0.150268 -0.401207 0.569825 0.081335 0.064638 -0.131312 -0.077042 -0.289044 0.033089 -0.633992 -0.266726 0.160685 -0.315215 0.235037 -0.185081
병원 -0.163218 0.205755 -0.172474 -0.730362 -0.445731 -0.404946 0.164806 -0.133636 0.119555 0.692257 0.011791 0.199443 0.487370 -0.216843 -0.122303 0.345276 -0.446772 0.056101 -0.018914 -0.092708 -0.228927 -0.474477 -0.267145 -0.036708 -0.180624 -0.322477 -0.374091 0.810316 0.145416 -0.191745 -0.129662 -0.177563 0.418629 -0.090018 -0.389961 0.436998 -0.094677 -0.092737 -0.492041 0.142734 -0.346061 0.132390 -0.186915 -0.049082 0.143826 -0.159795 -0.423377 -0.210624 -0.403125 0.308911 -0.195587 0.369383 -0.188411 0.054225 -0.273221 0.283827 0.068294 0.293327 0.169226 0.193536 -0.089905 -0.155796 -0.480764 0.371525 -0.225473 0.083275 0.117059 0.027578 0.002212 -0.125261 -0.020500 0.490776 0.361912 -0.125314 0.467036 0.082689 0.072619 0.028633 0.115282 -0.098517 0.629242 0.484557 0.048245 -0.049050 -0.192388 -0.368810 -0.349323 0.852535 -0.237878 0.020636 0.339364 -0.292792 -0.111975 0.314898 0.279890 -0.220091 0.075871 0.496734 0.340510 0.109868
참조 0.030812 0.247044 0.107544 -0.208810 -0.394705 -0.796236 0.160536 -0.129397 0.228711 0.161792 0.362228 0.228969 0.097029 -0.371517 -0.252822 0.234692 -0.093795 0.650338 -0.511406 -0.260225 -0.343761 -0.269203 -0.215119 0.341452 -0.635389 0.000932 -0.169753 0.716597 0.155903 0.057769 -0.318111 -0.491123 0.292572 -0.338816 -0.348144 0.240156 0.298777 -0.732696 -0.076311 0.058416 -0.045171 0.690808 -0.265283 0.082956 0.040597 0.560922 -0.500446 -0.064439 -0.617285 -0.317480 0.062831 0.387541 -0.182620 -0.058420 -0.488239 0.325593 0.709118 0.112223 -0.319935 -0.225973 0.585737 0.027563 0.081141 0.044956 0.158829 -0.100649 0.213700 0.206747 -0.288353 0.054328 -0.409565 0.362294 0.567382 -0.134524 0.217962 -0.172183 -0.791939 -0.185902 0.329329 0.161950 0.715959 -0.279407 -0.436960 -0.630289 0.061819 0.169086 -0.833164 1.053207 -0.034800 0.178540 0.586521 -0.171294 -0.227789 0.027061 -0.335391 -0.003515 0.240838 -0.159630 0.153671 -0.413161
광복절 -0.024042 -0.014753 0.228280 -0.900319 -0.933765 -0.522600 0.170685 0.170890 -0.007637 -0.317478 0.412959 0.874204 -0.241464 0.073816 0.373942 0.167969 0.070002 0.356701 -0.043602 -0.225256 0.434254 -0.223666 0.137462 -0.052790 0.009027 -0.108104 0.082944 0.549266 0.394171 0.401721 -0.186005 -0.535454 0.729990 0.219688 -0.477427 0.429270 0.571230 -0.180943 0.055128 0.141845 -0.363654 0.159732 0.573254 -0.358440 0.173134 0.102972 -0.983512 -0.278152 -0.501576 0.239348 -0.257855 0.184852 -0.143258 0.279096 -0.387223 -0.028995 0.054137 0.527711 0.320989 -0.339402 0.188753 0.471768 -0.514600 0.440526 -0.331310 -0.237699 -0.487745 -0.206550 0.419874 0.053161 -0.308273 -0.105817 0.870266 0.410485 -0.167919 -0.244810 -0.088673 0.049888 -0.270399 0.009802 0.373874 0.277812 0.052507 -0.339024 0.191879 0.246954 0.151751 0.647308 -0.547216 -0.376945 -0.077268 -0.457495 -0.512743 0.471646 -0.063217 0.233717 0.248746 -0.015444 0.804144 0.289479
연락 -0.215412 -0.233099 -0.420590 -0.469861 -0.997325 -0.191773 0.292170 -0.176125 0.572776 0.255001 0.361200 0.825783 -0.077553 0.099022 0.183930 0.285568 -0.169303 0.317445 -0.224127 -0.009055 0.607532 0.065201 0.319595 -0.094288 0.108272 -0.104868 -0.120411 0.761733 0.159348 0.059010 -0.558037 -0.426895 0.306894 0.243204 -0.352602 0.398768 0.320748 0.167990 -0.094135 -0.013511 -0.046098 0.159773 0.064425 0.060519 0.110847 -0.244362 -0.481898 -0.301874 -0.388198 0.220156 -0.108946 0.226363 0.216581 0.074365 -0.367700 0.535851 0.140522 0.249238 -0.173710 -0.020960 0.580726 0.356553 -0.356038 0.119701 -0.089779 -0.089845 -0.349182 -0.116124 0.341801 -0.259854 0.053080 -0.300643 0.325847 0.042692 0.344203 -0.334875 -0.134470 0.079042 0.394290 -0.386055 -0.021607 0.223436 0.018077 -0.101612 -0.021757 -0.111946 0.262502 0.175716 0.627964 0.237236 0.215999 -0.280677 -0.407762 0.461397 0.384044 0.257988 0.107582 0.135617 -0.061031 -0.127049
사회 0.029963 0.188007 0.236870 -0.298223 -0.037308 0.060446 0.439512 0.084280 -0.097240 -0.485375 0.710904 0.196613 0.390665 0.610583 0.085218 0.224402 0.171413 0.227424 -0.114402 -0.891964 0.506660 -0.606007 0.056100 0.092479 -0.000367 -0.464678 -0.286165 0.253811 -0.021635 0.020706 0.016094 -0.275544 0.456231 -0.076387 0.277025 0.353694 0.253401 -0.484746 -0.019731 0.269015 -0.849896 0.242456 -0.405262 -0.164365 0.028694 -0.112163 -0.533731 -0.399240 -0.041986 -0.247872 -0.021324 0.608273 -0.330748 -0.101547 -0.321255 -0.022478 0.450375 0.150437 0.250081 -0.143781 0.238470 0.247090 -0.516300 0.281613 0.171281 0.396710 -0.148379 -0.071685 0.702819 -0.057605 -0.410796 0.047621 0.540573 -0.120523 -0.202925 -0.031537 -0.177550 -0.647462 -0.083030 0.269271 0.508212 0.191735 -0.042307 0.139230 0.056364 0.008072 -0.194610 0.183010 0.180414 0.482532 -0.567661 0.055053 0.309534 0.547144 -0.104997 0.079055 0.145137 -0.543137 0.637734 -0.041981
거주 0.295955 0.025765 -0.133238 -0.241431 -0.495695 -0.450680 0.000094 -0.264297 0.058079 0.162352 -0.262230 0.443275 0.145220 -0.127789 -0.055727 0.599584 -0.063521 0.188971 0.106233 -0.368418 -0.089613 -0.378459 0.038606 -0.083124 -0.224768 -0.291428 -0.031380 0.466603 -0.163724 0.050873 -0.087607 -0.593151 0.137247 0.046446 -0.145660 0.075563 0.218994 -0.398716 0.091052 0.132278 -0.604906 -0.048625 -0.432202 -0.094765 0.094618 0.246778 -0.292716 -0.146593 0.027635 0.400482 -0.002742 0.097970 0.029132 -0.128790 -0.379210 -0.007528 0.250602 0.001433 0.042851 -0.259967 0.197371 0.093202 -0.002101 0.067164 -0.216771 0.168636 -0.228476 0.098261 -0.005102 -0.048730 0.022119 0.567284 0.262579 0.070722 0.142525 -0.333766 -0.195557 0.002916 -0.093087 0.202093 0.482605 0.033087 0.303406 -0.653292 -0.113664 0.312997 -0.037298 0.643302 0.005504 0.254320 0.050951 -0.589196 -0.405421 -0.062460 -0.189780 0.060377 -0.133587 0.183276 0.332152 -0.141600
안내 -0.330771 -0.264172 0.267157 -0.816710 -0.242906 -0.519835 0.188377 -0.152095 0.391835 0.119296 0.477610 0.446064 0.201018 -0.238789 -0.190419 0.248265 -0.292957 -0.210993 -0.146269 0.029019 -0.040301 -0.515781 -0.022865 0.075585 -0.101673 -0.213188 -0.028095 0.445325 -0.051357 0.094332 -0.032872 -0.907314 0.341414 -0.463820 -0.091940 0.208853 0.127623 -0.398258 -0.085240 -0.196792 0.159807 0.092687 -0.342394 0.174504 0.215119 0.035294 -0.186364 0.352362 -0.200247 -0.021134 0.430834 0.118850 0.155776 0.061837 -0.430162 0.510632 0.143449 0.124591 -0.003778 -0.242504 0.489524 0.048262 0.324480 0.158818 -0.333928 -0.143637 -0.061244 0.057830 -0.285203 -0.072414 0.213436 -0.098116 0.543872 -0.179643 0.164981 0.257439 -0.151302 0.308905 -0.205210 -0.005825 0.872497 -0.103699 0.147962 -0.608295 -0.052318 0.330867 -0.347212 0.195914 -0.091091 0.010867 0.341734 -0.357242 0.372039 0.283345 0.054746 0.135824 -0.132305 -0.162337 0.099680 0.128948
해외 0.333204 -0.148567 0.407479 -0.401592 -0.340098 -0.254319 0.298518 -0.254698 0.321328 0.162233 -0.085806 0.555790 -0.261119 0.007142 -0.097455 0.571993 0.084941 0.420980 -0.022186 -0.426538 -0.121940 -0.632333 0.279585 0.411457 -0.394618 -0.922391 -0.203264 0.294696 0.146780 0.242989 -0.024066 -0.169812 0.359563 0.083083 -0.245270 -0.171313 -0.250529 0.044803 -0.690204 -0.033668 -0.371347 0.021368 -0.051552 0.055024 0.177201 -0.352858 -0.236504 -0.178431 -0.128022 0.178733 0.179539 0.033620 0.238411 0.046432 -0.843533 0.023922 -0.166139 0.557250 -0.061658 0.169405 0.019474 -0.018514 0.053224 0.084229 -0.059535 0.201882 -0.084259 0.229802 0.093410 -0.557114 -0.137495 0.699083 0.588948 0.344067 0.484728 0.052998 -0.206549 0.066460 0.141998 -0.113434 0.374104 0.022793 -0.188637 -0.320181 0.078658 0.205150 0.071797 0.914069 -0.062027 0.432991 -0.007674 -0.689523 -0.225673 0.330110 -0.382850 -0.347813 -0.387423 -0.539822 -0.037565 -0.305031
상세 0.143665 -0.120621 0.008844 -0.132839 -0.198241 -0.365590 0.499448 -0.768328 0.813541 -0.026692 0.221022 0.464393 0.522290 -0.067510 0.102192 0.150813 -0.283217 0.255758 -0.211183 -0.147379 0.233823 -0.445493 -0.029970 0.232797 -0.711622 -0.042219 -0.287676 0.639089 -0.195672 -0.013489 -0.089159 -0.543588 -0.003911 -0.033279 -0.170188 0.691380 -0.107381 -0.379935 -0.380779 0.315492 -0.118640 0.472598 -0.222355 -0.011766 -0.084908 0.117887 -0.619855 0.253121 0.053966 0.182984 0.081329 0.063620 0.068778 -0.008663 -0.354755 0.154406 0.558697 -0.094021 -0.098744 -0.440277 0.400905 0.035143 0.281084 0.150164 -0.348205 -0.311481 0.161634 0.492434 -0.002771 -0.022829 -0.546073 0.326057 0.813456 -0.108336 0.186779 -0.077941 -0.715288 0.002759 -0.099437 0.001537 0.523801 0.380509 -0.087196 -0.235629 -0.185463 0.472837 -0.681692 0.729404 -0.420687 0.438008 0.467720 -0.556904 0.085669 0.139885 -0.404782 0.147665 0.018828 -0.181233 0.120972 -0.142227
광화문 -0.169234 -0.053751 0.192736 -0.803390 -0.428780 -0.210766 0.000828 0.138727 -0.228743 -0.317854 0.421287 0.586713 -0.003967 -0.035993 0.229555 0.127455 0.064842 0.297869 -0.019409 -0.259043 0.231283 -0.342747 0.064509 -0.044479 0.126336 0.053054 0.117735 0.411611 0.420768 0.186664 -0.007423 -0.534587 0.824692 0.066103 -0.336085 0.166126 0.397410 -0.177155 0.011888 -0.073384 -0.341173 0.085326 0.599853 -0.227734 0.181143 0.047815 -0.887647 0.000969 -0.388527 0.059319 0.029988 0.005779 -0.072868 0.102817 -0.276325 -0.203813 0.198647 0.420559 0.027202 -0.428692 0.137618 0.318789 -0.186143 0.356604 -0.315288 -0.442655 -0.263587 -0.098625 0.282079 0.041768 -0.553766 -0.019283 0.639033 0.141842 -0.106583 -0.038476 -0.243291 0.136356 -0.286758 0.022797 0.439325 0.421302 0.117113 -0.296402 -0.009737 0.246796 0.039468 0.414790 -0.628128 -0.113994 0.119476 -0.115287 -0.451801 0.443022 0.108369 0.192716 0.051288 0.004303 0.588512 0.326634
진단 0.122653 -0.141601 0.063417 -0.636005 -0.515429 -0.593464 0.026237 0.046033 -0.332379 -0.162984 0.074743 0.641015 0.073092 -0.136382 0.007282 -0.124058 -0.122030 0.040771 -0.349847 -0.244994 0.504133 -0.285410 0.072768 0.209952 -0.178206 0.051105 -0.081762 0.464958 0.286212 0.119238 -0.162457 -0.508394 0.087043 0.245821 -0.094301 0.451024 0.559010 -0.019626 -0.397897 -0.062556 -0.175582 0.437005 0.333562 -0.327542 -0.027144 0.011764 -0.735328 -0.281373 0.020243 -0.155557 -0.296811 0.160050 -0.142710 0.228496 -0.450677 0.073200 0.184159 0.299969 -0.149073 -0.399952 0.101381 0.282681 -0.560817 0.413586 0.263578 -0.151723 -0.238550 0.046729 0.261619 -0.064072 -0.140998 -0.086213 0.595486 0.104890 0.371868 -0.142813 -0.279435 0.010221 -0.344484 -0.160185 0.362170 0.296945 -0.258762 0.053229 -0.016690 0.171950 -0.106749 0.179460 -0.189544 -0.479913 0.203083 -0.434179 -0.387704 0.548807 0.267470 0.050905 0.129604 0.187341 0.382869 0.153506
예방 0.495305 -0.025843 -0.024154 -0.041109 -0.390917 0.371272 0.231492 -0.179768 0.203301 0.281481 0.250603 0.514953 0.177789 0.059718 -0.090526 0.764165 0.001671 -0.237224 -0.455880 -0.378227 0.246189 -0.233653 0.119626 0.416527 -0.150416 -0.485080 -0.064176 0.099706 0.130535 0.143245 -0.511581 -0.427514 0.114863 0.222868 0.165171 0.173137 0.432719 -0.520718 -0.028889 -0.043269 -0.278742 -0.075648 -0.166016 -0.257177 -0.227699 -0.408152 -0.656745 -0.331021 -0.031520 -0.244614 0.110997 0.045106 0.055697 -0.188835 -0.315478 0.227572 -0.301827 0.159908 -0.036909 -0.292120 0.086257 0.414337 -0.147830 0.302203 0.273668 -0.265165 -0.142031 0.109455 0.443454 -0.031633 -0.325102 0.342893 -0.056704 -0.085875 0.296179 0.103993 -0.141304 -0.208365 -0.002018 -0.081036 0.355228 -0.180310 -0.191869 -0.154268 0.027735 0.151924 0.165145 0.363999 -0.207567 0.579308 -0.685952 -0.100284 -0.393127 0.693723 -0.130009 0.115126 0.204277 -0.414738 -0.177197 -0.024093
자택 0.009125 0.182566 -0.260029 -0.214558 -0.175596 -0.614369 0.421867 -0.307747 0.056309 0.424784 0.210013 0.645718 0.577057 -0.208015 -0.280310 0.358920 0.351491 0.239171 0.170516 0.012063 -0.030108 -0.554336 0.058629 -0.087513 -0.090498 -0.230336 0.111715 0.896183 -0.025277 0.082221 -0.083851 -0.194827 0.461025 0.388462 0.030635 0.297625 0.344243 -0.526828 -0.340062 0.150437 -0.447830 0.346125 0.057833 -0.314765 0.172777 0.048084 -0.277511 -0.215239 -0.287259 0.280187 0.029559 0.099723 -0.137837 0.151280 -0.519769 -0.349892 -0.069685 0.087295 -0.051286 -0.036558 0.150305 -0.079570 -0.188399 0.428849 -0.347768 -0.172021 -0.469964 0.465903 -0.204245 -0.248034 0.021463 0.221492 0.492203 0.258778 0.348055 0.093850 -0.318160 -0.405438 0.078111 0.047731 0.852624 0.604982 0.217196 -0.218601 -0.169235 -0.530919 -0.474816 0.556178 -0.138189 -0.065051 0.798808 -0.590378 -0.183991 0.315245 0.404463 -0.059687 0.103132 0.413645 0.119895 -0.082110
판정 0.139206 0.249805 0.028241 -0.509913 -0.353877 0.123616 -0.251941 -0.369241 0.031728 0.141785 0.582223 0.287684 0.001886 -0.220833 -0.187081 0.174034 -0.452250 0.098175 -0.155188 -0.337640 0.500745 -0.455187 -0.065494 0.441364 0.127434 -0.377813 -0.047870 0.561642 -0.258769 -0.129371 0.188039 -0.471071 0.390054 0.112021 -0.420374 -0.576841 0.208094 0.044050 -0.305531 0.076232 -0.344666 0.028064 -0.196077 0.062612 -0.175206 -0.399884 -0.485340 -0.025289 0.007708 0.192950 0.249772 -0.204020 0.279805 -0.050097 -0.279591 0.086444 -0.303692 0.126010 -0.251264 -0.150288 -0.159287 -0.094289 0.246807 0.486345 0.290511 0.140238 -0.129374 0.382388 0.388862 -0.504102 -0.240732 0.328503 0.497907 -0.161586 0.351815 0.041116 -0.340666 -0.263735 -0.367044 -0.442414 0.561361 0.222088 0.167417 -0.613415 -0.366462 0.228837 -0.082471 0.198426 -0.325623 0.341826 0.185469 -0.199757 -0.357938 0.443467 0.153262 0.154814 0.141280 -0.057934 0.397519 -0.261871
사항 -0.082533 0.091114 0.357603 -0.180125 -0.317146 -0.202006 0.594356 -0.209614 0.360381 -0.274449 0.158657 0.235890 0.453177 0.327756 -0.099066 0.223617 -0.330347 0.436495 -0.016072 -0.482629 0.206795 0.012634 -0.072191 0.545317 -0.230849 -0.274867 -0.078097 0.152941 -0.540637 0.241090 0.122622 -0.549296 0.614721 0.152156 0.084972 0.184280 0.428303 -0.153536 0.111879 0.130711 -0.844725 0.143086 -0.378001 0.052706 -0.025010 -0.012704 -0.694227 0.042186 -0.035762 -0.055728 0.258153 0.082873 0.315353 -0.006269 -0.551625 -0.345935 0.542851 0.061521 -0.114810 -0.697881 -0.249694 0.333479 -0.124661 0.176017 0.222329 0.199800 -0.197900 0.687903 -0.310238 0.083162 -0.517230 0.258197 0.802934 -0.057081 0.708193 0.181244 -0.318742 -0.145497 -0.266092 0.007183 0.375722 0.074573 -0.037888 -0.163534 0.377371 0.165909 -0.281420 0.852553 0.016254 0.556554 -0.303253 -0.182568 0.396352 0.593896 -0.346264 -0.324335 -0.055625 -0.297529 0.107195 -0.106739
관내 -0.066458 -0.185673 0.392467 -0.202961 -0.376167 -0.139439 -0.026845 -0.205363 -0.088239 0.083094 0.027010 0.580984 0.092787 -0.210188 -0.064174 0.451356 0.035685 0.287144 -0.257204 -0.694677 0.165954 -0.202494 -0.467138 0.186412 0.144239 -0.352089 -0.177964 0.214083 0.006742 -0.021685 -0.018135 0.028194 0.315251 -0.462636 0.032075 -0.198897 0.137588 -0.106192 -0.147115 -0.176654 -0.466338 0.287935 -0.025345 0.219812 0.241961 -0.042337 -0.304103 0.311796 -0.100430 -0.037438 0.085039 0.132100 -0.002014 0.064023 -0.556363 0.177064 0.499233 0.018641 -0.247796 0.417575 0.184553 -0.186751 0.148650 -0.043815 0.314874 0.233927 -0.112462 0.069798 0.148585 -0.142996 -0.336480 0.179512 0.561322 0.054422 0.002641 0.146490 -0.600710 -0.359462 -0.150215 0.007202 0.531726 0.162011 -0.085815 -0.643142 0.042731 0.195207 -0.160355 0.645857 0.179751 0.094026 -0.031656 -0.245976 0.008061 0.212060 -0.129146 0.034160 -0.324620 -0.362746 -0.087683 0.148383
이송 -0.222184 -0.128286 -0.049812 -0.409680 -0.335961 -0.334408 -0.311644 -0.504711 -0.196262 0.215429 0.546353 0.564088 0.373256 -0.601824 -0.294169 0.792867 -0.088853 -0.002079 -0.142433 -0.011114 -0.243453 -0.359123 0.123492 0.198124 -0.625821 -0.484362 0.045262 0.708370 -0.475807 0.087463 -0.158640 -0.789050 0.520157 0.087290 -0.391596 0.058932 0.023987 -0.353746 0.002967 0.265351 -1.287127 -0.016725 -0.129985 -0.116026 0.495822 0.158007 -0.314486 -0.262087 -0.276903 0.556462 -0.236472 0.295342 0.195912 -0.034955 -0.671606 0.036393 0.021349 -0.175870 0.104735 0.333330 0.378914 0.235044 -0.028425 0.272586 -0.090680 -0.024523 -0.538243 0.307462 0.144223 -0.199778 0.306300 0.222340 0.590968 0.455022 0.380088 -0.002433 -0.902197 -0.308283 0.252552 0.152256 0.469603 0.168238 0.229659 -0.241057 -0.093866 -0.021575 -0.319177 0.994685 0.178741 0.233130 0.290448 -0.446687 -0.284294 0.556010 -0.373204 -0.516372 -0.004295 0.577646 0.102641 -0.186012
조치 -0.341500 0.026066 0.257722 -0.345616 -0.469618 -0.451093 -0.391295 0.005130 0.238887 0.224642 -0.094645 -0.131743 0.149046 -0.221489 -0.126844 0.096596 -0.094774 -0.284500 -0.498877 0.047971 0.167511 0.073446 -0.237288 0.716517 -0.122199 -0.293225 0.217487 0.341564 -0.327074 -0.007685 -0.376022 -0.138701 0.754863 -0.001391 -0.120878 -0.393642 -0.130005 -0.303528 -0.099065 -0.155186 -0.228272 -0.241593 0.297989 0.255363 -0.178519 -0.238467 -0.784468 -0.443981 0.041997 -0.106243 -0.176146 -0.079080 -0.020245 0.135914 -0.282394 0.365765 0.281698 0.397644 -0.377406 -0.051847 0.031383 -0.273853 0.195914 -0.189076 -0.011112 0.004409 0.003609 0.175505 0.144324 -0.103648 -0.130527 0.265276 0.371792 0.204742 0.274049 -0.063214 -0.357723 -0.309725 -0.461746 -0.374029 0.375784 0.132080 -0.177366 -0.422313 0.086384 0.192968 -0.159050 0.768727 -0.013670 0.304221 0.222573 0.105576 0.032465 0.444221 0.273607 0.478986 0.200838 0.318277 0.299607 -0.412646
의료 0.007714 0.261061 -0.113865 -0.334804 -0.507998 -0.644623 0.033610 0.186734 0.076865 0.402173 0.315310 0.297473 -0.198273 -0.429230 -0.268164 -0.038213 -0.147960 -0.281219 -0.049810 -0.499334 0.115848 -0.317715 -0.393009 -0.186154 -0.180210 -0.137879 -0.598867 0.768125 0.022376 0.051507 -0.234534 -0.025498 0.256651 0.243493 -0.111091 0.043032 -0.038893 -0.147595 -0.543544 -0.015742 -0.016820 0.276443 -0.096424 -0.217873 -0.012486 -0.386337 -0.713177 0.194258 -0.215834 0.090446 -0.116806 0.378374 -0.514255 0.144470 -0.106485 -0.079587 -0.237751 0.259042 0.269581 -0.216706 0.003583 -0.454548 -0.311349 0.240726 0.246808 -0.084085 0.116684 0.311172 0.092965 -0.533479 -0.167712 -0.083068 0.638471 0.363010 0.595966 0.430723 0.045411 -0.265087 0.474262 -0.272917 0.742578 0.018862 0.106783 -0.434047 0.204708 -0.631035 -0.397195 0.939333 -0.015490 0.223092 0.157111 -0.456893 -0.294261 0.898630 0.387006 0.489489 0.179376 -0.114560 0.236627 -0.131670
다중 0.220592 -0.279054 0.370256 -0.151724 0.260916 0.258493 0.282169 0.189256 0.092111 -0.309793 0.714927 0.481676 0.026460 -0.027647 -0.454937 0.376428 0.494040 -0.160341 -0.527646 -0.412603 0.179710 -0.600998 -0.022813 0.430297 0.167406 -0.658652 0.190140 0.226249 0.401981 -0.079055 -0.503360 -0.082495 0.666248 0.393877 0.303896 -0.262987 0.236234 -0.505621 0.157398 0.257315 -0.204572 0.258185 -0.259402 0.079088 -0.299893 -0.218032 -0.494867 0.014000 0.102606 0.156593 0.025441 -0.021430 -0.265978 0.244289 0.068434 -0.075512 0.165620 0.309967 -0.245351 0.181373 0.283762 0.459284 -0.080198 0.535024 0.081627 -0.331389 -0.055197 -0.718544 0.496770 0.106464 -0.134876 0.518984 0.372885 -0.203826 0.575859 0.040602 -0.562614 -0.335804 -0.002789 -0.493065 0.356888 -0.496441 -0.432580 0.030154 -0.058171 -0.070859 -0.219656 0.675935 -0.047856 0.419562 -0.304291 -0.080729 -0.182591 0.544903 -0.032384 0.326519 -0.116638 -0.193550 0.549310 0.303555
세부 0.037564 -0.168084 0.500980 0.316083 -0.311434 -0.620377 0.190495 -0.865031 -0.017390 -0.067264 0.308351 0.692412 0.573243 -0.302966 -0.140175 0.541055 0.050880 0.066919 -0.680577 -0.046705 0.134671 -0.562915 0.055220 0.810200 -0.539536 -0.365967 0.271220 0.489017 -0.399664 0.083170 -0.554375 -0.491529 0.207809 0.328446 -0.403907 0.476969 -0.035905 -0.288090 -0.032828 -0.022700 -0.680845 0.107862 0.112750 -0.204665 -0.019206 0.343553 -0.468760 -0.249827 -0.195900 0.102068 -0.313619 -0.034347 -0.073181 0.322937 -0.711403 -0.182606 0.351801 -0.297504 0.131157 -0.271843 0.200742 -0.054223 0.236139 0.154948 -0.214585 0.013609 0.065836 1.166717 0.108846 0.095059 -0.228608 0.298934 0.882189 0.366583 0.279661 -0.129634 -0.783628 -0.165120 -0.063074 -0.293900 0.706827 0.493112 -0.004960 -0.317159 0.005353 0.416615 -0.302847 1.205556 -0.544256 0.339039 0.376886 -0.468441 0.098694 0.577930 -0.057094 0.036410 0.182112 0.252155 -0.114573 -0.257253
종교 0.351877 0.018073 0.050538 0.045550 0.285263 0.215247 0.580199 0.325009 0.161971 0.167364 0.253617 0.650392 -0.181196 0.288641 0.105516 0.305673 0.207235 0.307079 -0.556803 -0.314476 0.360320 -0.059283 0.109481 0.428504 0.355243 -0.678373 0.367207 0.208451 0.240416 0.284428 -0.092615 -0.562074 0.473882 -0.080778 -0.275555 0.356888 0.176977 -0.546395 -0.021673 0.638159 -0.009953 -0.065420 0.051989 -0.221244 -0.443613 -0.265207 -0.458299 0.145405 0.022874 0.315491 0.317739 -0.024353 -0.294408 0.225319 -0.229193 -0.158549 0.214069 0.335134 -0.085391 -0.079468 0.473296 0.420343 0.228466 0.298077 0.038063 -0.320785 -0.479125 -0.576807 0.363085 0.340911 -0.130017 0.201204 0.423122 -0.047434 0.435886 0.107048 -0.474748 0.063602 -0.534482 -0.290343 0.469299 -0.268633 -0.179446 -0.032511 0.114787 0.066063 -0.089199 0.411690 -0.146819 0.070031 -0.524135 -0.370355 -0.213303 0.540031 -0.117138 0.311046 0.122639 -0.471013 0.464351 0.016184
접촉 -0.088143 0.206569 -0.061895 -0.493928 -0.282920 -0.194056 -0.292953 0.050940 0.499115 0.138179 0.250962 0.373625 -0.013053 -0.380154 -0.000429 0.123044 0.081719 -0.038925 -0.285542 0.315852 0.047237 0.110959 -0.143744 -0.001546 0.224001 -0.485636 0.033520 0.247056 -0.231643 -0.034526 -0.071056 -0.188184 0.063685 0.191420 -0.218073 -0.097582 0.312112 -0.326980 0.361890 0.354170 -0.168527 -0.207661 0.048871 -0.205783 -0.233753 0.053138 -0.404512 -0.156818 0.026417 0.277032 -0.203386 -0.061248 0.172474 0.104664 -0.313773 -0.012334 0.051677 0.382500 0.026700 -0.148311 0.157363 0.043036 -0.224204 -0.074588 0.007699 -0.023839 0.518377 0.188205 0.095979 0.242320 -0.170710 0.123786 0.501640 0.075417 0.020547 -0.190682 -0.183380 -0.162017 -0.464649 -0.225988 0.188049 0.006789 -0.131368 -0.346338 -0.105899 0.061165 0.285665 0.654707 -0.264630 -0.009493 -0.436169 -0.195468 0.115371 0.341353 0.135946 0.251313 -0.248899 0.016252 -0.157407 -0.059889
소모임 0.423733 0.058799 0.296661 0.094096 0.182743 0.221951 0.114026 -0.199569 0.589255 -0.120152 0.336346 0.500269 -0.206778 -0.087527 0.246815 0.747483 0.414052 0.064542 -0.641695 -0.526639 0.242004 -0.546577 0.275795 -0.030042 0.379179 -0.606210 0.009355 0.349483 0.044621 0.167548 -0.552523 -0.101800 0.477622 0.255620 0.007123 0.456587 0.080686 -0.345493 -0.064829 0.116891 -0.400935 0.332874 -0.115551 -0.392020 -0.573594 -0.366563 -0.284445 0.105577 -0.139287 0.246832 -0.045933 0.297444 -0.148117 0.062891 0.144454 -0.054095 0.267974 0.355173 0.074243 -0.093761 0.467282 0.053150 -0.339201 0.331470 0.196483 -0.008619 -0.174325 -0.131124 0.436105 0.018018 -0.124871 -0.014856 0.263997 0.020203 0.096155 -0.176637 -0.282741 -0.349611 -0.354094 0.029986 0.645252 0.061183 -0.267117 0.037730 -0.011616 0.042371 -0.091896 0.426297 -0.157125 0.393350 -0.538232 0.069460 -0.102960 0.495990 0.090353 0.336447 -0.154977 -0.305527 0.473815 0.077952
군민 -0.278803 -0.088366 0.001208 0.041845 -0.112664 -0.026974 0.439315 -0.136416 -0.066343 0.279793 0.370439 0.383039 -0.076041 -0.166964 -0.297649 0.285007 0.196142 0.000511 -0.453475 -0.426242 0.943282 -0.803086 0.223631 0.019335 0.065495 -0.688456 -0.366711 0.293329 0.667592 0.019770 0.069162 -0.209169 0.103168 0.302572 0.062439 0.275382 0.130962 -0.172797 -0.161086 -0.102190 0.152595 -0.206635 -0.289483 0.006786 -0.201038 -0.609658 -0.331712 0.073614 -0.070693 0.217019 0.092808 -0.029893 0.071013 -0.152791 -0.214168 -0.404487 -0.423646 0.164219 0.552723 -0.127513 0.070416 0.240597 -0.150380 0.529038 0.181087 0.040638 0.128139 0.089449 0.202747 -0.000846 -0.084623 0.183151 0.313378 -0.133809 0.276790 0.336496 -0.195174 0.007961 -0.149119 0.233111 0.675447 0.042150 -0.226990 0.090473 -0.137630 -0.048054 0.202821 0.312201 0.244387 0.242280 0.246263 -0.480358 -0.296515 0.221147 0.348096 -0.250674 -0.163349 -0.013744 0.565766 0.077577
우리 0.109315 0.191202 -0.036828 -0.635131 -0.352145 0.194807 -0.187429 -0.050946 0.376317 0.045249 0.356153 0.373557 0.112113 -0.146764 0.244063 0.001195 0.202752 0.533600 -0.140970 -0.229080 -0.099589 -0.242617 0.005713 -0.050849 -0.259291 -0.336153 -0.079068 0.235055 0.222534 -0.053060 -0.263855 -0.293104 0.372281 -0.052813 -0.154582 0.106406 0.347942 -0.123507 -0.272185 -0.167716 -0.324439 0.081362 -0.144638 -0.189021 -0.056767 0.076777 -0.219453 0.334258 0.086527 0.080763 -0.181057 0.309808 0.210124 -0.431808 -0.280484 0.244457 0.450588 0.345740 -0.035896 -0.272033 0.053566 -0.138088 -0.285989 0.265888 0.357620 -0.166380 0.256295 0.160604 -0.012035 -0.083921 -0.238695 -0.031863 0.386954 -0.135834 -0.211049 -0.412109 -0.111341 -0.013382 -0.181702 0.018568 0.045350 0.319414 -0.123024 -0.160098 -0.088882 -0.156986 0.003970 0.523542 -0.091210 0.467346 -0.383682 -0.099962 -0.510959 -0.076758 -0.001858 0.072717 -0.434319 -0.292222 0.296519 0.203485
유무 -0.248756 -0.317240 0.683841 -0.622236 -0.608128 -0.684805 -0.028283 -0.076975 0.141655 -0.092825 1.052486 0.963798 -0.112707 -0.120089 0.061769 -0.053973 -0.149274 0.027064 -0.497897 -0.154402 0.496258 -0.456546 -0.032312 -0.009957 -0.276268 -0.261621 0.115350 0.623953 0.589327 0.244859 -0.620693 -0.347997 0.220266 0.591749 -0.304665 0.441526 0.079705 0.240956 -0.228968 -0.150977 0.000123 0.614792 -0.057842 -0.383589 -0.251513 -0.126693 -0.502006 -0.213022 -0.191600 0.167185 -0.355948 -0.045407 -0.271770 0.477094 -0.094212 -0.254479 0.171689 0.365631 0.220816 -0.181842 0.053857 0.397378 -0.329111 0.481320 0.157615 0.085311 0.067480 -0.114532 0.180150 -0.238656 -0.144957 -0.095516 0.978581 -0.058328 0.063493 -0.164175 -0.270695 0.134735 -0.051495 -0.626066 0.298187 -0.370424 -0.011770 -0.220976 0.101374 0.323535 0.138129 0.326086 -0.239769 -0.484325 0.175917 -0.069352 -0.265292 0.637051 -0.179562 0.327434 0.031221 -0.314841 0.566087 0.478510
장소 0.089224 -0.156665 0.189491 -0.382614 -0.453092 0.161114 -0.010913 -0.120182 0.441906 0.178356 0.043166 0.217883 0.255775 -0.766322 -0.660444 0.483439 0.049468 -0.292883 -0.689140 0.136684 0.200451 -0.025269 0.053047 -0.052655 -0.119201 0.128996 -0.108663 0.693703 -0.054181 0.304871 -0.909993 -0.297451 0.028979 0.283795 0.041692 0.065283 0.520959 -0.291761 0.259291 -0.063111 -0.163820 0.192079 0.211508 -0.149935 -0.394854 -0.643677 -0.299101 -0.092765 -0.086149 0.479311 0.057376 -0.064977 0.200636 0.139697 -0.420106 0.434545 0.231764 0.787735 -0.288194 -0.081960 0.066109 -0.120864 -0.335281 0.257554 0.412188 0.240185 -0.155013 -0.628224 0.182293 0.060613 0.179982 0.510301 0.371305 -0.051215 0.426646 -0.075788 -0.460609 -0.534729 -0.047117 -0.197489 0.412842 -0.055082 -0.574914 -0.206093 0.130873 -0.299992 -0.135818 0.312438 0.237017 -0.080596 -0.338179 -0.209895 -0.111545 0.255414 0.059648 0.001639 0.116788 -0.105932 -0.101878 0.063069
주말 0.086020 0.207954 -0.047160 -0.118423 0.090317 0.414317 0.279960 -0.296396 0.353109 -0.035161 0.285679 0.346842 -0.168491 0.000614 0.104347 0.483921 0.325448 0.004943 -0.540195 -0.468002 0.169840 -0.603857 0.546729 0.126424 0.381813 -0.311080 0.026062 0.169982 -0.074613 0.252514 -0.430043 -0.349307 0.202436 -0.012689 0.116693 0.255219 0.107799 -0.494183 -0.287532 0.367440 -0.051451 0.216284 0.177337 -0.128322 -0.474094 -0.283348 -0.375423 0.018960 -0.244620 0.256273 -0.021988 -0.003164 -0.240071 0.044975 -0.004815 0.035649 0.294062 0.295765 -0.360139 -0.119809 0.441723 0.012321 0.105477 0.131271 0.012111 -0.062125 -0.103744 -0.335837 0.220975 0.007820 -0.186483 0.259462 0.312488 -0.275738 0.154603 -0.135461 -0.518789 -0.042563 -0.626174 -0.063626 0.469241 -0.092042 -0.160950 -0.235668 -0.109943 0.166558 -0.110256 0.407913 -0.182021 0.320446 -0.280231 0.091138 -0.278804 0.098412 -0.023902 0.403711 -0.420792 -0.533432 0.350480 -0.018349
성북구 -0.134820 0.200286 0.283500 -0.952443 -0.515409 -0.313650 -0.130972 0.145174 0.239836 -0.288721 0.233720 0.853436 0.269584 0.116599 0.239926 0.084419 0.027125 0.381838 -0.116808 -0.060826 0.036444 -0.082189 -0.077403 -0.114064 -0.309231 -0.338449 0.109930 0.511147 0.323779 0.017882 -0.068421 -0.495543 0.628230 -0.015509 -0.191034 0.629334 0.338745 -0.150808 -0.130338 -0.056494 -0.280287 0.212516 0.219650 -0.298768 0.082262 0.135831 -0.424768 0.037497 -0.255668 0.214891 -0.147411 0.244870 -0.194748 0.061052 -0.397765 0.176934 0.524441 0.566227 0.260644 -0.012467 0.151648 -0.017873 -0.612588 0.394375 0.038010 -0.000104 -0.023730 -0.233432 0.361569 0.339385 -0.095099 -0.029163 0.810236 0.168967 -0.324404 -0.384390 0.019508 0.084526 -0.441721 0.125941 -0.012498 0.349088 -0.197559 -0.167043 0.182685 0.245868 -0.040415 1.045658 -0.289646 -0.093384 0.129185 -0.502484 -0.383247 0.103472 -0.200937 0.025157 -0.284546 -0.032443 0.871668 0.139024
밀폐 0.602246 -0.237696 0.746813 0.278062 -0.096161 0.457754 0.154779 -0.261641 0.558497 -0.230487 0.481226 0.955707 0.060503 -0.041719 -0.250228 0.714023 0.240250 -0.230317 -0.868971 -0.228234 0.126683 -0.074011 0.550165 0.429805 0.206409 -0.503558 0.105024 0.672226 0.005945 0.518957 -0.523783 -0.230956 -0.111099 0.250799 0.156396 0.175789 0.126828 -0.815393 0.142753 0.507549 -0.028992 0.230931 0.111519 -0.073867 -0.296399 -0.304305 -0.046032 0.345209 -0.055441 0.164183 -0.056094 0.147676 -0.244790 0.347020 -0.230538 0.061089 0.025767 0.490621 -0.293583 0.050546 0.498330 0.453768 -0.315958 0.136662 0.483559 -0.034460 -0.086943 -0.031208 0.312888 0.297097 0.242969 0.200027 0.362272 -0.199676 0.381608 -0.193954 -0.304344 -0.229249 -0.356116 -0.198533 0.275679 -0.249137 -0.188696 -0.327955 -0.094767 0.127670 -0.526902 0.787951 -0.319514 0.104396 -0.214032 -0.016506 0.014715 0.336846 0.215472 0.535997 0.114566 -0.136026 0.347654 -0.052570
최근 0.334420 0.061711 0.013849 -0.393777 -0.452392 -0.203124 0.379022 -0.054382 0.379535 0.312153 0.195262 0.717249 -0.179375 0.046939 0.349287 0.594319 0.310511 0.115145 -0.167895 -0.328550 0.223800 -0.361100 0.287112 0.060590 0.474964 -0.692988 0.022177 0.157654 0.295003 0.155504 -0.087032 -0.481850 0.058103 -0.064625 0.082020 0.422446 0.321371 -0.483584 -0.091853 0.148429 -0.016233 -0.164939 -0.209403 -0.287737 0.038228 0.013492 -0.517327 0.087357 -0.209376 0.081326 0.013573 0.196525 -0.053305 0.137473 -0.194952 0.402604 -0.173129 0.378082 0.281875 0.073485 0.133654 0.146258 -0.241016 0.238528 -0.259184 -0.318388 -0.022890 -0.479089 0.262003 0.344853 0.105096 0.193456 0.202286 0.182136 -0.054343 -0.209271 0.270099 0.227920 -0.495634 0.068282 0.287225 -0.003020 -0.134966 -0.378395 -0.116139 0.111870 0.325237 0.411646 -0.227060 0.411729 -0.273900 -0.491413 -0.331947 0.124344 0.152925 0.368862 -0.357805 -0.221425 0.478369 0.052010
행사 0.411895 -0.026521 0.057969 -0.181859 -0.073740 0.319165 0.304259 0.211937 0.607110 0.144480 0.114264 0.562807 -0.029642 0.210330 0.009698 0.494991 0.437062 -0.023952 -0.944717 -0.117731 0.477627 -0.536693 0.478342 -0.032298 0.440600 0.003921 0.193198 0.227938 0.256517 0.183938 -0.380507 -0.577464 0.621024 0.442688 -0.244876 0.306642 0.069393 -0.629597 -0.017466 0.416873 0.218878 -0.110510 0.206454 -0.580798 -0.300604 -0.262250 -0.755224 -0.134087 -0.254408 0.114005 -0.030019 -0.041613 0.031468 0.181511 -0.050664 0.165992 0.572067 0.488889 -0.347590 -0.227288 0.352767 0.071859 -0.276128 0.375698 -0.103381 -0.072311 -0.328933 -0.311783 0.779604 0.642371 -0.115063 0.462410 0.415739 -0.001528 -0.176762 -0.149132 -0.625253 0.148877 -0.286718 0.045330 0.215406 0.201632 -0.651021 -0.169026 0.084330 0.055838 -0.104916 0.572453 -0.495159 0.290403 -0.655625 -0.408321 -0.538989 0.513795 -0.258240 0.328811 -0.055124 0.109067 0.371547 -0.249070
참고 0.195170 -0.178763 0.613030 0.265327 -0.231041 -0.123618 0.189528 -0.280906 0.291992 -0.130359 0.444173 0.319578 0.019223 -0.078602 -0.117595 0.263233 -0.150755 0.784342 -0.497448 -0.499206 -0.040248 0.016584 0.037041 0.342862 -0.241284 -0.114233 0.002942 0.685506 0.225678 0.087999 -0.412767 -0.729074 0.206313 -0.223709 -0.320524 0.157850 0.348917 -0.755668 0.000582 -0.153316 -0.034157 0.584357 -0.295187 -0.105970 -0.053229 0.296156 -0.172503 0.221054 -0.329093 -0.133954 -0.009771 0.075378 0.310471 0.369780 -0.609809 -0.129746 0.540138 -0.000810 -0.530054 -0.296834 0.232709 0.227531 0.115366 0.114101 0.216222 0.055649 -0.005787 0.546188 -0.054562 0.011734 -0.350333 0.531449 0.614977 0.248735 0.381095 -0.260669 -0.516118 0.064391 0.071490 -0.244413 0.501781 -0.357914 -0.072125 -0.573351 0.243057 0.323135 -0.586016 0.831278 -0.327958 0.128466 0.269827 -0.321409 0.059826 0.458892 -0.324324 0.024575 0.184069 -0.473858 0.122591 -0.011802
인근 -0.191461 0.078555 0.537724 -0.163777 -0.524577 -0.486778 0.127210 -0.006804 -0.669828 0.377053 0.333582 0.742560 0.167374 -0.244481 0.571336 0.902780 0.210220 0.149595 -0.674905 -0.300308 -0.299210 -0.225418 -0.358550 -0.015446 0.284454 -0.231561 0.285557 0.104610 0.573571 0.175550 -0.402187 -0.252697 0.556920 -0.285649 -0.244176 0.235545 0.005198 -0.030888 -0.411050 0.098411 -0.537047 0.190511 0.130950 -0.358928 0.159757 -0.292702 -0.437923 -0.008055 -0.443014 -0.540475 -0.844374 -0.049604 -0.266418 -0.007135 -0.309995 -0.148334 0.096990 0.286220 0.213716 0.288890 0.120435 -0.207990 -0.582302 -0.059552 -0.335252 0.222115 0.110901 0.127622 0.144196 -0.151769 -0.531481 0.315039 0.366846 0.003818 -0.060164 -0.040458 -0.314442 0.177119 0.232466 0.287085 -0.191112 -0.057757 -0.141114 -0.149107 0.111560 0.020404 0.312801 0.544477 -0.292522 -0.217877 0.010229 -0.422161 -0.194084 0.227133 0.352948 0.024679 -0.122646 -0.368865 0.394437 0.027961
개인 0.380554 0.081577 0.338619 0.344477 -0.021604 0.114984 -0.184498 -0.083934 0.545091 0.295360 0.461175 0.328445 0.038957 0.270766 0.383477 0.208239 0.282638 0.153115 -0.509665 -0.392801 0.238622 -0.308509 0.170831 0.484599 -0.117239 -0.506241 0.367715 0.207806 0.168992 0.084301 -0.194536 -0.534929 0.301161 -0.028005 -0.632055 0.049699 0.229761 -0.056520 -0.149136 0.447340 -0.092543 0.145125 -0.096952 0.136640 -0.241509 0.017019 -0.294393 0.106164 0.173836 -0.452182 -0.291269 0.022657 -0.108799 -0.050619 0.168586 0.324099 0.177319 0.073951 -0.141897 -0.236742 0.598067 0.117881 -0.253293 0.594105 0.095585 -0.320601 0.149788 0.189647 0.337685 0.159657 -0.272855 0.011068 0.262655 -0.156336 0.168345 -0.075878 -0.633920 -0.090579 -0.117917 0.335856 -0.127197 -0.165069 -0.516074 0.316037 0.159852 0.086062 -0.258009 0.495353 -0.202436 0.033482 0.002483 0.104471 -0.406246 0.333690 0.405350 -0.032223 0.538308 -0.335918 0.654796 0.073199
밀집 0.725364 0.011466 0.146115 -0.394137 -0.286467 0.490167 0.000609 -0.207244 0.508076 -0.072249 0.541622 0.738365 0.322347 -0.133236 -0.409771 0.565923 0.592819 -0.147365 -1.046720 -0.085059 0.250647 -0.212203 0.056298 0.274111 0.332926 -0.365164 0.076447 0.616658 -0.022154 0.074828 -0.692452 -0.290471 0.005434 0.138057 -0.030911 0.292908 0.227142 -0.593876 -0.013665 0.667364 -0.241190 0.241702 0.035074 -0.489905 -0.257309 -0.235939 -0.361137 0.132529 0.099112 0.350796 -0.159552 0.198625 0.077092 -0.014232 -0.074677 0.121349 0.309544 0.583386 -0.433988 0.025557 0.561792 0.189336 -0.156809 0.343588 0.567844 0.043189 -0.126305 0.093747 0.403292 0.601118 0.118878 0.330804 0.155912 -0.142259 0.512503 -0.451806 -0.219170 -0.470379 -0.269903 -0.462841 0.506248 -0.249189 -0.593986 -0.493342 -0.303874 -0.093605 -0.358435 0.608994 -0.299625 0.374892 -0.346543 0.144555 -0.163370 0.267380 0.383399 0.263749 -0.151706 -0.353117 0.499960 0.072121
밀접 0.497309 0.086366 0.312283 -0.324626 -0.121309 -0.134509 -0.125572 0.042181 0.107237 -0.291571 0.111420 0.598143 0.162892 -0.685534 -0.382862 0.507536 0.373425 0.374076 -0.800528 0.214147 -0.311594 0.021294 -0.004714 0.492826 -0.116975 -0.326339 0.317574 0.673988 -0.098373 0.322545 -0.388671 -0.401114 -0.074232 0.323762 -0.359264 -0.020118 0.556027 -0.400529 0.235493 -0.200482 -0.298684 0.076481 -0.112255 -0.146071 -0.688536 -0.453700 -0.345949 0.065022 0.338133 0.655242 0.184701 -0.141138 -0.134815 -0.141649 -0.447892 -0.026863 0.090230 0.866378 -0.057387 -0.332566 0.132947 -0.068040 -0.295591 0.421883 0.582516 -0.283684 -0.058923 -0.072641 0.199403 0.099364 -0.300443 0.016351 0.022895 -0.374201 0.537279 -0.033578 0.136108 -0.621167 -0.309003 -0.472225 0.221778 -0.420663 -0.425734 -0.464398 -0.106466 -0.270446 -0.411299 0.687462 -0.057970 0.295353 -0.289349 0.116413 0.139005 0.020430 0.186420 0.362478 0.134149 0.175048 0.252117 0.089581
추후 -0.149370 0.357179 0.258398 -0.419120 0.133894 -0.452773 0.276903 -0.628902 0.389385 0.081719 0.326409 0.098512 0.791856 0.107685 -0.165694 0.029124 0.131869 0.599125 -0.342095 -0.363886 0.029090 -0.164736 0.267303 0.651490 -0.663547 -0.602534 -0.135048 0.630654 -0.006345 0.209821 -0.123774 -0.401859 0.325542 0.147939 -0.117208 0.275989 0.207426 -0.292236 -0.314045 0.009494 -0.706680 0.346161 -0.258365 -0.084478 0.028981 0.206718 -0.162927 -0.504229 0.209219 0.140750 0.138286 0.338848 -0.074271 0.088707 -0.551446 0.124421 0.465659 -0.213378 -0.161392 -0.534048 0.397876 -0.039121 0.024971 0.287103 0.350964 -0.301045 0.196308 0.409183 -0.074395 -0.233175 -0.292119 0.235178 0.596195 0.242586 -0.003444 0.050058 -0.352078 -0.265189 -0.062874 -0.136043 0.458063 0.322706 -0.304697 0.041666 0.107723 0.119571 -0.671192 0.905965 0.211446 0.651147 0.479775 -0.105587 0.360475 0.299212 0.280245 0.173261 -0.069640 0.075692 0.536639 -0.317896
북구 -0.171810 -0.080142 0.312822 -0.708590 -0.257421 -0.383763 0.112333 -0.322482 0.273621 0.626964 0.619376 0.966111 0.404534 -0.268163 0.330223 0.244671 -0.092726 0.104524 -0.258733 0.033196 0.102963 -0.791690 0.008701 -0.191112 -0.115655 -0.418655 -0.159949 0.780920 0.279655 -0.067538 0.090419 -0.618372 0.220151 0.056837 -0.292087 0.552918 -0.038324 -0.003450 -0.435531 0.016701 -0.206917 0.442563 -0.478069 -0.262695 0.363113 -0.148858 0.035567 0.390659 0.052015 0.164880 0.206499 0.375601 0.156894 0.282151 -0.078034 -0.135793 -0.130783 0.320351 0.330112 0.132457 0.145245 0.016746 -0.524134 0.704790 -0.084386 -0.103094 -0.008250 0.096108 -0.074359 -0.261163 0.310953 -0.010075 0.467942 0.225359 0.351510 0.085635 0.142486 0.017795 0.360290 -0.468404 0.194000 -0.083150 0.022064 -0.175517 -0.355403 -0.193762 -0.381014 0.602459 -0.021561 -0.100478 0.341013 -0.443039 -0.049897 0.339450 0.346824 0.049062 -0.052916 -0.048871 0.352132 -0.051413
환자 0.231952 0.252494 0.053364 -0.035377 -0.617617 -0.576766 0.359544 -0.071823 -0.115443 0.291246 0.098727 0.131931 -0.101402 -0.545919 0.075926 1.004075 0.061614 0.521041 -0.058796 -0.360699 -0.169226 -0.268776 0.084900 0.204682 0.166161 -0.109644 -0.093713 0.565128 0.076856 0.024575 -0.144004 -0.436065 0.310372 -0.202020 0.083221 0.264715 0.312352 -0.309898 -0.151218 0.060726 -0.321545 -0.056679 -0.515914 -0.322409 -0.142894 -0.054011 -0.475746 -0.041646 -0.302113 0.474440 -0.468007 0.090075 -0.054892 -0.394875 -0.366317 -0.116482 -0.021850 0.222227 0.328859 -0.075442 0.032200 -0.114004 0.018980 0.273926 -0.504043 -0.041161 0.248782 0.314633 -0.207661 -0.105838 -0.413017 0.562199 0.159849 -0.286693 0.378525 -0.109018 -0.219227 0.250844 -0.294399 -0.005235 0.268930 0.023559 0.210187 -0.659883 -0.161310 0.283571 -0.058801 0.644269 -0.442256 0.274391 0.081901 -0.426893 -0.177768 0.039698 -0.338979 -0.115295 -0.384651 0.077559 0.187090 -0.210542
단계 0.381195 -0.322139 0.415634 -0.444680 -0.061952 -0.182276 0.003696 0.177764 0.585469 -0.597552 0.444954 -0.002697 -0.077459 0.301057 0.490523 0.344628 -0.282482 0.067089 -0.456113 -0.645990 0.208010 -0.778080 0.424973 0.515646 -0.144194 0.002791 0.034453 0.511856 -0.114704 0.346172 -0.476987 -0.039423 0.725302 -0.435526 0.597625 0.379388 -0.016679 -0.528249 -0.099208 0.418933 -0.548806 0.138073 -0.608669 -0.144304 -0.091103 0.128088 -0.433448 -0.353294 -0.078770 0.156430 0.016977 0.092328 -0.260211 -0.316101 -0.437994 0.574197 0.361773 0.731762 -0.011317 -0.031624 0.356489 -0.227875 0.215703 0.440171 -0.319605 0.043344 -0.069746 -0.364544 0.850019 0.164798 0.266888 0.523310 1.013988 -0.061956 0.203238 0.167536 -0.595987 -0.428408 -0.190275 0.295925 0.742261 0.361878 -0.664299 -0.099454 -0.036228 0.072072 -0.067219 0.102355 -0.322561 0.498098 -0.302042 0.254392 -0.011467 0.560542 -0.558360 0.367109 -0.019997 -0.213962 0.455648 -0.410216
보건 -0.270325 -0.029194 0.025921 -0.872384 -0.602014 -0.261456 -0.055601 0.025033 -0.220861 0.266153 0.543883 0.740464 0.308509 -0.297002 -0.171216 -0.211939 -0.506043 -0.077419 -0.368997 -0.185003 0.391485 -0.088683 -0.145759 -0.035654 0.115537 -0.585873 -0.337660 0.309967 0.217197 -0.130815 -0.613001 -0.555978 0.230532 0.270393 -0.427961 0.137527 0.030445 -0.248366 -0.652105 0.071676 -0.249053 0.234446 -0.267690 -0.241561 0.097683 0.132701 -0.361078 0.038632 -0.204226 0.243518 -0.325667 0.109424 -0.272166 0.377170 0.013236 0.072475 -0.243306 -0.200102 0.108547 -0.091219 0.404795 0.072388 -0.262466 0.280706 0.026422 -0.311740 -0.216168 -0.297475 0.144829 -0.423544 -0.078798 -0.230428 0.519267 0.538259 0.633781 0.224200 -0.059859 -0.119733 0.463978 -0.117528 0.145278 -0.160066 0.059542 -0.078150 0.119699 0.061987 -0.144484 0.582898 0.604275 0.154524 0.180585 -0.419601 -0.404223 0.836701 -0.142459 0.590703 0.292416 -0.036491 0.637061 -0.222922
시민 -0.298779 -0.086394 0.238764 -0.241077 -0.155535 -0.206908 0.274642 0.023887 -0.101292 -0.129732 0.389082 0.188054 -0.102591 -0.354973 -0.198738 0.226927 0.496707 0.187730 -0.389295 -0.195580 0.676677 -0.862225 0.180249 0.288646 -0.180423 -0.424150 -0.024963 0.035978 0.374586 -0.085849 0.338538 -0.135647 0.495702 0.009470 0.320829 0.039947 0.515550 -0.250812 -0.005136 0.125576 0.158427 -0.035989 -0.109449 0.200688 0.012945 -0.362782 -0.534646 -0.487499 -0.106035 -0.085992 -0.209569 -0.341859 -0.035824 -0.119491 -0.153471 -0.295456 -0.117789 0.006834 0.327408 0.114806 0.340962 0.314473 0.071803 0.469638 -0.381388 0.042252 -0.042033 -0.189988 0.103520 -0.044337 -0.089213 0.274475 0.277367 -0.360495 0.130278 0.489140 -0.626180 -0.334590 -0.373902 0.363847 0.443996 0.104992 -0.472343 0.163467 -0.053008 0.172255 0.159042 0.064981 0.086754 0.033047 0.452628 -0.648578 -0.285388 0.182134 0.083936 -0.237295 0.121022 0.000201 0.612754 0.099890
전원 0.151589 0.099834 -0.117592 -0.703655 -0.372119 -0.027316 -0.183586 -0.281753 -0.248681 -0.102334 0.123525 0.296272 0.077017 -0.587785 -0.157314 0.419976 -0.214740 0.140190 -0.300845 -0.197130 0.274552 -0.320824 -0.160464 0.571911 -0.156035 -0.383654 -0.003054 0.610930 0.235118 -0.193377 0.086839 -0.498552 0.307072 -0.074475 -0.576441 -0.008266 0.733515 0.092170 -0.205336 0.010151 -0.160862 -0.065900 0.153385 0.093247 -0.382115 -0.202400 -0.812845 -0.140461 0.153797 0.051528 0.352745 -0.114346 0.129721 -0.149763 -0.359959 0.296673 0.010225 0.218095 0.146407 -0.395617 0.169498 0.124290 -0.441225 0.275044 0.131317 -0.593371 0.185822 0.044009 0.426577 -0.076373 -0.344402 0.032002 0.444816 -0.315375 0.166278 0.211924 -0.257990 -0.333442 -0.331063 -0.024993 0.401173 0.307399 -0.079097 -0.339464 -0.210339 0.356569 -0.025862 0.220481 -0.407758 0.367016 0.478589 -0.323054 -0.280799 0.503324 0.353163 0.269428 0.331321 0.444443 0.685781 -0.054168
거주지 0.081252 0.207741 -0.038698 0.438335 -0.820493 -0.636236 -0.019294 -0.202203 0.097049 -0.030626 0.040600 0.189695 -0.407541 -0.198443 0.463714 0.320292 -0.095490 0.187528 -0.430638 -0.548057 0.369332 -0.447847 0.197775 0.117021 0.268348 0.161693 0.179911 1.208948 -0.073382 0.227763 -0.028268 -0.464342 0.548778 -0.400411 -0.206817 0.646073 0.366675 -0.019176 0.037243 -0.111738 -0.199183 0.251450 -0.508840 -0.575125 0.281826 -0.151586 0.083542 0.170041 -0.484008 -0.121187 -0.248622 0.160911 0.215648 0.092101 -0.458374 -0.479773 0.547437 0.266871 0.151866 -0.029422 0.191659 -0.053174 -0.768467 0.389045 0.018639 -0.014580 0.277108 0.613700 -0.053442 -0.027662 0.150642 0.313329 0.236273 0.103979 0.689435 -0.543101 -0.164013 -0.259302 0.382421 -0.485135 0.121085 0.159054 0.065598 -0.320956 -0.114855 -0.054677 -0.049083 0.831912 -0.079119 -0.148101 0.880180 -0.256949 -0.067955 0.672285 0.131744 0.075299 -0.202287 0.556625 0.432446 0.073595
참석 -0.218510 0.271646 0.240929 -0.607544 0.101830 -0.387628 0.111900 0.412966 0.001999 0.318693 0.545138 0.507221 0.159542 -0.030309 0.077699 0.411327 -0.017503 0.323642 -0.543428 -0.182783 -0.198099 0.265536 0.353420 -0.080004 -0.052551 -0.375938 0.340812 0.242095 0.435805 0.320244 -0.250991 -0.515608 0.483584 0.688538 -0.323275 0.526299 0.169620 -0.527438 -0.293748 -0.084617 -0.025788 0.386795 0.601884 -0.006177 -0.717971 -0.717990 -0.382322 -0.168703 -0.394245 0.354144 -0.084622 0.290124 0.067147 -0.217534 -0.262432 -0.306194 -0.271514 0.354989 -0.137090 -0.313257 0.147741 0.178923 -0.067854 0.187107 -0.116651 -0.078727 -0.057229 -0.223998 0.136485 -0.200169 -0.014031 -0.283659 0.479185 -0.081222 0.450518 0.191218 -0.482104 0.352854 -0.547595 0.208606 -0.023509 0.117548 0.350265 0.070043 0.010866 -0.077749 0.083777 -0.030786 -0.231181 -0.197181 -0.076296 -0.515933 -0.297710 0.221958 0.030525 0.176865 -0.194870 -0.325332 0.278324 -0.251450
지속 0.350193 -0.033511 0.014876 -0.234849 -0.306729 0.322523 0.466677 0.064044 0.262538 0.223317 0.005570 0.508374 0.085457 0.212986 0.476145 0.728929 -0.087884 0.279139 -0.483262 -0.335798 0.246252 -0.417795 0.623994 0.106323 0.282488 -0.705785 0.054209 0.144283 0.394396 0.096596 -0.185293 -0.563186 0.252402 0.322217 -0.098751 0.528698 -0.026557 -0.894620 -0.079396 0.308653 -0.192893 -0.188707 -0.211587 -0.555936 -0.131008 -0.458598 -0.443655 -0.204671 -0.296887 0.478539 0.002055 0.216123 0.573556 -0.227374 -0.383679 -0.168265 -0.158781 0.296792 0.158200 -0.030796 0.150404 0.560594 -0.467160 0.247348 -0.178807 -0.140913 -0.210391 0.122494 0.456365 0.293559 0.110232 0.187933 0.090752 0.337250 0.124508 0.047475 0.002399 0.226759 -0.120908 0.239386 0.319549 -0.182081 -0.050068 -0.277259 0.006508 -0.050904 0.195624 0.410792 -0.285656 0.352822 -0.561263 -0.178006 -0.198155 0.280568 -0.369207 0.176077 -0.009914 -0.215485 0.106771 -0.107821
실천 0.278937 0.083180 0.127852 -0.120462 -0.117868 -0.056241 0.395441 -0.259232 0.619066 0.478350 0.391723 0.290952 0.219645 0.087184 0.003099 0.515629 0.116713 -0.142528 -0.418379 -0.104069 0.315206 -0.572935 0.369165 0.213413 -0.453129 -0.369311 -0.009363 0.505084 0.099956 0.308403 -0.614463 -0.170043 0.091815 0.467152 0.054184 0.138802 0.087159 -0.292738 -0.155834 0.410490 -0.489435 0.099012 -0.183919 -0.251592 -0.301650 -0.195269 -0.317096 -0.632540 -0.129498 0.127364 0.060723 0.112981 -0.154068 -0.191121 -0.171920 0.229475 -0.015567 0.448018 0.113896 -0.202540 0.492786 0.119096 -0.251652 0.637137 0.052777 0.026854 -0.206126 0.102435 0.458973 -0.138687 0.136196 0.336835 0.554134 -0.271049 0.127594 0.054730 -0.596431 -0.405073 0.035944 0.023759 0.533636 0.040584 -0.422373 0.031333 -0.056029 -0.148109 -0.241092 0.143259 0.135416 -0.053083 -0.397882 0.137243 -0.139678 0.573544 -0.002194 -0.133686 0.562624 -0.281449 -0.089598 -0.136928
식당 -0.469412 -0.134109 -0.270780 -0.603422 -0.437959 -0.351562 0.151864 0.039029 0.615615 0.269563 0.216090 0.225293 0.036278 -0.114302 0.000193 0.223128 0.122873 0.046485 -0.275385 0.185659 -0.060002 -0.263930 -0.203528 0.025270 0.027419 -0.437932 -0.053801 0.614273 0.339483 -0.158018 0.088191 -0.604156 0.151428 -0.042083 -0.241307 0.115740 0.671321 -0.224843 0.430097 -0.003243 -0.239633 -0.444785 -0.341577 0.470482 0.342506 -0.156696 -0.541559 0.210254 0.039029 0.085371 0.419460 -0.237538 0.285044 -0.394720 0.000936 0.500368 0.194449 0.452311 0.239749 0.052219 0.330883 0.105873 -0.099620 0.434309 -0.104329 -0.601195 0.054566 -0.139926 0.243025 0.212016 0.247711 0.019045 0.315462 -0.264669 0.189135 0.134426 -0.262337 -0.334661 -0.035065 -0.027833 0.467209 -0.290052 -0.328801 -0.378392 -0.095046 -0.185725 0.230036 0.587466 0.703204 0.018703 0.118199 -0.224796 -0.032152 0.180901 0.594854 0.465537 0.110132 -0.127979 0.156604 0.089655
금지 0.031197 -0.045451 -0.138535 0.002247 -0.327109 -0.114583 0.297002 0.088419 0.331162 0.350539 0.240616 0.591679 0.139253 0.064543 -0.252706 0.519141 0.234450 -0.101272 -0.428030 0.085731 0.142764 0.052314 0.305474 0.485977 -0.118109 0.067170 0.268720 0.440021 0.053061 0.416850 -0.804582 -0.703890 0.506942 0.368682 0.138069 0.187679 0.025153 -0.412980 0.087763 0.498234 0.002821 0.067358 0.512435 -0.253683 -0.281458 -0.218680 -0.805291 -0.048739 -0.478142 0.293764 -0.038220 -0.164953 -0.465271 0.038064 -0.096375 0.430301 0.014656 0.434829 -0.312422 0.072121 0.426552 0.323175 -0.100992 0.348375 0.422131 -0.350342 -0.282798 -0.518884 0.299873 -0.028346 -0.116240 0.067617 0.354743 -0.391666 0.341899 0.158891 -0.893644 0.033740 -0.433210 0.021188 0.212356 -0.050818 -0.528847 -0.249151 -0.044027 0.019299 -0.337802 0.186507 0.082117 -0.280888 -0.295177 0.358336 -0.423439 0.347068 -0.349518 0.120540 0.422738 -0.148665 0.394380 -0.130768
